%YAML:1.0
my_nn: !!opencv-ml-ann-mlp
   layer_sizes: !!opencv-matrix
      rows: 1
      cols: 3
      dt: i
      data: [ 256, 16, 10 ]
   activation_function: SIGMOID_SYM
   f_param1: 1.
   f_param2: 1.
   min_val: -9.4999999999999996e-01
   max_val: 9.4999999999999996e-01
   min_val1: -9.7999999999999998e-01
   max_val1: 9.7999999999999998e-01
   training_params:
      train_method: BACKPROP
      dw_scale: 1.0000000000000001e-01
      moment_scale: 1.0000000000000001e-01
      term_criteria: { epsilon:2.0000000000000000e-03, iterations:2000 }
   input_scale: [ 1., 0., 3.7174407241505975e-02,
       -2.4782938161003984e-01, 1.5721249524260256e-02,
       -2.6726124191242434e-01, 1.4222321136566119e-02,
       -3.3043192773955282e-01, 1.4158882900957868e-02,
       -3.4594870554673723e-01, 1.2173516215307026e-02,
       -4.4230442248948865e-01, 9.0805103977572889e-03,
       -6.8164364719164716e-01, 8.4646406279127208e-03,
       -1.1291830597635570e+00, 8.7636229901229008e-03,
       -1.2485241553261759e+00, 8.7172698302405115e-03,
       -1.2349465592840723e+00, 9.2995255833192743e-03,
       -7.8766981690714255e-01, 8.7348371318009300e-03,
       -6.5249233374552951e-01, 1.3065368123159405e-02,
       -3.5755557430379575e-01, 2.1838405243170728e-02,
       -2.0018538139573167e-01, 1.5916743272318731e-01,
       -1.8569533817705189e-01, 1., 0., 1., 0., 1.3071895424836602e-02,
       -3.3333333333333337e-01, 1.4575323850486618e-02,
       -3.5418036956682480e-01, 9.8984648349793938e-03,
       -5.4606531006302983e-01, 8.7235177567856828e-03,
       -6.6502283699229525e-01, 8.3155291857748437e-03,
       -9.0029462651322312e-01, 8.7869598580842881e-03,
       -1.5180937648150290e+00, 9.2281573220220799e-03,
       -1.5072656959302730e+00, 9.7182163249056510e-03,
       -1.7343776734514953e+00, 9.6842743372200831e-03,
       -1.7528536550368350e+00, 8.6973033751394906e-03,
       -1.2196518433070611e+00, 8.0125095651170583e-03,
       -1.0667321067692510e+00, 9.4385924393513721e-03,
       -8.0007801910901799e-01, 1.2220183314758945e-02,
       -4.0978348048824992e-01, 2.1776990632356847e-02,
       -2.0760731069513527e-01, 1., 0., 1., 0., 1.3369276008834807e-02,
       -4.1088241600485642e-01, 1.0809264058853209e-02,
       -4.9038027946997392e-01, 9.8240396080311130e-03,
       -5.3082560682061442e-01, 8.0539086512855552e-03,
       -8.6928520709542101e-01, 8.3985403664599660e-03,
       -1.2368250446340043e+00, 8.5521135307506380e-03,
       -1.3250074563642988e+00, 8.1928189762817700e-03,
       -9.3015804777385691e-01, 8.5009986083827652e-03,
       -9.2179161576897117e-01, 8.1151878297744274e-03,
       -1.0804020064039688e+00, 8.5473800717125910e-03,
       -1.2453532764485244e+00, 8.1839293329814336e-03,
       -9.3815109920410511e-01, 8.2961197852712294e-03,
       -8.1550857489216177e-01, 9.3708421536526938e-03,
       -6.0254515047986823e-01, 1.3066067009248956e-02,
       -3.6802755409384563e-01, 1.5470545185959819e-02,
       -3.2900692762141215e-01, 3.6893113545109643e-02,
       -1.8569533817705186e-01, 1.4388888057333557e-02,
       -3.6643701586009458e-01, 1.1338752771683808e-02,
       -4.7395986585638311e-01, 1.0578223369628874e-02,
       -4.4886927831791851e-01, 8.4577333902755292e-03,
       -8.3928907676167497e-01, 8.2188730225344307e-03,
       -1.0462625357686330e+00, 7.9968556148141724e-03,
       -9.9081041067547604e-01, 8.9714828132183202e-03,
       -6.6089923390708294e-01, 1.0042050423052732e-02,
       -5.2017821191413149e-01, 9.3643061973686641e-03,
       -7.6256666800572159e-01, 8.3890098378785870e-03,
       -1.0301704080914904e+00, 8.1319959593516497e-03,
       -1.0595990735035201e+00, 8.4570024322724747e-03,
       -7.9270302798500658e-01, 8.7942905955505253e-03,
       -6.5019121803103552e-01, 1.0950751151335109e-02,
       -4.4496552178258325e-01, 1.4406222803832894e-02,
       -3.3662540618289533e-01, 2.1846510373770806e-02,
       -1.8569533817705186e-01, 1.2508597185918924e-02,
       -4.1069894093767140e-01, 1.0620350030648569e-02,
       -4.4711673629030479e-01, 9.8292585079302521e-03,
       -6.3922944496573075e-01, 8.3928827913843755e-03,
       -7.4584751739435806e-01, 8.3848353568206409e-03,
       -7.4988377541165940e-01, 9.4294055021499901e-03,
       -7.0783403969472591e-01, 1.2868705593864148e-02,
       -3.9249552061285653e-01, 2.0339399074985564e-02,
       -3.2407442526143665e-01, 1.0469177057643175e-02,
       -6.0581637906895169e-01, 8.7887262373434628e-03,
       -8.4723320927990986e-01, 8.3770360358170967e-03,
       -1.0580196513236992e+00, 8.5389305990972979e-03,
       -9.1167315696362150e-01, 9.5646514402405007e-03,
       -5.6973440412365917e-01, 1.2736728222721925e-02,
       -4.1521734006073480e-01, 2.1858969326174402e-02,
       -1.9090166544858977e-01, 2.1857779906960952e-02,
       -1.9453424117195248e-01, 1.1536243243422589e-02,
       -3.9223227027636803e-01, 1.0522672835293128e-02,
       -4.4721359549995793e-01, 9.0741640020643236e-03,
       -6.3488900801110049e-01, 8.5575643229800942e-03,
       -6.5465367070797720e-01, 9.4238211121467717e-03,
       -6.2448521236492605e-01, 9.8775657963690363e-03,
       -5.2746201352610655e-01, 1.1557811424185894e-02,
       -3.9912975451521954e-01, 1.4442168734076570e-02,
       -3.2783723026353812e-01, 9.9320674374744778e-03,
       -6.0651825151510819e-01, 9.7957649654815612e-03,
       -6.4652048772178305e-01, 8.2768790557715931e-03,
       -9.3032120586872713e-01, 8.6904329102328176e-03,
       -8.5253146849383932e-01, 9.5628654847611117e-03,
       -6.2222378087512298e-01, 1.1791300526892548e-02,
       -4.2959638252978510e-01, 3.4981171107705863e-02,
       -2.0405683146161752e-01, 2.3227050932817076e-02,
       -2.9111237169130733e-01, 1.1536243243422589e-02,
       -3.9223227027636803e-01, 9.8100922717289495e-03,
       -5.0162271816107362e-01, 9.0298289214705337e-03,
       -6.8506302084223114e-01, 8.5975189924824332e-03,
       -7.8065472451740492e-01, 9.9516151105524461e-03,
       -5.1449850121556151e-01, 1.0415217070386460e-02,
       -5.7318411277360148e-01, 1.0713971405959382e-02,
       -4.5355812285228053e-01, 1.0920435281849395e-02,
       -4.7249083319468382e-01, 8.4385611663438925e-03,
       -7.2234083583903719e-01, 9.5733120658768704e-03,
       -6.8257715029702082e-01, 8.1279418648720885e-03,
       -9.3173306910983711e-01, 9.0685836373583951e-03,
       -7.5722673371942595e-01, 1.0721234889013040e-02,
       -5.3248799948764758e-01, 1.0652272037846839e-02,
       -4.4704034985497237e-01, 3.5036856259821107e-02,
       -1.8569533817705186e-01, 2.7853292263542499e-02,
       -1.9868681814660316e-01, 1.0612317990557197e-02,
       -4.4713233133547653e-01, 9.0096895003041778e-03,
       -6.0214758160366255e-01, 8.6352977493758393e-03,
       -6.8017361939250365e-01, 8.8750234199234338e-03,
       -7.8277706563724692e-01, 9.4526943062666572e-03,
       -6.4498884149759494e-01, 9.5769894218179358e-03,
       -6.1899274963016593e-01, 1.0558867387895896e-02,
       -5.9763189415490769e-01, 9.2338977026049044e-03,
       -7.1285690264109869e-01, 8.8534253511503465e-03,
       -9.0098358656873356e-01, 9.6749485817456040e-03,
       -8.0334323057094326e-01, 8.2674046619450291e-03,
       -9.6012126140721610e-01, 9.4932711267764393e-03,
       -5.6231809307605773e-01, 1.0219795374855725e-02,
       -5.3483595795078298e-01, 1.0894377408875014e-02,
       -4.4558003602298807e-01, 3.5036856259821107e-02,
       -1.8569533817705186e-01, 2.1846510373770806e-02,
       -1.8569533817705186e-01, 9.7272276032240850e-03,
       -5.4861563682183834e-01, 8.9463620243219136e-03,
       -6.2803461410739836e-01, 8.6388432807605556e-03,
       -7.3948498483310354e-01, 9.0259925248501686e-03,
       -7.6991716236971930e-01, 8.5337625105397982e-03,
       -7.6860754344928450e-01, 8.2106603003024824e-03,
       -9.2452034981405951e-01, 8.4577404487249340e-03,
       -7.5555814675276078e-01, 8.5623534417656796e-03,
       -1.1693320683637995e+00, 8.0754181013824155e-03,
       -1.1286742699698824e+00, 8.2576861773789277e-03,
       -1.1841521978361382e+00, 8.2425595438923582e-03,
       -1.0017457365677178e+00, 9.2068364127227860e-03,
       -6.4294407615514115e-01, 9.6651525965130158e-03,
       -5.7636526650539288e-01, 1.1012720161118265e-02,
       -4.4564807585325245e-01, 3.9791858180796830e-01,
       -1.8569533817705189e-01, 1.5097956255517887e-02,
       -3.4423340262580782e-01, 9.8284714504985760e-03,
       -5.2975461118187328e-01, 8.8596683290395953e-03,
       -6.5413884496075669e-01, 8.5961353364436329e-03,
       -7.8339446699456317e-01, 8.6740709103613738e-03,
       -8.8388782576582403e-01, 8.3189033080770299e-03,
       -7.0710678118654757e-01, 8.6036486386593929e-03,
       -8.1648625580877643e-01, 8.1815030985924828e-03,
       -8.9451100544611140e-01, 8.1529854952948760e-03,
       -8.5986820357043292e-01, 8.3691024430791548e-03,
       -1.0762665741799793e+00, 8.3237101104959195e-03,
       -1.1642095874546960e+00, 8.8666912245673763e-03,
       -9.4844040465455703e-01, 9.1905519236221526e-03,
       -6.8438976657906303e-01, 8.8679807228754012e-03,
       -6.0302268915552726e-01, 1.2560003960968132e-02,
       -4.0526946114057172e-01, 3.6887897841274442e-02,
       -1.9919464834288200e-01, 1.2676933518626640e-02,
       -3.9383006797866760e-01, 9.4334417432784083e-03,
       -5.5091299780745906e-01, 8.9268225448737460e-03,
       -7.1831165411084075e-01, 8.3685527834981930e-03,
       -8.1286542703712450e-01, 9.6301641075610504e-03,
       -7.1455817678102995e-01, 9.5440391254591733e-03,
       -5.7805063636531062e-01, 1.2462556072999884e-02,
       -4.1708020990972944e-01, 1.0695132793270957e-02,
       -5.4366925032460700e-01, 9.6613667727329915e-03,
       -6.1736133677763816e-01, 9.2122364994754354e-03,
       -8.2203857030319138e-01, 8.1505069562433780e-03,
       -8.8840525823052818e-01, 8.2801025673256163e-03,
       -8.2552622596236391e-01, 8.9987168744540321e-03,
       -7.4689350057968462e-01, 9.4288536018211095e-03,
       -5.5095934546641345e-01, 1.1536243243422589e-02,
       -3.9223227027636803e-01, 1.7176471790126095e-02,
       -2.7768629394037192e-01, 1.1706684413962817e-02,
       -4.4407356210298948e-01, 9.8039215686274508e-03,
       -5.0000000000000000e-01, 1.0126641269146223e-02,
       -6.2650153985117962e-01, 8.2107178056082808e-03,
       -7.8521831280967203e-01, 1.0252997802122691e-02,
       -6.3124289801735367e-01, 1.3071895424836602e-02,
       -3.3333333333333337e-01, 1.5711912913628071e-02,
       -2.8752800631939368e-01, 1.2214165674553872e-02,
       -3.8922474616245006e-01, 1.1536243243422589e-02,
       -3.9223227027636803e-01, 9.0412443485566214e-03,
       -6.2053073712260287e-01, 8.6622447782631236e-03,
       -8.8210525991979472e-01, 8.7117680231299840e-03,
       -7.8812461382582588e-01, 8.5998854625193213e-03,
       -7.6080320058420936e-01, 9.4733520454627265e-03,
       -5.7882180997777255e-01, 1.1202620249787847e-02,
       -4.4026297581666235e-01, 1.4616993394856320e-02,
       -3.2595895270529596e-01, 1.5721249524260256e-02,
       -2.6726124191242434e-01, 1.1005259392357473e-02,
       -4.4424563747149665e-01, 9.8285431851676749e-03,
       -5.5203650890025102e-01, 8.2754971285728899e-03,
       -8.2865311247443207e-01, 8.0307818376430130e-03,
       -8.2342283108633030e-01, 1.2085377803636927e-02,
       -4.7334396397577960e-01, 1.0142824234965790e-02,
       -5.3858396687668342e-01, 1.0522672835293128e-02,
       -4.4721359549995793e-01, 9.3044800463652749e-03,
       -5.6168044546558371e-01, 8.9519025810821402e-03,
       -6.6811032930143044e-01, 9.2949180687399730e-03,
       -7.4080497007857593e-01, 8.6138481098791738e-03,
       -9.1737482370213197e-01, 8.4640598024758248e-03,
       -7.6458673549031608e-01, 9.9117682825794508e-03,
       -5.7290020673309228e-01, 1.1536243243422589e-02,
       -3.9223227027636803e-01, 1.7306196000845306e-02,
       -3.2074149921566636e-01, 1.5721249524260256e-02,
       -2.6726124191242434e-01, 1.3083437584113825e-02,
       -3.3668046049786243e-01, 1.3127363112417807e-02,
       -4.6777170557248787e-01, 8.7117239448791049e-03,
       -6.7486821492996796e-01, 8.2096072750896254e-03,
       -9.5039886887954228e-01, 8.1351912616117773e-03,
       -8.1351912616117772e-01, 8.3413370689962019e-03,
       -9.2950299405514347e-01, 8.2032246306807787e-03,
       -7.6043892326410822e-01, 8.1378172219538185e-03,
       -7.6088591025268204e-01, 8.7320127746639102e-03,
       -6.8197019770125133e-01, 8.5878315717827225e-03,
       -1.0136503865227540e+00, 8.0752791365381171e-03,
       -9.9002922213957312e-01, 8.5380746501842880e-03,
       -8.3445449581134445e-01, 1.0023504834854650e-02,
       -5.6465743903014531e-01, 1.4084699521112918e-02,
       -3.3427686863441325e-01, 1.9269352899688640e-02,
       -2.6077857590911957e-01, 4.7210679197555554e-02,
       -1.8569533817705183e-01, 1.7518225027881418e-02,
       -2.6510913875527209e-01, 1.7539454494806386e-02,
       -2.7420013860213982e-01, 1.0006408377057416e-02,
       -5.2767126841682777e-01, 8.3489455128611233e-03,
       -8.2042304573048641e-01, 8.2133221860788783e-03,
       -1.1400091194277484e+00, 9.1271375311790179e-03,
       -1.5516133803004331e+00, 8.3298684173583812e-03,
       -1.1506324907177710e+00, 8.5360421548090967e-03,
       -1.1432605792674317e+00, 9.2121722188785189e-03,
       -1.3108921067464134e+00, 8.1781900330613697e-03,
       -1.2599864777603216e+00, 8.2971820221885602e-03,
       -9.3841128670952612e-01, 9.1639902637191545e-03,
       -6.2712240038051414e-01, 1.3439801383136919e-02,
       -3.7138651155401686e-01, 2.1846510373770806e-02,
       -1.8569533817705186e-01, 3.5036856259821107e-02,
       -1.8569533817705186e-01, 1., 0., 1., 0., 1., 0.,
       1.7718518427398723e-02, -2.8231506027655301e-01,
       1.2930975622736748e-02, -4.0560160203317602e-01,
       9.3924228691137750e-03, -6.7468904276467279e-01,
       8.2977659820782403e-03, -8.9256302747221605e-01,
       8.0126921853462020e-03, -1.0643526119534872e+00,
       8.0353778305288746e-03, -1.0245106733924316e+00,
       8.2564761202398168e-03, -1.0499485466238301e+00,
       8.1407112650506847e-03, -7.6088514624007064e-01,
       9.9003727535762510e-03, -5.1316932106036905e-01,
       1.4259996727017405e-02, -3.2940592439410210e-01,
       3.2893214306995065e-02, -3.1467841687025278e-01,
       2.1846510373770806e-02, -1.8569533817705186e-01,
       3.5036856259821107e-02, -1.8569533817705186e-01 ]
   output_scale: [ 5.2631578947368418e-01, 4.9999999999999994e-01,
       5.2631578947368418e-01, 4.9999999999999994e-01,
       5.2631578947368418e-01, 4.9999999999999994e-01,
       5.2631578947368418e-01, 4.9999999999999994e-01,
       5.2631578947368418e-01, 4.9999999999999994e-01,
       5.2631578947368418e-01, 4.9999999999999994e-01,
       5.2631578947368418e-01, 4.9999999999999994e-01,
       5.2631578947368418e-01, 4.9999999999999994e-01,
       5.2631578947368418e-01, 4.9999999999999994e-01,
       5.2631578947368418e-01, 4.9999999999999994e-01 ]
   inv_output_scale: [ 1.8999999999999999e+00, -9.4999999999999996e-01,
       1.8999999999999999e+00, -9.4999999999999996e-01,
       1.8999999999999999e+00, -9.4999999999999996e-01,
       1.8999999999999999e+00, -9.4999999999999996e-01,
       1.8999999999999999e+00, -9.4999999999999996e-01,
       1.8999999999999999e+00, -9.4999999999999996e-01,
       1.8999999999999999e+00, -9.4999999999999996e-01,
       1.8999999999999999e+00, -9.4999999999999996e-01,
       1.8999999999999999e+00, -9.4999999999999996e-01,
       1.8999999999999999e+00, -9.4999999999999996e-01 ]
   weights:
      - [ -7.0663511885764698e-03, -3.1319616385449660e-03,
          -8.2230975538369637e-04, -6.5059386202973336e-03,
          -7.6566506050802204e-03, -2.5135917027173738e-03,
          7.3853611719644219e-03, 7.9154135231619127e-03,
          -6.6065326771522596e-03, 5.6815807848128097e-03,
          -2.8859582044450205e-03, -1.4997155772638029e-04,
          -3.8116735313184925e-03, 1.6491189986482799e-03,
          2.4628472888740698e-03, -7.0593483148477399e-03,
          2.9887783553669872e-01, -1.0711092263742392e-01,
          -8.8179462366508726e-02, 6.4293398910674843e-02,
          -1.1227604375585137e-01, -1.3557468664601632e-01,
          -1.1675307852527936e-01, 2.8217481597741952e-02,
          1.1985191001647014e-01, -2.3430032247179075e-01,
          9.0627893827376363e-02, -2.7890979051629022e-01,
          -6.9104307291054670e-02, 3.7273633279767363e-02,
          2.3062620797487231e-02, 6.4597085875876328e-02,
          2.7160657676125927e-01, -1.2030123241271079e-01,
          -9.1575587764988017e-02, 7.8115025932221610e-02,
          -1.0150789278429356e-01, -1.2771475454390205e-01,
          -1.3507037105015049e-01, 1.8818915181420412e-02,
          1.2757318809511348e-01, -1.7079694677588764e-01,
          9.4878492940621284e-02, -2.2701821838359604e-01,
          -8.0128251899611161e-02, 2.9740602406174852e-02,
          3.2255534730092024e-02, 7.0572048146191613e-02,
          3.2666749118968880e-01, -1.3500359666538975e-01,
          -1.7992748768813563e-01, 1.4465658171353375e-02,
          3.3332714154588543e-02, -9.1418948183997123e-02,
          2.6713558865720848e-02, -5.4351696164979341e-02,
          2.7900705132198944e-02, -1.3873280076332822e-01,
          1.0199805550900500e-01, -2.0355182528898494e-01,
          -2.6688141416090310e-02, -2.1815812372259148e-03,
          -9.1837613575515321e-03, 2.7246333705054592e-02,
          1.1671146293915795e+00, -7.0930503166200143e-02,
          -1.3234941447565146e-01, -4.4262903892578163e-02,
          -1.3931865424758227e-01, 2.7178949038129185e-02,
          -4.2160155797536958e-02, -1.6388701179373361e-01,
          8.0702777742808041e-02, 3.0415042974561977e-03,
          9.0292680749182896e-02, -5.4968177580063712e-02,
          1.2356519633601350e-01, -1.1872086951572371e-01,
          -1.3317310056061904e-01, -1.3305482281158404e-01,
          -1.1913327039136870e+00, -2.1037048178581139e-02,
          -9.9177318990901916e-02, -2.4295825328271899e-02,
          -1.3123420919555770e-01, 9.8215646788822386e-02,
          4.8866497848586356e-02, 4.4539291034420982e-02,
          -9.2995343176175915e-02, 8.8927442259528325e-02,
          -1.3314043028335136e-02, -7.2000637001862378e-02,
          9.1292997901662898e-02, -5.6535548349975907e-02,
          -7.1530058199897134e-02, -1.9335312146129852e-01,
          -1.9038805872599869e+00, 7.1619947702680528e-02,
          -2.3708894478195647e-02, 5.9416979860402605e-02,
          -1.1161996092804242e-01, 1.7996764242775190e-01,
          1.7164396942096306e-02, 9.6486780687326829e-02,
          -1.3039220929750306e-01, 6.9669613096389763e-02,
          -4.7821602364409153e-02, -1.1215544311067387e-01,
          -5.3938346081713093e-02, 3.0431207138996708e-02,
          -9.7487121269697607e-02, -2.0782175988621704e-01,
          -2.0350356209109046e+00, 2.1064389420301644e-03,
          -6.9960760066232086e-02, 8.3017081092970971e-02,
          -1.5572060348580051e-02, 7.0732826795402978e-02,
          1.0294063740155396e-01, 1.9517167319985754e-01,
          -8.7295830665709923e-02, 5.3258928171330880e-04,
          -5.2589162791913495e-02, -1.3824408531427780e-02,
          4.1292555035361930e-02, 2.9943804858119767e-02,
          1.5217129599514137e-01, -5.4218338280824244e-02,
          -8.6823314708625332e-01, 2.1717674224613983e-02,
          4.0843352693086567e-02, -2.3670193340910389e-02,
          1.2636015439533982e-01, -5.1784126672284284e-02,
          9.6716187785455585e-02, 1.2070490399259577e-01,
          -8.5965892870190339e-02, 7.3416925926813537e-02,
          -8.1806834772561784e-03, -3.0202264062778240e-02,
          1.6128632037475797e-02, 1.7409835401453095e-02,
          -2.8399840842487966e-03, 5.3682051083093060e-03,
          1.3750292166919231e-01, -2.0165731424476870e-02,
          -5.9862085396359600e-02, -2.1468997214694621e-01,
          1.0147093019646988e-01, -1.2640808197627454e-01,
          5.9696882575752300e-02, 6.3256541337949224e-02,
          -1.1306620807430882e-01, 9.8337834327118664e-02,
          1.2492702178490384e-01, -6.2589387267971155e-02,
          5.7015379395454764e-02, -2.7997151294870255e-02,
          -1.6348549171686205e-01, -9.4058024272460863e-02,
          5.3674385346752218e-01, -4.4632431932703900e-02,
          1.6994849004905693e-01, -4.6123165596732525e-02,
          -9.3848423532040801e-02, -7.5614427074521817e-02,
          -1.3171242803474092e-01, 4.8386622390704480e-02,
          -1.5371526434315508e-01, 1.0527939860193081e-01,
          1.1302474637156215e-01, -8.5567245638731040e-02,
          1.2074365151023363e-01, 3.1815191592795097e-02,
          -2.4000822155079918e-01, -1.8732604261829752e-01,
          9.4890702830655616e-01, 1.8338982643986784e-02,
          3.1626719573176026e-01, -2.0211523158238853e-01,
          -2.1848419628466614e-01, 1.9525708699906476e-02,
          -8.8917271524705022e-02, -8.7972925761679532e-02,
          6.8615237656945050e-02, 3.6851907478328262e-02,
          5.7983188387667202e-02, -5.3669232813723572e-02,
          1.0822222571761715e-01, 4.1550906337387006e-03,
          -1.3815418514956554e-01, -2.4168995075800392e-01,
          4.7018843783685482e-02, -8.2285441945453737e-03,
          -9.8472744841804766e-02, -2.0440184561958807e-01,
          8.0555829659831574e-02, 1.2045817317009150e-01,
          2.2391273530053549e-01, -1.3607553368927874e-01,
          -6.3244040077474889e-02, -2.9518227892253238e-02,
          1.4138543698810905e-02, -5.4656603760748122e-02,
          9.8363351257552745e-02, 2.1732742292650217e-03,
          -1.8632244204872681e-02, -1.6557435923534164e-01,
          1.7375551164194475e-01, -3.8091913578898302e-02,
          9.4072751396965790e-02, -1.7722250254109828e-01,
          -7.8261672525168330e-02, -5.3017381269034838e-02,
          -5.8162383243594372e-02, -1.1901931184267442e-01,
          4.0903510580367446e-02, -4.6824637549752683e-02,
          4.3083797779297467e-02, -4.1379286446694294e-02,
          7.3748682945532745e-02, -7.3768257987825742e-02,
          -7.4930198860974434e-02, -7.2970848244420197e-02,
          2.2821038539239161e-01, -4.0396810463831381e-02,
          8.8618992091234181e-02, -1.7981650183139053e-01,
          -8.4905212823514528e-02, -7.3838369420563488e-02,
          -7.5745085992363376e-02, -1.0627980902512935e-01,
          3.6530973200044961e-02, -4.1255134655502249e-02,
          4.8145088228935387e-02, -2.5595361191460938e-02,
          7.5788361351417005e-02, -7.2354327630243298e-02,
          -8.1814988875916914e-02, -6.6818375810527408e-02,
          3.9822913004381186e-03, -9.3203112704490221e-04,
          -1.9798973212153716e-03, -3.5510147590843491e-03,
          3.9935831914774591e-03, -1.4184941144052908e-03,
          -4.8482320023704607e-03, 4.9843871857319080e-03,
          -7.4785644783740427e-03, 1.0463205532810348e-04,
          5.3070600947835453e-03, 5.8613401145660620e-03,
          2.5971048761594096e-03, -5.5117518039371552e-03,
          6.4068018314137644e-03, 2.2036867986016150e-04,
          -7.1207925751457012e-04, 5.5094327644836264e-03,
          -5.4058990587612524e-03, 7.3275113961233469e-03,
          -5.1578474074434714e-03, -7.7035505769233086e-03,
          1.3846086695131299e-03, -1.6584114797159875e-03,
          -2.9440576290539031e-03, -1.0098550047458025e-04,
          -4.0903245217602524e-03, 7.6178394817020172e-03,
          -2.1721718483859826e-03, 5.1998289599335000e-03,
          -2.6141611941939654e-03, 5.6292816904612158e-03,
          3.5544740557541804e-01, -1.2265658182882043e-01,
          -3.0459490191504211e-02, -3.9742156617025515e-02,
          -1.3572058802507728e-01, -1.5003686653105971e-01,
          -1.5569395737977440e-01, -4.8793385539879608e-02,
          1.2358484522496214e-01, -1.7058893693510840e-01,
          1.1754630192742320e-01, -2.0113335271545901e-01,
          -1.4220239854875373e-02, -2.4138410673727750e-02,
          -8.2589309219495161e-03, 1.5883912091097411e-02,
          2.1731400119652652e-01, -1.1110409171903018e-01,
          -1.6601355235967601e-02, -5.4185054960290406e-02,
          -1.3040862598449129e-01, -9.3454976370042797e-02,
          -1.1415304845113973e-01, -7.4987873878096925e-02,
          1.4849818091504369e-01, -1.1787366241678267e-01,
          1.0987216024471898e-01, -1.6401900872313835e-01,
          -7.8545557443593043e-03, -8.0117896906028961e-03,
          9.0731832771248598e-03, -1.1620338739399305e-02,
          -7.5814673064368121e-01, -9.4936538118040703e-02,
          -2.0561065542392917e-01, -3.0276693365569551e-02,
          1.1756064012220310e-02, -8.4806562732434049e-03,
          1.1314839924224404e-01, -3.3035341950907925e-02,
          8.5093648788885687e-02, -7.5256127079235416e-02,
          4.9905658313465176e-02, -1.4037496873933825e-01,
          4.3662286301674132e-02, -3.4290277472842252e-02,
          6.5172354932512243e-03, -1.0961409589557593e-01,
          -1.6766788679403466e+00, -5.6765716663575834e-02,
          -2.7599794238143838e-01, 4.9725502582469820e-02,
          -1.8480613614917110e-01, 3.7524679356383428e-02,
          5.6322759399038531e-02, -5.2289011646011463e-02,
          1.2062798863210625e-01, 2.7644215673418852e-02,
          -3.6417274695095710e-02, -4.9340340550463199e-02,
          9.3847485219725302e-02, -1.3148877728546876e-01,
          -2.2111544366536609e-01, -2.4288965076054270e-01,
          -1.7247461686463792e+00, -4.2760703795026583e-02,
          1.1203778985039346e-02, 1.5076191317753521e-01,
          1.1288354128470314e-01, 4.6210258646886576e-02,
          -3.0631974602820352e-02, 1.5495366560542945e-01,
          -9.3306097258619158e-02, 6.4596881415598120e-02,
          -8.8923078830512106e-03, -1.5392451066023774e-01,
          9.3554368801626264e-02, -3.0023875305058168e-02,
          -1.8667259250629958e-01, -2.5200723969863603e-01,
          -1.8789885093106720e+00, -3.6881020042257844e-02,
          -1.7683326205504626e-01, -1.1715840779702150e-01,
          5.7761719294718662e-02, 3.0581215921050594e-03,
          1.6194144657226264e-01, 9.4277146670660339e-02,
          -5.6907658299521782e-02, -1.9501902628066919e-02,
          1.6220263055899506e-02, -9.6277070860750658e-02,
          1.2371838514842212e-01, -6.1497565279267134e-02,
          4.3522606537001310e-02, -1.2245394518403678e-01,
          4.2961234978496821e-01, 2.6881678955430845e-02,
          -1.3559161963222802e-01, -1.3850097364063563e-01,
          -1.3225966795079844e-01, -9.9891149246530614e-02,
          2.1103705054569954e-01, 5.5523054877431024e-03,
          -5.1303239960973947e-02, -4.3322789207663422e-02,
          4.3308688426207761e-02, -1.5534375710487247e-01,
          2.5110140252106058e-02, -3.0250811254307289e-02,
          -1.3400401025450701e-01, -1.4593928021651806e-01,
          2.4880783552490899e+00, -3.1296062569284785e-02,
          1.0112497484368880e-02, -1.4105384196486337e-01,
          -2.2440505630252700e-01, -2.5179331583557019e-01,
          3.8075628002471086e-02, 1.3322112536715395e-02,
          -1.9612154519832192e-01, 2.1712623917818683e-02,
          5.8719138573151572e-02, -3.1685680839625613e-02,
          8.7691689003425735e-02, -1.5366675826000145e-01,
          -2.2401111381706010e-01, -1.0580122752245867e-01,
          1.1435351215626692e+00, -9.4707666577988611e-02,
          2.0160438859543123e-02, -2.6008028810749567e-01,
          -8.1697149621908785e-02, -2.0328365957591216e-01,
          -7.0666335899116875e-02, 1.6570154484211422e-01,
          -6.0453802825748575e-02, -6.9601958945392350e-03,
          -5.1348672072139015e-02, 5.7035851323694625e-02,
          1.9517017750423915e-01, -2.0367270828397629e-01,
          -1.3699116545259607e-01, -8.6455026046559053e-02,
          1.3993296825360730e+00, 2.5794449807072135e-02,
          1.1542446513310836e-01, 1.0344345634875855e-01,
          1.4019815337245559e-02, 5.5032617430001970e-02,
          -2.3351785480677872e-01, 3.3422541769939404e-02,
          -2.4477875485343087e-01, -2.2304458456987641e-01,
          1.4713867392113320e-01, 1.4104222457378938e-02,
          -2.9223590058453826e-02, 9.3237275754598573e-02,
          9.9523804081809497e-02, 9.4463507872280902e-02,
          1.2460458302383515e+00, 1.5035840561180833e-01,
          8.8644586390245736e-02, 2.7014528461153538e-02,
          -1.0194399185077117e-01, 2.2406203004875641e-01,
          -1.9251824474747513e-02, -1.0219849740353626e-01,
          -6.8066056252292811e-02, -2.5491078019221275e-01,
          5.4713370525009623e-02, 7.4591504251414392e-02,
          -1.7252274985441859e-01, 1.7433457961090523e-01,
          2.1320600865650563e-01, 8.2717386594004377e-02,
          2.6297398688628584e+00, 7.8805377311468486e-02,
          1.4111057555453155e-02, 3.5042722735311976e-02,
          -1.0703359856758061e-02, 1.8533133241130489e-01,
          1.2390447108057544e-01, -8.8109236094400981e-02,
          -6.7263633774984746e-02, -1.0470955726379423e-01,
          -1.3592562891512621e-02, -1.0601179235116764e-01,
          -4.4551405419105621e-02, 1.0049400231137892e-01,
          6.9287869108328834e-02, -1.5684967195352115e-01,
          4.7355688525248685e-01, 2.1851504947066582e-02,
          4.2416181003845428e-02, -6.6849174837856767e-02,
          2.5288122244426885e-02, 1.5435393864225883e-01,
          3.0028717420472660e-02, -3.4728347426223292e-02,
          -1.2985095358692760e-02, -6.6969830381479450e-03,
          1.4124492071590871e-03, 4.7065386302012277e-02,
          7.0988191512288884e-02, -1.7826839837465944e-02,
          6.3440201571124344e-02, -1.0130606921191196e-01,
          6.1255667611092801e-01, -4.0326033697522426e-02,
          1.0304655033560201e-01, -1.7902894919416726e-01,
          -7.5144226992933466e-02, -7.1829804019435756e-02,
          -6.9829988221587883e-02, -1.1149256291598000e-01,
          -1.4374945336685045e-03, -4.8189530702857142e-02,
          4.0212283427247739e-02, -2.8808446437951944e-02,
          8.7272946748692515e-02, -7.9446106092342747e-02,
          -8.9247537728225593e-02, -7.7611769387644525e-02,
          -5.4775238224429867e-03, 1.4810961217239576e-03,
          -3.7806571649939082e-04, 6.2942663731229967e-03,
          2.5228446334823176e-03, -7.6017789566905046e-03,
          -3.2676590936598130e-04, 5.1635969247056440e-03,
          3.5343711500253538e-03, -2.0645377733239365e-03,
          -5.0463920173950925e-03, -3.7006491040940796e-03,
          3.4835236758295595e-03, -7.2572950585033883e-03,
          2.1037787846337314e-03, -1.5527457024456452e-03,
          -3.7947561518664004e-03, -7.1117149963679984e-03,
          6.0096983203772195e-03, -3.0776459605025481e-03,
          -2.0451504599961622e-03, 5.3301272960771815e-03,
          -7.7206258751642536e-03, 1.9199545241896246e-03,
          6.5001278116193703e-03, -6.7104642712043907e-03,
          3.0458337283512820e-03, 6.0515092876426528e-03,
          -1.6630724002886848e-03, 6.9763608246975108e-03,
          -8.5100316917760283e-04, -9.7333759772730299e-04,
          -2.1682446385976589e-01, -1.2624848694550903e-01,
          -4.1060974203781311e-02, 8.1648641906458281e-03,
          -7.2739888210628129e-02, -8.7867687844468384e-02,
          -1.1216548541142747e-01, -5.0185111513586574e-02,
          1.8025144670377299e-01, -9.3213087018725452e-02,
          1.0125489673545678e-01, -8.0057903079526982e-02,
          2.9580399927495494e-02, -4.3967313503528803e-02,
          3.3225602235224111e-02, -4.1012303744684897e-02,
          -1.0666104679507562e+00, -8.5272687323852236e-02,
          -1.2557294417917167e-01, 4.4016043100599464e-02,
          -8.3232299041459984e-02, -7.2728443708520440e-03,
          -1.6201345225174118e-04, 2.2455287125537012e-02,
          1.6780359041989984e-01, -4.3730831757268336e-02,
          3.7555736624304198e-02, -6.8008646316807281e-02,
          3.2900959785651086e-02, -2.2633814723886984e-02,
          5.5032047745934815e-02, -9.6275583446640639e-02,
          -6.0823241074184098e-01, -1.0607630652720687e-01,
          -1.3544813828792393e-01, 3.9213006125807352e-02,
          -9.2802132722551597e-02, -3.0856035174927677e-02,
          -1.3713618710069543e-02, 5.9986238236269453e-02,
          1.1221086067177985e-01, -6.6654685232419436e-02,
          3.6317168112643190e-02, -1.2114202388479023e-01,
          2.6916060958600441e-02, -2.9480175980264044e-02,
          1.7698273438769910e-02, -1.0080302747693907e-01,
          -4.8410146159341921e-01, -6.7127779284776867e-02,
          -7.1162959298576689e-02, 1.0098867316384659e-01,
          -2.4794236159293481e-01, -4.5284313322604547e-03,
          -1.4486362436501507e-01, 7.3515329420119027e-02,
          1.7088820539747943e-01, -6.6505796622982435e-02,
          -1.8159226610645160e-02, -1.9146804285015029e-01,
          5.0733091209943362e-02, -8.5111512545116716e-02,
          -2.2085222116525521e-01, -2.4054089632017475e-01,
          5.8322310191146853e-01, -3.1587609425233733e-02,
          2.8422492314954678e-02, 9.3240463653612177e-03,
          6.7622806978022962e-02, -2.0567048880574687e-02,
          -7.7246517573193771e-02, 1.6051291389365152e-01,
          -7.9854803552681999e-02, -1.3398259122707953e-01,
          5.6875373381351374e-02, -2.1046891579020208e-01,
          7.2395698389881954e-02, 5.0365633001178377e-02,
          1.5309771125741212e-01, -2.0167771092792431e-02,
          5.9510741555882307e-01, 6.6994405485530817e-02,
          8.4540657621700210e-02, -8.0948993400339828e-02,
          -1.4082296803430300e-01, -4.5880107519039773e-02,
          -8.8966631626405071e-02, -4.7190067119107962e-02,
          2.1803545860141511e-02, -9.9037871214948642e-02,
          -5.0603926235539528e-03, 7.1635335163591746e-02,
          -1.3500704443260908e-01, 1.6958412340675014e-01,
          1.4052156142169778e-01, 2.8137141440284635e-01,
          6.9546254507209881e-01, 8.0347899905957851e-02,
          2.0096139359291385e-01, 9.8719865908382234e-02,
          -4.4345345035761354e-02, -7.5577549515886758e-02,
          -2.5559562700827049e-01, 3.0451584536120610e-02,
          -5.0745430536519885e-02, 2.6820778798656429e-02,
          2.8512230200167094e-02, -5.9354649676574001e-02,
          -1.9013215454461349e-01, 1.6477042679773019e-01,
          -1.5682011106391977e-01, 1.5752366222424743e-01,
          -1.6403533484542834e-01, -5.2496212964274688e-03,
          4.1442237578824467e-02, 1.7131394964324245e-01,
          -1.3983054761424571e-01, -5.3883464947174262e-02,
          -2.4609338456506347e-01, 5.1530814094711129e-02,
          -2.0277338232082145e-01, -1.3914027514330931e-02,
          -1.1734890716675569e-02, 6.8590521025765225e-02,
          -1.2899180847031530e-01, 5.1824378596575356e-02,
          -2.0768277385926417e-02, 2.0186425312671094e-01,
          -1.6269092635823803e+00, -8.5147365992893048e-02,
          -1.1141415588867079e-01, 9.5714895588796839e-02,
          1.3202662691158423e-01, -3.1236378967107722e-02,
          5.2573426778565538e-03, 2.0021841136865306e-02,
          -2.9907921273814519e-01, -2.0445148691149974e-02,
          -4.8364955252739004e-02, 7.3930092894844784e-02,
          -2.3438986022667002e-02, -4.2306694142652056e-02,
          -7.4353122309507108e-02, 9.2526177646971686e-02,
          -4.2263533843848095e-01, -5.5674815085846867e-02,
          -1.0502847126068108e-02, 2.1750919855014181e-01,
          1.8464542000057629e-01, 7.2701214193169571e-03,
          -1.2498222202243339e-01, 1.6867904724687580e-01,
          -3.0409196084172796e-01, -7.3974623063633851e-02,
          5.0820916670443347e-02, -3.6565926162494856e-02,
          -9.0740114863355047e-03, 1.1655280526680665e-02,
          4.1616991297877846e-02, 5.6916097981880499e-02,
          7.9000724771143416e-01, 9.0575946106246571e-02,
          -2.3801271165117686e-02, 1.8996711394135610e-01,
          7.2587307390062500e-02, 1.8484238941209866e-01,
          -1.5868293295160105e-01, -6.6397151519244538e-02,
          -1.1767805958454639e-01, -1.8493385469139736e-01,
          1.1797736070525061e-01, 8.0465630852329870e-03,
          -2.0408106092255893e-01, 1.6039006771058792e-01,
          2.6864507881681210e-01, 2.3030902792410526e-01,
          5.7118662883065374e-01, 2.1010867071321090e-01,
          -2.7804855145792267e-02, 2.2971720867040932e-01,
          -4.6219971943772316e-02, 2.9234373413062908e-01,
          4.0652400050678696e-02, -1.1789865367045599e-01,
          -5.2951687795153878e-04, -2.2716248883450602e-01,
          5.8944671665789816e-02, 5.4257378665203089e-02,
          -3.3396359337222303e-01, 2.3576263421349847e-01,
          3.6527933609159763e-01, 2.1935642160881114e-01,
          6.7947364285992440e-01, 1.2611725132869742e-01,
          1.6594575639328618e-01, 1.8131628392257446e-01,
          8.8792803584212016e-02, 2.3458504255439314e-01,
          -2.2535983386667201e-02, -1.4545713717599085e-01,
          -5.2537270454457122e-02, -4.7142964949568884e-02,
          -2.0377695495978568e-03, 1.8957236471912375e-01,
          -1.1684078137380587e-01, 1.1181539088513180e-01,
          1.7073427924848356e-01, 9.0405095481149680e-02,
          1.7182640323701497e+00, 1.6392705099359234e-01,
          1.6422426235745125e-01, 8.1297533562117719e-02,
          2.1488103957317098e-01, 2.8636676208082690e-01,
          -1.1366012440982330e-01, -1.2414510563177450e-01,
          -3.2099405109066920e-01, -1.6905415535694607e-01,
          -7.8811151274172264e-02, 2.2314397343239126e-01,
          -1.4277607655404506e-01, 1.2932574699127830e-01,
          1.8276518714054962e-01, 2.5121847122091662e-01,
          5.7324581812434094e-01, 2.0683293338633274e-01,
          1.6555764697139738e-01, 1.1035022386584520e-01,
          2.6627357623447728e-01, 3.4226022169929832e-01,
          -1.0877381262058126e-01, -1.4292022579040184e-01,
          -2.9915942196971684e-01, -1.9927402811365383e-01,
          -1.0205595313880016e-01, 2.8230765446407396e-01,
          -2.0371025327507780e-01, 1.8155271138270260e-01,
          2.6383542292437473e-01, 3.3619047261424428e-01,
          -9.0943049798412945e-01, -4.4746980382959975e-02,
          -5.9038435653306263e-02, 1.5081779732475983e-01,
          1.2368466708744676e-01, 1.2948911806107431e-02,
          -2.2934644765503512e-02, 1.6223533626601217e-02,
          1.2013706767317847e-01, 3.0685649796316623e-02,
          1.5993599972103787e-02, 1.4083533685949423e-01,
          7.8614727757979994e-02, -8.0140633960538984e-02,
          5.1415044290124175e-02, -5.8370856604233176e-02,
          -6.0362906833227681e-01, -9.7249960102032337e-02,
          -1.2520818913635781e-01, 1.5546064348399344e-01,
          -4.9005738401741673e-03, -2.2700595129586092e-02,
          -6.5097847467994144e-02, 1.5857985676979623e-02,
          2.0649967143148804e-01, -6.2145594936474362e-02,
          7.4459793389519996e-02, -4.9256617562993599e-02,
          -1.5700229895463727e-03, -5.1142721006619644e-03,
          1.0762770923990785e-01, -8.7060036749110614e-03,
          -2.4899026141128645e-02, -8.4578401596302533e-02,
          -6.7612386176143319e-02, 2.8378590387157961e-02,
          -4.8621152580618165e-02, 2.6901635026444503e-02,
          -2.9541816362728117e-02, -2.7018577766125006e-02,
          1.7578577619828284e-01, -5.7884696569083599e-02,
          7.2788339251322956e-02, -8.1856363917057362e-02,
          3.7989726417080184e-02, 2.1188624267006628e-04,
          7.8044207418079228e-02, -8.5398022490011938e-02,
          8.3631496983516407e-02, -6.5637304713436387e-02,
          -1.4965721486892031e-01, 9.8103796403293933e-02,
          -5.8083011443999487e-03, 5.3532517583992717e-02,
          7.1237418636313096e-02, 1.3470130279732923e-01,
          -1.5478978757065316e-02, 7.7957837045206549e-02,
          -3.7722504182267511e-02, 6.6953734522278681e-03,
          5.1798557645329646e-02, -3.9595077533182095e-02,
          4.0588284551768321e-02, -1.2215839142033637e-01,
          -1.7193721420738750e+00, 1.1052789709973730e-01,
          -2.2355489244183666e-01, 6.6476891372846847e-02,
          -1.8377820078066140e-01, 1.8374408118692928e-01,
          -2.3409541898705981e-03, 1.4510519738037379e-02,
          3.6491150949045363e-02, -1.5370988720955656e-01,
          -1.3417004882788267e-01, -1.1566666383749195e-01,
          -2.1334768078417893e-01, 1.5268068899028078e-01,
          2.5126857724474611e-02, 3.9101721901575466e-02,
          1.2456858471592902e+00, 1.3117099719837136e-01,
          -1.6098944286326816e-01, 4.9819850748392201e-02,
          -2.4958323764805418e-01, 6.0125972475252670e-02,
          1.2574348299761902e-02, -5.1901488315492454e-02,
          -2.0298811466939033e-02, -2.4503545500497087e-01,
          -1.2352045263940263e-01, 1.0348723400565366e-01,
          -2.2847414158975246e-01, 1.7069644372872067e-01,
          2.2933025506687907e-01, 3.1185717540984464e-01,
          1.9477107767492799e-01, 5.0900003717061215e-02,
          -2.0198433295709761e-02, 1.6549865858877655e-01,
          -9.8443229664311752e-02, -1.1865122463514781e-01,
          -5.0149930394147148e-02, -1.9645701958141980e-02,
          1.9058194892144734e-01, 2.2513624793591116e-02,
          -5.7513621561951729e-02, 1.0648934185705736e-01,
          -2.1221358567693160e-01, 1.1867997494722168e-01,
          4.8111275033043938e-02, 3.1467849567346962e-01,
          1.5601242732302594e+00, 4.3750505182782895e-02,
          5.4434495689677700e-03, 1.3939054626846864e-01,
          5.6498448204963386e-04, -1.0729774287384324e-02,
          -7.3825206932061987e-02, -5.0169339838412388e-02,
          6.2372597651220822e-02, -1.0757305155693132e-01,
          -7.6201466283037186e-02, 3.9338326821278753e-02,
          -1.7330149788022806e-01, 1.0763633615375170e-01,
          -1.6325132559098614e-02, 1.6922099617054659e-01,
          -1.8469191704609900e-01, -1.0251406095409310e-02,
          -4.8416184252790963e-02, 6.6395477592653865e-02,
          1.3776997154318996e-02, 5.3506742255825371e-02,
          -1.0373752584002199e-01, -6.3919839183727095e-02,
          1.1269539649301447e-01, -1.5988840764158974e-01,
          -3.8461694489246481e-02, 1.0628326556290774e-01,
          -1.1409675235518876e-01, 5.3264726151809896e-02,
          1.0807562281120758e-01, 2.0124350890267872e-01,
          -3.3391724545307377e-01, -1.3047569501522074e-01,
          -2.1432929103246404e-01, -1.2459950654752895e-01,
          -4.5628734927842259e-02, -4.6020083242971128e-04,
          7.3931492197711543e-02, -1.6069363030218056e-01,
          1.1303753850122898e-01, -2.0895361432702462e-02,
          3.4943289291279045e-02, 7.9992538489408516e-02,
          4.2952678201440601e-02, -1.2990862637582981e-01,
          7.5669677667168063e-03, 4.7348029651812250e-02,
          -3.5274851902708465e-01, -1.5386203423968520e-01,
          -2.1568100248240938e-02, 1.5993100107611888e-01,
          -1.2868555459259234e-01, -7.5096788021528055e-02,
          -1.1748345181562848e-01, 1.4015230615492902e-01,
          -1.7504502942912767e-01, 7.3206516436716967e-02,
          7.5945201244348892e-02, -1.8251092115932269e-01,
          1.0452088655951394e-01, -1.0393775464891791e-01,
          -1.4556675342206599e-01, -1.2227177936776912e-01,
          -9.8837633644475426e-02, -5.7843042408278297e-02,
          -7.0819335398257521e-02, 2.5125800036642859e-01,
          5.4707798501909863e-02, 9.1401930076100268e-03,
          -8.6723656282528937e-03, 2.0746956516038192e-01,
          -1.2720191585305860e-02, -4.0504610877448461e-03,
          7.1493565554711078e-02, -2.1299165332683750e-01,
          -9.9164930889262661e-05, -7.6915373972299807e-03,
          1.2766808140959987e-01, -7.4326469606381326e-02,
          -7.0405898950356782e-01, 1.6322696506303905e-01,
          -5.0848599016408348e-02, 4.4576148458878619e-02,
          -4.5303189912528435e-02, 2.9628502136308671e-01,
          -5.9106514434300414e-02, -1.1610328422510890e-01,
          6.9424312560873766e-02, -2.7378286678341524e-01,
          8.1249677485459651e-02, 5.1683882994275301e-02,
          -2.7489394052439797e-01, 1.8657147076995689e-01,
          4.1755029802453125e-01, 2.3219505026557216e-01,
          9.8600764173762301e-01, 5.7312281748653701e-02,
          4.3701039405747814e-02, 2.0123457070365924e-01,
          -1.7483395851684441e-02, 1.5261603806623963e-01,
          -4.1529671981879263e-02, -1.0038570576917977e-01,
          -7.9520892085910427e-02, -2.1103115216805284e-02,
          3.9783976554150446e-02, 1.1605880068173328e-01,
          -1.3675197782516657e-01, 8.9793518537841871e-02,
          4.2922598772705198e-02, 2.1277374869797278e-02,
          1.0906813336017385e+00, 7.4425025959244856e-02,
          6.7444956124078081e-02, 1.7740036037527332e-01,
          2.1730960220687781e-01, 2.3112062503059969e-01,
          -1.2459618576320217e-01, -9.8106217517030095e-02,
          -1.8592016152470978e-01, -1.0671379678618413e-01,
          -3.3962102676629372e-02, 2.2857558759552410e-01,
          -1.2129023313016789e-01, 9.5111586607029952e-02,
          2.1813052870735736e-01, 2.2283098275093827e-01,
          1.2040726510257700e+00, 1.8239114402632195e-01,
          1.5601947428620180e-01, 1.1821569742318359e-01,
          2.3843715650168515e-01, 3.2715090134124558e-01,
          -1.0675001053503028e-01, -1.4534967090879639e-01,
          -3.1012083278473512e-01, -1.8711044212831995e-01,
          -9.7845239968646552e-02, 2.6246242823848448e-01,
          -1.9167222501574063e-01, 1.7296070823921975e-01,
          2.4176862364781598e-01, 3.1151277389655285e-01,
          -9.0675192457422216e-01, -4.2945699540388391e-02,
          -6.1135067210000775e-02, 1.5304581305597542e-01,
          1.1297457534460488e-01, 2.1007414471340965e-02,
          -2.7401983181373313e-02, 7.3353374495692437e-03,
          1.1657263080079180e-01, 2.5346609270922058e-02,
          1.5608568533283547e-02, 1.3610674375550064e-01,
          6.6007847553532048e-02, -8.4700490139927920e-02,
          4.5242292110548588e-02, -6.2569893610277150e-02,
          -3.6288032098086176e-01, -6.7011550267124229e-02,
          -1.1989532432180249e-01, 1.3089479274162230e-01,
          -1.1593304240160855e-02, 6.4890292879783193e-02,
          1.0480321076791691e-03, 2.5545742914059935e-02,
          1.9772405727151418e-01, -3.8290637208713237e-02,
          5.3392446328516280e-02, -6.2671853809885353e-02,
          -6.0045203804760822e-03, 3.2376002102426381e-02,
          1.3146329768955672e-01, -6.2653324763964999e-02,
          8.9840005585226190e-01, -8.2018579791280535e-02,
          -8.9453559067881841e-02, 9.3455090940273364e-02,
          -2.1528983151680385e-02, 4.4664201336263268e-02,
          -1.4661766278621887e-02, 4.3645637813574313e-02,
          7.7034115190605740e-02, -6.2282563833886383e-02,
          5.5536387173416885e-02, -1.0545734203740306e-01,
          1.6186522032148588e-02, 8.5835220326356664e-03,
          8.5395894601115629e-02, -7.0901228728792343e-02,
          9.8695908404219312e-01, 1.8465154842953555e-02,
          -5.6863834047243732e-02, 9.2879827519598127e-02,
          -4.6819048966075076e-02, 9.4686318115277390e-02,
          3.8314414651068295e-03, 6.3160114724351721e-02,
          2.3093334764368425e-03, -6.6842405119120804e-02,
          -2.7102796732958824e-02, -1.3205077967845202e-01,
          -4.7492185640112046e-02, 6.8713230507499265e-02,
          6.8930960113479794e-02, -5.7171771330883407e-02,
          1.6614130274526999e+00, 1.3545092429788091e-01,
          -1.2344973311302953e-02, -3.5227355913855757e-02,
          -2.0563267246258368e-02, 1.6032430469603026e-01,
          -2.5218532658983609e-02, -2.2597473570844913e-02,
          -1.4372842462228891e-01, -1.4920272747800695e-01,
          -1.8269779501045455e-01, 7.6623007905769425e-02,
          -1.2851039118486371e-01, 1.6494804533567850e-01,
          8.3352676330448294e-02, 9.8733107074974222e-02,
          1.6378929366457253e+00, 1.2110709661043088e-01,
          9.8947171897254584e-03, -8.7954988885380739e-02,
          -6.4455071683925877e-02, -5.2987877942971013e-03,
          -4.4665144253086715e-03, 2.8347977282900162e-02,
          -1.3881711297663912e-01, -8.3343246450331060e-02,
          -8.1110155018363703e-02, 2.8739995467030738e-01,
          -1.4794453948540109e-01, 1.1860844908328118e-01,
          2.2776194297957697e-01, 3.6534689778138363e-01,
          1.0580626027968529e+00, 1.4951932805404136e-01,
          1.8419429979632546e-01, 1.0490967157907991e-01,
          -7.9338454981972992e-02, -4.1896887728881992e-03,
          4.9188223322371452e-02, -7.1791891077013115e-02,
          5.0682232675063922e-02, 1.0820502787851562e-01,
          -8.1709858692597892e-02, 3.4226482729049706e-01,
          -2.0289105326221554e-01, 8.9472512657330833e-02,
          2.4792408873599447e-01, 3.5147661551706144e-01,
          -1.7596384597365409e+00, 9.6895316753997152e-02,
          1.5905930359893194e-01, -1.1090072896823363e-02,
          1.6588095722785937e-01, 1.6049933244059705e-01,
          -1.1344206293521289e-01, -9.4179329361859000e-03,
          -7.6419884085858467e-02, -1.1307060635208746e-02,
          -5.9416701019442915e-02, 3.0775114115675128e-01,
          -1.4566988724286314e-01, 7.8540351445323245e-02,
          1.7177514458963009e-01, 2.7564034417991934e-01,
          3.1190562986331534e+00, -1.0332238202710300e-01,
          -1.2223596372545993e-01, 4.5700457661414909e-02,
          -8.3013692973141012e-02, -3.8329832782859681e-02,
          7.9871051333882288e-03, -9.2559210058398237e-03,
          -1.3861609888280762e-02, 1.0605519675514430e-02,
          -1.8736943585233170e-02, -4.1989328998911182e-02,
          7.5843933609416450e-02, -9.0786819913118030e-02,
          -8.5882849402754813e-02, -7.5144038389775389e-02,
          9.3723851337110842e-01, -1.5065608855875934e-01,
          -1.5147244976328592e-01, -2.2098853060833887e-01,
          -1.7968719686739385e-02, 1.0180871898170353e-02,
          6.1322098704141577e-02, -1.8592138525489063e-01,
          1.7039897606648306e-02, 8.1328691479240531e-02,
          7.2852996085214547e-02, 2.6727026847418824e-02,
          1.8885707844021524e-01, -2.1738646089841737e-01,
          -1.2890646246193796e-01, -1.2993857495135039e-01,
          4.9942678356844038e-02, -1.3105153733284916e-01,
          -1.7778468525163896e-01, 1.5953235664303902e-01,
          -1.7644210946306965e-01, -2.4998203696988408e-02,
          5.8539423320241861e-02, -7.2139181236276828e-02,
          5.6823237169953425e-02, 1.4064476404618415e-01,
          1.4672127164837841e-02, -4.7231270245981505e-02,
          1.2506575213760532e-01, -1.1356599868469389e-01,
          -3.5596828483941696e-02, -1.2605165035403651e-01,
          -2.0900900477986268e+00, 7.3697166583084450e-02,
          -1.8990120455324283e-01, 2.0120594761564076e-01,
          3.0514837750419872e-02, 2.3230940066761507e-01,
          7.2303086235791736e-02, 5.0026157662848729e-02,
          1.4749635510219514e-01, -6.1092412401328879e-02,
          -3.4299321536946745e-02, 6.3656758157806720e-02,
          -1.1251504826965032e-01, 2.3756399532648444e-02,
          2.2530210482014407e-01, 2.7774150749475510e-02,
          -2.0049545524620331e+00, 1.7685405682019853e-01,
          4.6197648849619563e-02, 8.9246868890564990e-02,
          1.3842169603992877e-01, 1.8602229959212938e-01,
          -1.8578689042355965e-02, 4.4119255538858496e-02,
          4.7404595193565956e-02, -2.4800249154544051e-02,
          -6.6280240456313378e-03, 5.6469952396290025e-02,
          -2.3574220473921273e-01, 2.2067117990143079e-01,
          3.6021257254305211e-01, 2.4844834489617271e-01,
          -2.2160848483039108e-01, 4.8662339843974084e-02,
          -5.6485898329559733e-02, 9.3799995612920475e-02,
          -8.7969938276906731e-02, 3.3198047264836709e-02,
          1.7288075338835751e-02, 2.9468946933010026e-02,
          9.9084858568825207e-02, 1.3753899070446238e-01,
          3.4507762027399011e-02, 3.3547674405537763e-02,
          -1.0195900210432113e-01, 5.1985480116798308e-02,
          -5.4264149769443312e-02, -1.7092229074628040e-02,
          -2.6866410216912620e+00, 1.8349282349349305e-01,
          -1.0762870613201159e-02, -4.9687190769301851e-02,
          1.3464632636674007e-01, 1.9181030686417846e-01,
          -1.8736185588606488e-01, -8.7106518573499395e-02,
          -4.0546342875456831e-03, -6.2839180675658940e-02,
          -3.8463280921808438e-02, 1.9535021017219692e-01,
          -2.7851328294270306e-01, 1.9185709529957751e-01,
          1.4697433545524508e-01, 3.9325823794551196e-01,
          -5.8455017621017831e+00, 2.9071954228696112e-01,
          1.4789224920952282e-01, 3.0378217547744685e-02,
          3.5118011235816976e-01, 4.7588505943017190e-01,
          -1.6569301048682544e-01, -2.0119290266423789e-01,
          -3.2517634098186074e-02, -2.7156945726577347e-01,
          -8.6896121423768721e-02, 4.2046661146426401e-01,
          -3.6396021062905720e-01, 2.8393432939682955e-01,
          4.5693873909740451e-01, 5.8575536833396069e-01,
          -9.4859258155455739e-01, -4.2342995018699134e-02,
          -5.9974120850502410e-02, 1.5689323733305754e-01,
          1.1908525884172219e-01, 3.3862511537491313e-02,
          -1.3753903254910363e-02, 1.0759583584235767e-02,
          1.1759665165597008e-01, 3.1165830931636617e-02,
          1.2179813280033168e-02, 1.3630674862712699e-01,
          7.4681579568285569e-02, -6.7972405924339938e-02,
          5.7104889017664973e-02, -6.8171317770953463e-02,
          8.2943109711468210e-01, -4.8129023334441842e-02,
          -6.3236712679901455e-02, 9.7206610276224903e-02,
          1.7057567927360164e-02, 1.0695173234601421e-01,
          2.8120946299633451e-02, 4.9960078003802685e-02,
          5.2242563066570276e-02, 6.6504537283204504e-02,
          2.4550432089591189e-02, 1.7300985190608839e-02,
          5.8807437951408234e-02, -1.6470360503881582e-02,
          9.0685242748958408e-02, -8.9126799838382412e-02,
          8.9253698328584963e-01, -7.8464580462243139e-02,
          -9.4717727997190068e-02, 1.0375175496230185e-01,
          -2.4622445175075020e-02, 4.5836228230417497e-02,
          -1.4015509758143202e-02, 4.2888690452221136e-02,
          7.4732423597884429e-02, -6.0057182715546345e-02,
          4.6805952617212966e-02, -1.1686912117722638e-01,
          1.5331002979272281e-02, 1.5286040655585352e-02,
          8.2991122766312098e-02, -6.0638206342637467e-02,
          6.7588641662289406e-01, 1.9890197164114257e-01,
          1.1476903450208402e-01, -1.3835547874681106e-03,
          8.3071573095865214e-02, 2.6722963176664183e-01,
          -7.2825613407262915e-02, -8.8858778078639192e-02,
          2.5864702266499034e-02, -1.1637769968937570e-01,
          -5.0324445261571121e-02, 7.9969547249341046e-03,
          -1.6012354609165896e-01, 2.0031417233041462e-01,
          1.6459938561753940e-01, 1.4451845753916898e-01,
          2.1296915339365050e+00, 1.7972418154351760e-01,
          9.1094069317790391e-02, -9.1312077201551600e-02,
          1.8920374919368800e-02, 1.8877095159860455e-01,
          -2.0829609823681657e-02, -5.9294616161669866e-02,
          -1.1388525321517899e-01, -1.4679842329195608e-01,
          -1.8035455875772327e-01, 1.2764972541295458e-01,
          -1.0448810567336747e-01, 1.8010612185361743e-01,
          6.5188255363023362e-02, 9.1072261327818843e-02,
          3.5554315355681791e+00, 3.8771712323756979e-02,
          4.8153484149491811e-02, -1.5808437801910344e-01,
          -2.0056817602589325e-01, -2.2525892118510443e-01,
          1.2956149970007147e-01, 1.0408782132422681e-01,
          -6.2242874295789230e-02, 7.0298292373112664e-02,
          -6.7320490271876393e-02, 1.6548388231374092e-01,
          1.9472567478056643e-02, -9.5206966029161861e-03,
          9.7295133833695979e-02, 1.5655368959465907e-01,
          -1.1349440874410845e+00, 1.3094367182510280e-01,
          1.3819131145686925e-01, 6.9185128610929597e-02,
          -9.5370236897056190e-02, 3.8105644148805275e-02,
          7.1564236831139147e-02, -7.2735217385761039e-02,
          1.4551690634907927e-01, 2.4194725828154566e-02,
          6.6134106839844300e-03, 4.3738396714278271e-01,
          -1.7749426580031261e-01, 5.0117441346177662e-02,
          4.5435243784755391e-01, 4.2562407737424690e-01,
          -2.5890158483161883e+00, 1.5608612064034255e-01,
          9.4917762317672627e-02, 2.9885911902859241e-01,
          1.8808274531381436e-01, 5.8183176228400579e-02,
          -4.3991040983506084e-02, -4.5078770259771653e-02,
          -3.0676181675765496e-02, -1.1303686956850996e-01,
          1.2354214145087458e-01, 2.1600532174192391e-01,
          -2.8902688813598099e-01, 2.2435033124556739e-01,
          4.7682588771102891e-01, 5.2968109882812775e-01,
          4.8541392947741130e-01, -3.8760243773188784e-03,
          6.4195362433457956e-02, 3.6597763958754237e-01,
          2.5818806993732322e-02, -2.1030618063215697e-01,
          2.1618398605332673e-02, 7.9559791644539371e-02,
          -5.0943824583081034e-02, 6.1748358714378490e-02,
          1.6145605771552410e-01, -4.7207702059138913e-02,
          -1.1438470189291056e-01, 1.1044917773367476e-01,
          1.7725089209914610e-01, 1.8450985357315378e-01,
          -6.3613997295493763e-01, -1.3281724709339524e-01,
          -6.6829723977647637e-02, -1.4859329603412802e-01,
          2.7875967181557620e-01, -1.5245921190090413e-02,
          8.6929251088852161e-02, -1.1269673247119712e-01,
          -2.1008811203760142e-01, 1.4077963590646519e-01,
          1.3166500304486908e-01, -6.1120447386134272e-02,
          1.8461685102991418e-01, -1.4074964492791076e-01,
          -1.1712730069209898e-01, -1.0016033319963580e-01,
          -5.1080029101619506e-01, -5.8602191572394498e-02,
          5.9143093218455976e-02, 8.0534423337781186e-02,
          -1.1092399648390681e-02, 2.6106504169034938e-02,
          3.7765644368791179e-02, -5.8474230509028981e-02,
          2.6086618458322577e-02, 1.6233523282405235e-01,
          6.4574200244564922e-02, -3.1223742270496353e-02,
          1.5035969261263304e-01, -5.6386771038743067e-02,
          6.5279593091678217e-02, -7.1164258681019874e-02,
          -3.7510791730724331e+00, 1.5888799518293170e-01,
          -4.7237639550534644e-02, 1.3295705999026702e-01,
          1.5619765482490834e-02, 2.4566981381407885e-01,
          -1.3438548651728270e-02, 3.4696803974471328e-02,
          1.9185098112740842e-01, -1.2110827587632392e-01,
          -5.2540673600216782e-02, 1.0830354283999116e-01,
          -1.6888827052760211e-01, 8.5665544250172157e-02,
          2.7401902247315524e-01, 1.1456381669260690e-01,
          -2.8898835610041793e+00, 1.9625324177057898e-01,
          1.4734612289975810e-01, 1.0689603791045678e-01,
          1.1474309801594128e-01, 1.7918133681817119e-02,
          -1.7523520739171149e-02, 5.0223381335177189e-02,
          1.2589084884510823e-01, 4.1798842704466058e-02,
          -1.5321748705367231e-02, 1.3292481632543446e-01,
          -2.5188882120315803e-01, 1.7659821161835956e-01,
          2.5728964015425781e-01, 2.6553200597431154e-01,
          -2.9436038254061856e+00, 1.6619425085282488e-01,
          2.4441086607728743e-02, 3.5289502506946721e-02,
          2.0471390683894646e-03, 6.1649247292699640e-02,
          1.3969032782186735e-02, 3.3619342757638122e-02,
          2.1990821153872334e-01, 1.7196325256316325e-01,
          -4.5676002395055676e-02, 1.8457888212212709e-01,
          -1.8989844705576087e-01, 1.4344460471719117e-01,
          -4.1442421991079524e-02, 9.6507528195067777e-02,
          -4.1915660013654303e+00, 1.8970397960331875e-01,
          -2.4556309491489844e-02, -9.5570105423878643e-02,
          9.9150869272291345e-02, 1.4422594294964527e-01,
          -1.4321876495759114e-01, 1.2025202989485149e-02,
          5.5157187674230394e-03, -9.7320646270326570e-03,
          -6.5862131234580998e-02, 2.8490031465505744e-01,
          -2.3959174980198675e-01, 1.3692651195791475e-01,
          9.8618248736257966e-03, 2.9618896837829284e-01,
          -5.3814885656638634e-01, 1.2836359549773194e-01,
          1.2157978099398734e-02, -2.6911540466207035e-01,
          2.8840242281627203e-03, -5.9306791596233518e-02,
          -3.9484074525106189e-02, 2.5894735435492020e-02,
          1.1320482955372534e-01, 1.3792806115465381e-01,
          -4.3796256389766558e-02, 1.6198434670903272e-02,
          -3.1213746850369734e-02, 3.1329133068799753e-02,
          -8.8244134595119705e-02, 1.2858036202965412e-01,
          1.3544015462511130e+00, -5.2050545753221711e-02,
          -1.4750739699989445e-02, 8.6934680619866742e-02,
          9.6461065532405049e-02, 4.4748013331156619e-02,
          1.4841785415696384e-03, 5.8491652828471789e-02,
          -7.5031710833507959e-02, 4.9104902455388767e-02,
          -9.1300939956408499e-03, 7.8464962833672408e-02,
          1.1183455606394843e-01, -9.9907869686822096e-02,
          -3.4476803335558716e-03, -1.0550869340462984e-01,
          8.2861638885142819e-01, -4.5044986486581076e-02,
          -7.6074256695500775e-02, 8.5542693930698008e-02,
          1.8385379308994892e-02, 1.0324134731778117e-01,
          4.1379777420850486e-02, 3.4676978416470258e-02,
          4.6839724219042707e-02, 7.4617393352856942e-02,
          1.6457281578603277e-02, 1.9629235626343264e-02,
          4.8728917211514726e-02, -1.8903109269676106e-02,
          9.7945171335952194e-02, -1.0050253964973511e-01,
          3.3098318332937278e+00, -6.2017129299987005e-02,
          -6.2867323625600172e-02, 1.7289511553161468e-01,
          -2.2201670941890118e-02, 3.7908258816249055e-02,
          -1.1074566712458035e-02, 2.8075420700399603e-02,
          -2.8499270964753177e-02, -7.1542960504943243e-02,
          2.9841621317966114e-02, -1.1979914898602623e-01,
          2.0807705341426234e-02, 3.7566376616096152e-02,
          5.0599621804965494e-02, -8.9842252179227033e-02,
          -4.1031393450402243e-01, 1.8085344508770521e-01,
          1.0590209385523762e-01, -2.0247909202868380e-02,
          5.9812487965676835e-02, 1.7353345853193772e-01,
          -8.2428528867838954e-02, -5.2169616917317113e-02,
          1.2946316910944200e-01, -8.4798052214887898e-02,
          -6.2273203321188512e-02, 7.1003018585045527e-02,
          -1.4614672132913850e-01, 2.0847933227001889e-01,
          1.4450096208691404e-01, 1.3558830352264076e-01,
          1.4928646857348840e+00, 2.0446467525601364e-01,
          1.6054247776610001e-01, -6.5889850080376566e-02,
          -3.6760850882624783e-02, 1.0896710847484971e-01,
          3.0922458604971031e-02, -6.0294464962851804e-02,
          2.8150735925940289e-02, -6.4454229777057295e-02,
          -1.6122658358666328e-01, 1.3413233760412716e-01,
          -1.7817519129697126e-01, 2.0798708494530824e-01,
          8.6563086300540354e-02, 1.4626871995889623e-01,
          1.8468206170544368e+00, 5.9414254117780188e-02,
          7.7041199379273853e-02, 9.7116959974374480e-03,
          -1.3320828326435680e-01, -1.4003545632861061e-01,
          1.3697825288918641e-01, 9.1909048167061400e-02,
          1.0618481301822720e-01, 1.1812403141811056e-01,
          -4.6106196954102821e-03, 8.0256211856256005e-02,
          -1.2269834305611639e-01, 2.4201379655472817e-02,
          1.3832417919564990e-01, 9.9117113548835248e-02,
          -3.8039654183353031e+00, 8.8082402280901695e-02,
          1.2497764342168220e-01, 1.3136710589013767e-01,
          1.3412894734884079e-01, 3.5455271724445896e-02,
          -9.6746488110748610e-03, 8.6664682949141435e-03,
          1.6715068432922814e-01, -5.1422092223852760e-03,
          -3.5124253229270436e-03, 3.6778785600516339e-01,
          -1.5797713314530931e-01, 1.0651107125742695e-01,
          4.7784250096764264e-01, 5.0033040881843438e-01,
          1.7721680536363082e-01, -4.3077540786914358e-02,
          5.4922130271962286e-02, 2.5620810284269041e-01,
          1.6164709166120214e-01, -1.3209190260245160e-01,
          3.3955058077133442e-02, 2.0590661335087251e-01,
          -3.1195706117005478e-02, 3.7266183673668074e-02,
          1.2218831581659281e-01, 7.3803249186060918e-02,
          1.2907940077024609e-02, 2.6228657095011820e-03,
          3.5324017895598142e-01, 2.5364699091711673e-01,
          7.6567938114326872e-01, -2.3408738372304966e-02,
          1.6886406844058485e-01, 1.8539795808467163e-01,
          -6.3925558554980166e-02, -1.5024708594407438e-01,
          8.8696796238497966e-02, 9.4416283215581556e-02,
          1.9607265037520785e-01, 7.9346266900475304e-02,
          1.3466833980219456e-01, 1.7035967444197431e-01,
          9.6655443203897719e-03, -6.8557127079942187e-02,
          3.6418645741507882e-01, 2.0438927208564844e-01,
          -8.6670122406466099e-02, -8.3968751074491435e-02,
          -1.6947859322000200e-02, -1.4766569362925833e-01,
          1.8959315918905695e-01, -1.0823444002543690e-01,
          3.0078667986247082e-01, -1.1862282800714652e-01,
          1.1042917208243548e-01, 9.7409251443786565e-02,
          1.3021838596884683e-01, 1.1008147628038806e-01,
          1.3817322004762053e-01, -2.0037228477030508e-01,
          1.3482426882887349e-01, 3.2464037201678793e-02,
          -4.0927554592756543e-01, 1.0008038793182811e-02,
          1.5710635434589268e-01, 1.5653102843588090e-02,
          -1.0771194254843001e-01, -4.0805461240581965e-02,
          7.9756600897231092e-02, -1.4650856551457822e-01,
          1.9553138731723579e-01, 6.1091116095079154e-02,
          1.2894099040868259e-01, 1.7797924075258945e-01,
          6.0884812174654187e-03, -9.6398587906095540e-02,
          2.4689494107464069e-01, 1.5611605135669068e-01,
          -4.1913951928799325e+00, 1.8524488850672682e-01,
          -6.4064132097419301e-03, 2.2976711139277364e-01,
          1.1853159352438682e-01, 1.8087488898636667e-01,
          -7.0555503743360707e-04, 1.0909787587913344e-01,
          -1.3556497805422660e-02, -4.6342390869483129e-02,
          -4.7124089573702892e-02, 5.7653557174987560e-02,
          -2.5305377176085120e-01, 1.9663979371267787e-01,
          2.1501553132993767e-01, 1.7732294873694285e-01,
          -2.4390137733424488e+00, 1.0289754894380868e-01,
          -1.4438028118780256e-04, 2.6060560606293259e-01,
          2.8906555520824460e-02, -5.7803650567004719e-02,
          1.3429347879597689e-01, 1.6132025605768704e-01,
          1.3934668890707108e-01, 1.4274322607662537e-01,
          -4.6430216832689483e-02, 9.8922330727315974e-02,
          -1.5374841155565822e-01, 1.3792380830041651e-01,
          2.3158564194529158e-01, 1.2175198636732223e-01,
          -3.2454024358234346e+00, 1.7512977551126457e-01,
          -1.1282372225724946e-02, -1.0345371403516010e-01,
          9.2028416925980086e-02, 1.2350849292304342e-01,
          2.7869037200707642e-03, 5.8676228927911488e-02,
          1.9574441513967189e-01, 1.2446632215190667e-01,
          -1.0546095752548791e-01, 2.0203577087141700e-01,
          -1.1546093349536513e-01, 1.3493957528672948e-01,
          5.9757252934179118e-03, 1.1342886324290441e-01,
          -4.0327612573190983e+00, 1.7068252703103218e-01,
          -4.5572007639298293e-02, -4.7537847173520144e-02,
          1.1008511535661013e-01, 1.1788381681229501e-01,
          -1.3070333626888600e-01, 1.4313168086762274e-02,
          4.7932792113952551e-02, 9.0457600354290294e-03,
          -4.8011103942544403e-02, 2.9904246563877096e-01,
          -1.8051041185338174e-01, 8.7622173819844856e-02,
          6.9785120617422373e-03, 2.5052053455304063e-01,
          5.2069754335267705e-02, 9.9658866621515824e-02,
          -3.1286362558349936e-03, -2.7309790633160586e-01,
          -4.1936963214100370e-02, -1.1314970739955917e-01,
          -3.2565437413442248e-02, 4.9567024617886514e-02,
          1.0924162743755843e-01, 1.5735732574221450e-01,
          -3.6929994276456206e-02, -3.3479205012210154e-02,
          1.0575177855583793e-02, 1.0930931854795279e-02,
          -1.3876173369147515e-01, 7.4405858038261496e-02,
          3.0559335373785461e+00, -4.3295549145444916e-02,
          4.5842051926830038e-02, -3.3488777087159409e-02,
          2.1630586722113317e-02, 8.8987134857470319e-03,
          -1.1577101498791188e-03, 7.1967587509401687e-02,
          -2.5775547185289083e-01, 3.0065462576737933e-02,
          -1.5261379165510030e-02, -6.1657029454248733e-03,
          8.2643401445334205e-02, -9.1320005831372689e-02,
          -8.1104726608797209e-02, -7.0072829739276671e-02,
          3.3366582845077599e+00, -2.6189712973806175e-02,
          -4.2704598320332632e-02, 1.6201895982723161e-01,
          2.0738122641215315e-02, 9.7453255699355562e-02,
          3.3494388702692182e-02, 1.2386876920002038e-02,
          -7.0701246141155069e-02, 4.1307569439980138e-02,
          3.1543101581431475e-03, 1.5286085500703119e-02,
          5.0288176702552791e-02, 9.8499264710936642e-03,
          6.7895612811202766e-02, -1.1688670621430861e-01,
          2.7290617471571710e+00, -3.2654018543161356e-02,
          -3.9525437191198713e-02, 6.9250497882257398e-03,
          -5.9929227727289973e-02, -8.1560304112281531e-02,
          -1.7620585839923368e-02, 8.2285751669359572e-02,
          6.6953966163594475e-02, 6.0327685192941162e-02,
          5.2370026517729916e-03, -6.7052789789480316e-02,
          4.7726342771739497e-02, 2.0576591890793688e-03,
          -5.4564733220785894e-02, -8.1790022394714473e-02,
          -4.4675418581217663e-01, 2.0531665689977316e-01,
          2.0801910310775784e-01, 6.4801929230609748e-02,
          1.8542488020633581e-02, 1.4119196874805270e-01,
          -3.0052321242275241e-02, -7.1538807420164788e-02,
          1.9196198827464395e-01, -3.3972547691473572e-02,
          -4.6410516089608618e-02, 9.1779403882286920e-02,
          -1.6707067959616528e-01, 2.1494542772896699e-01,
          1.2810160807600512e-01, 1.0988841490999909e-01,
          2.9669296326241423e+00, 1.1538627459191331e-01,
          7.8102909032863821e-02, -3.2203132688387918e-02,
          -8.6792258112940099e-02, -9.4378718815201476e-02,
          7.7816351023400482e-02, -2.5287724669470703e-03,
          1.1660944625111805e-01, -5.5008081047571503e-02,
          -8.2295948141833469e-02, 9.6074250993499574e-02,
          -5.4847515708513470e-02, 8.6557522828420164e-02,
          4.6397653738495470e-02, 6.8064560180058825e-02,
          2.1775579432217707e+00, 2.2307775642338107e-01,
          1.3059913564467476e-01, 8.4203735783761561e-03,
          -8.0179106740065481e-02, 1.4532088679974403e-01,
          7.4150031194818791e-02, -7.3844214074056447e-02,
          -4.6275260113482703e-03, -2.4193160985976681e-02,
          -6.5872562409281368e-02, 2.0853789869058881e-01,
          -2.0551156446966154e-01, 1.4940435145223316e-01,
          3.7992662200379568e-01, 2.7014246410667436e-01,
          -1.9422061241240633e+00, 1.9306371054629815e-01,
          3.5629709455673281e-01, -1.4068274362591901e-02,
          1.9828253770615274e-02, 3.4057417600900625e-01,
          -1.4797077738017800e-01, -1.3785836414827041e-01,
          1.2662973550026183e-01, -2.9984054933379807e-02,
          -1.1230934150463236e-01, 2.5847577864100524e-01,
          -1.6554878400671269e-01, 1.1275199508257697e-01,
          3.2038109708288048e-01, 2.0870418957681156e-01,
          5.2863356773763692e-01, -7.3646956485290179e-03,
          2.8721541570633646e-01, 1.8085408252930713e-01,
          -6.1994744617219336e-02, 2.7362335591475575e-02,
          -2.1456040066175711e-01, 7.4223511511118501e-02,
          -1.8518362482863085e-01, 9.6836133796405599e-02,
          1.0562334069009843e-01, -1.9399214548543396e-02,
          6.5110007198224931e-04, 2.4276706217260531e-02,
          1.4619555029564929e-01, 5.6026344375645215e-02,
          1.6097904517130432e+00, -1.3691801313172183e-02,
          1.9512133505358401e-01, 4.0957958435012945e-02,
          -4.6773247555604323e-02, -7.4896734406267776e-02,
          -4.4100438648962813e-02, 3.5684088426072333e-02,
          7.9965579057444766e-02, -8.4041015297546623e-02,
          2.0335622332566503e-01, -1.2268530114765185e-01,
          -2.4546342873264355e-02, -4.4130103169060790e-02,
          1.7354955580915238e-01, 2.8085951673580967e-02,
          5.3666782110777234e-01, -5.7712855925945841e-02,
          1.2430575290598984e-01, -2.0814962650279717e-01,
          -1.2516989921849980e-01, -1.4423740921436213e-02,
          2.9519028152399467e-02, -2.2271864702430505e-01,
          1.7625460766677703e-01, 7.8213289057790319e-02,
          1.2395003503538624e-01, -6.7077726244754221e-02,
          8.9288108324814569e-02, -1.4543601782848453e-01,
          3.2962699998488956e-02, -9.6607467848186510e-02,
          -1.9044676699930039e+00, 1.9245643337503890e-01,
          1.0370335502727381e-01, 5.1356419231441394e-02,
          1.2150288759794460e-01, 2.1184937029770848e-01,
          -9.3602270455463557e-02, -1.0905058045075049e-01,
          1.1786719190480828e-01, -1.9273997425325726e-01,
          1.5096754040505708e-01, -7.4677486434371582e-02,
          -2.3847030415334711e-01, 2.4361330478685275e-01,
          4.2386818133187548e-01, 3.2849538951169382e-01,
          -3.7311291872049059e+00, 1.9744005052704197e-01,
          1.6449645761351980e-01, 2.1933167223741390e-01,
          -8.0450719405033594e-02, 1.7756982503875468e-01,
          -1.7510944608244222e-01, -3.8623561211486850e-02,
          1.4378575205563193e-01, -5.3534424094134621e-02,
          -3.3980172940512948e-02, -9.1298190520922390e-02,
          -2.8690528398272713e-01, 2.5244744255204205e-01,
          5.9022487928376090e-02, 9.9574314531960584e-02,
          -2.1785865128848667e+00, 4.4849932099732745e-02,
          -7.3369734945511439e-02, -4.9139373394908197e-02,
          -5.0532961969084980e-02, -1.1695829154648234e-01,
          1.1542991849090148e-01, 1.9424343178353301e-01,
          1.8726582615521223e-01, 2.7515133670940595e-01,
          -1.9215061141118905e-01, 4.7694784991504702e-02,
          5.1128038468169101e-02, -2.2575881928698832e-02,
          -1.5478943628280331e-01, -1.3509747376367476e-01,
          -3.9524073493160734e+00, 2.0514232480515376e-01,
          1.9395689357431620e-02, -1.0154588062358566e-01,
          1.3698810347635376e-01, 1.8493895763068649e-01,
          -2.6857454728682551e-02, 2.7951538371989475e-02,
          1.8046458641845453e-01, 8.1871590835543989e-02,
          -1.0799516117143383e-01, 2.5955952800211635e-01,
          -1.7544516358729917e-01, 1.6265613164246528e-01,
          7.2533374235498299e-02, 1.9727936444769953e-01,
          -4.1318159256204003e+00, 1.7574409893585768e-01,
          -3.9880534725867549e-02, -4.4000843613546815e-02,
          1.2413906862177769e-01, 1.3649255169128155e-01,
          -1.4114347688700557e-01, 8.5002207917513810e-05,
          4.7467739976366531e-02, -5.0693387235560784e-03,
          -4.7534750964817490e-02, 3.0523466340012534e-01,
          -1.9730590767422776e-01, 9.2646457597372972e-02,
          2.0556998811141095e-02, 2.5574873719053576e-01,
          5.5648968613501583e-02, 8.6122763521982240e-02,
          -1.5872619853437072e-03, -2.6501540604587931e-01,
          -3.5481406394055698e-02, -1.0036094789504639e-01,
          -2.5637334614873709e-02, 4.5788906084857729e-02,
          1.1266861886462136e-01, 1.6263827522891172e-01,
          -3.4670266793345721e-02, -2.2737002704869214e-02,
          1.1776131310398784e-02, 1.0231749517675108e-02,
          -1.4187739202615157e-01, 7.1200941329179368e-02,
          3.1172790957437289e+00, -4.6619707521594389e-02,
          5.9346182894513114e-02, -4.3609877383053289e-02,
          7.6714340426757566e-03, 7.9386838784408394e-03,
          -3.7662477174043377e-03, 6.6508667469256738e-02,
          -2.5912514880565002e-01, 2.6138404327230559e-02,
          -1.5668765620647541e-02, -2.5532347282174104e-02,
          7.7267514846553406e-02, -8.0452762971265884e-02,
          -7.2741531987718780e-02, -6.7146416935584194e-02,
          3.0503017468666953e+00, -6.5038224179930527e-03,
          -2.2102318494966567e-02, 1.5373618090717420e-02,
          -7.8813969610605772e-03, -1.6601565595974338e-02,
          2.6637253525598849e-02, 6.4780318067452297e-02,
          2.2549984292498950e-03, 1.6169878482564570e-01,
          -2.6374503683565764e-02, 4.4053144056444324e-02,
          8.4830805083720609e-02, -1.2394776007850326e-02,
          -2.7613598162906212e-02, -1.0540753056098144e-01,
          -5.4478959642739844e-01, 1.0831745418759758e-01,
          1.7433668366406647e-02, 3.9642289384241816e-02,
          7.8684986634890111e-02, 1.1141205899094989e-01,
          -7.8824955689098142e-02, -1.7566164853710712e-02,
          1.2856412858515998e-01, -5.2156530885746101e-02,
          -3.1051504812246392e-02, 1.1730130908375108e-01,
          -1.2675230412196184e-01, 1.4016988601265645e-01,
          1.6211908754106380e-01, 1.7901952598189849e-01,
          -9.0446400234963820e-01, 1.5274842288751150e-01,
          6.3330836715361008e-02, -4.6712436862312440e-03,
          2.0969468944494682e-02, 1.1207430078004621e-02,
          3.5999234464362775e-02, 3.5872990061982545e-02,
          1.4029384360566655e-01, -1.9042049897118171e-01,
          -3.8474444093904311e-02, 1.5216677946594290e-01,
          -1.6631659466750542e-01, 2.0259557023182692e-01,
          2.6386972729387848e-01, 2.5869457531767037e-01,
          4.2645295807182597e+00, 2.1926133318621388e-03,
          -1.2309158875936176e-01, -1.9050130875609934e-02,
          -1.4403920599338679e-01, -9.2531132267337293e-02,
          1.2362800375506938e-01, 4.4915974740228182e-02,
          9.3158811142748335e-02, -1.6108050742881383e-01,
          -4.0912794923570230e-02, -6.6220027351308039e-02,
          4.0827421877876871e-02, 3.7578904416925379e-02,
          3.0907759604478117e-02, -6.2971632485894435e-02,
          1.1650529774340477e+00, 1.4863327650967936e-01,
          2.7601471490386276e-01, -1.2073903819717506e-01,
          -1.8940658162526125e-01, 1.7575439764922651e-01,
          -1.5728719883835407e-01, -1.3092559835698894e-01,
          5.3833724460448256e-04, -6.9247265268786592e-02,
          1.5906169297268736e-03, 9.8950504203384582e-02,
          -8.1289954982285612e-02, 1.1293192266137071e-01,
          1.7588190547463370e-01, 1.2186030227230267e-01,
          5.6720882170452191e-01, 1.2980666046855857e-01,
          3.0263813340087142e-01, -2.8003136004559048e-01,
          -1.3543870485050361e-01, 1.3664825793736426e-01,
          -1.2494768514619689e-01, -8.8351261927057181e-02,
          8.0366576394572384e-02, -1.1660307859209626e-01,
          -1.6282557513787063e-01, 9.3289511910603459e-02,
          -3.9504246487044425e-02, 1.4788314492871152e-01,
          6.0180955593772546e-02, 8.0902864335037183e-02,
          3.8360592050679365e+00, 8.2533760608443044e-02,
          1.8803932530403655e-01, -2.6116233170912206e-01,
          -1.4805528466901893e-01, -4.6621402313949928e-02,
          -2.1356157266150859e-02, 6.4868375520700225e-02,
          -5.6978468973287601e-02, -6.1404907873605308e-02,
          -1.1019631401175480e-01, -1.9767819536573558e-01,
          3.6588451856490206e-02, 1.1651228474556431e-01,
          -1.9244656355911322e-01, -1.7931244608841412e-01,
          2.2855323234649427e+00, 1.7083254255314980e-02,
          2.9515930284918246e-01, -2.1444256439546830e-01,
          -1.1120319345023370e-01, -3.2781819033564655e-02,
          -1.1035231033312880e-01, 6.4485441688131764e-02,
          -7.4172509141195053e-02, 1.2816643457643617e-01,
          7.3945553341527109e-02, -2.0527987590690336e-01,
          9.2788110455520253e-02, 2.9553671429239675e-02,
          -1.3181346964258153e-01, -1.2880437823816324e-01,
          3.7756660855921353e-01, 7.9729870468780203e-02,
          9.7341732045307133e-02, -1.5695728634937087e-01,
          4.1688053875883133e-02, -4.4772679749820500e-02,
          2.2240605000837202e-01, -1.2607204133222789e-02,
          1.6421693275999347e-01, 3.0235103731723445e-01,
          2.2952109399357018e-02, -8.2887354177679767e-03,
          6.9385000412751684e-03, 5.9893381724884353e-04,
          6.1478612358093980e-02, -4.3850620198828821e-03,
          -1.4021737166222104e+00, 2.1185923624946706e-01,
          2.9003504343747899e-01, 2.8674460810760873e-03,
          7.2733326539450568e-02, 8.3824111898563453e-02,
          -1.0196996391271501e-01, 1.1088293406431549e-01,
          9.2295688430007489e-02, 1.0822621588266824e-01,
          2.7090263056283054e-02, 1.2727734062870111e-02,
          -2.0553862718001420e-01, 1.7722643842152855e-01,
          1.0833884534376720e-01, 1.7110885117580990e-01,
          -2.4047395795398550e+00, 2.2393313572656942e-01,
          7.9135819087663929e-04, -1.2755986035496314e-01,
          -1.6201650148945976e-01, 1.3507804153033354e-01,
          -6.1375418923393002e-02, 9.0557187902761231e-03,
          1.7457370598159952e-01, -8.9566205059322695e-02,
          -7.2834099511593031e-02, 3.0121510922460397e-02,
          -2.4790026419890668e-01, 1.4819849502021873e-01,
          1.4002325126226794e-01, 1.7351782959587000e-01,
          -7.9711671989600597e-01, 1.9565762123781153e-03,
          -8.2709850563476170e-02, -7.6555226262972453e-02,
          -8.0826397825972590e-02, -1.4990721977967580e-01,
          6.9476629053842151e-02, 2.1434949140368670e-01,
          1.3603078488123008e-01, 1.3993102174243982e-01,
          -1.4203145729197789e-01, -8.0380359719297995e-02,
          3.2037656483728624e-02, -1.7193267468566892e-02,
          -1.7459617585334894e-01, -1.1210039446980218e-01,
          -3.0199807950407420e+00, 1.6469624314588441e-01,
          -5.0327976405549313e-02, -5.4556728759665545e-02,
          7.0388348853490879e-02, 1.9504267774427614e-01,
          -6.2962241592326301e-02, 3.8901904522451479e-02,
          3.2310040968112311e-02, 7.9512415277271098e-03,
          -4.8163797782302689e-02, 2.1593980106485083e-01,
          -1.6631288332412389e-01, 1.2183011348455694e-01,
          4.7440737277903697e-02, 1.6407125461780883e-01,
          -4.0258086828854172e+00, 1.5956166319576087e-01,
          -5.0189223676678399e-02, -4.7339578401809836e-02,
          1.1351120839939068e-01, 1.2952363506938161e-01,
          -1.3418485644854930e-01, 3.3774090612982283e-03,
          4.0612468149528312e-02, 3.8738061634761654e-03,
          -4.3105152312838707e-02, 3.0289587650765848e-01,
          -1.8728428003455899e-01, 9.4030458539374889e-02,
          8.1970632427240207e-03, 2.5293041212981754e-01,
          -9.0360648816389344e-01, -4.7843314114526268e-02,
          -6.4111068605984506e-02, 1.4954994858442350e-01,
          1.1746673971025273e-01, 2.2112089507257609e-02,
          -2.4170167720631158e-02, 1.1515237118097967e-02,
          1.1507291981679420e-01, 2.4430896056814883e-02,
          2.3599203147340458e-02, 1.3138160839303456e-01,
          6.8076878064072602e-02, -7.7323403908021310e-02,
          5.1041261050919357e-02, -5.8278196242296257e-02,
          5.7715665501807534e+00, 1.6312796725019483e-02,
          6.6626465027026752e-02, 1.3173743520328792e-02,
          2.2739542367315482e-02, -1.4759543696014274e-02,
          -3.3330039319201467e-03, 2.9730395144831112e-02,
          -2.8585811859833093e-01, 5.1969770171376120e-02,
          -5.2805913742865640e-02, -2.9714598060283492e-02,
          8.3284958626216085e-02, -3.3252141698982308e-02,
          -1.2993659186214446e-01, -8.4303739868867592e-02,
          2.4840803544912529e+00, 1.3493844710921834e-03,
          3.9785671955868095e-02, 1.0423107669737738e-02,
          6.3974396173662573e-02, -6.1867557054336518e-02,
          -8.2503322022614275e-02, 5.1513310905750495e-02,
          -4.3955934237566489e-02, 1.2994050310054125e-01,
          -3.7152140574977476e-02, 1.3543087998161735e-01,
          3.3493138354749132e-02, -3.5669729357982953e-02,
          -4.5738369048367665e-02, 2.9971108844912945e-02,
          -4.5759929744137579e-01, 9.2122710711483063e-02,
          1.1790753019420340e-01, 1.3424663115089480e-01,
          3.6807390259445884e-02, 1.4543273195484267e-02,
          -7.1567151261719225e-02, -4.5582769088384677e-02,
          1.9650793769769287e-01, 1.1238026698023207e-03,
          -3.0535331848626748e-04, 1.2811945893331336e-01,
          -1.7162251479305526e-01, 1.4213752967524337e-01,
          1.3001629071937296e-01, 1.9642953367802610e-01,
          6.0550039161712747e-02, 1.0211412376236235e-01,
          -2.8058369980737973e-02, -1.0285734318628667e-01,
          -7.4701921039786135e-03, 4.3320348688760661e-02,
          7.5901900286793902e-02, 1.0215092664359134e-01,
          7.1746450633790718e-02, -1.9612047522983910e-02,
          -6.9831803861296587e-02, 1.7154814459420478e-01,
          -1.0895609027776773e-01, 1.3945432586238241e-01,
          2.5713555172001479e-01, 1.6670198626337226e-01,
          2.4873074016970781e-01, 2.4565769864198495e-02,
          -5.4845327569174554e-02, -8.9994397416632579e-02,
          5.1759018725472693e-02, -9.0961260988517201e-02,
          -2.3265694016306532e-02, 1.0794957187600462e-01,
          1.6970075889572979e-02, -6.6914118671010797e-02,
          -9.5094520194513085e-03, 3.0446261682577882e-02,
          -3.3441107837983888e-02, 1.2670183683008851e-01,
          1.1411725771386730e-01, 1.8275925640630422e-01,
          -6.8840518865828038e-01, 1.0301988220046605e-01,
          1.3614199283137249e-01, -2.2749377117917952e-01,
          -4.1954805126171751e-02, 7.5488834291085605e-02,
          -1.0577193222650232e-02, -2.7704632125083810e-03,
          -4.3798173453834114e-03, 1.2086008808552436e-02,
          -1.3496388335569201e-01, 2.2527196863633939e-01,
          -5.8557962942630729e-02, 1.2648398227604604e-01,
          1.3190398225188432e-01, 1.8932887457169567e-01,
          1.8381270913567425e+00, -4.8616710627152331e-02,
          2.3365335101516369e-02, -2.9593150954230785e-01,
          -1.1041370609846793e-01, -1.1848226887497172e-01,
          -4.4417576822346665e-03, 3.3288750640007518e-02,
          1.7926694234703083e-01, -4.7340780326809856e-02,
          -1.6922103901568508e-01, -9.3401769331504667e-02,
          9.3041561970307107e-02, 3.6660318960173272e-02,
          -2.0413394908929766e-01, -1.1351681824109729e-01,
          4.3697633006566088e+00, -6.9479998450244371e-02,
          1.5589654269169606e-01, -2.2882602618532633e-01,
          -3.0237050469708937e-01, -1.3753928110919289e-01,
          -2.5563350262695911e-01, 3.2941264665916528e-02,
          2.0564133084009346e-02, -3.9318302558257738e-02,
          1.1101187604940116e-02, -1.9865255815292931e-01,
          1.3430615435442442e-01, -1.7872526161484301e-02,
          -2.7347544851951666e-01, -1.8174505037879132e-01,
          3.7079340156662406e+00, -4.2811391907207959e-02,
          3.6829048071870007e-03, -2.0398042331936836e-01,
          -4.7251867837985177e-02, -7.0693952694309364e-02,
          -1.8889226380032313e-02, 7.4538101742929005e-02,
          -1.6745831208504114e-01, -4.7379942947805955e-03,
          -1.4176943746493942e-02, -1.7521463155079361e-01,
          8.4115199214615452e-02, 1.6410950773300403e-02,
          -2.9198564328533594e-01, -1.6814994619786727e-01,
          1.4927214898508416e+00, -1.0238040966956624e-01,
          -1.9984282611416088e-01, -1.2450115010654331e-01,
          1.0225112357366312e-01, -6.5201537809227925e-02,
          1.7627315029752508e-01, -1.2161210816273698e-02,
          -3.3311960574325361e-01, -3.2623769621507676e-02,
          -4.3441754691862310e-02, -9.9172240225427158e-02,
          4.9691659035046284e-02, 4.6117955470089747e-02,
          -1.9319957549023689e-01, -7.1881116243558432e-02,
          -1.1606812553480974e+00, -5.4361129466730024e-02,
          2.0458380921289390e-01, 2.1928397363862800e-01,
          -6.8104781669711817e-02, -8.0605715084556454e-02,
          -1.9527809741678001e-01, 1.3846219052381162e-01,
          -9.4770822541748317e-02, -1.1600770724839492e-01,
          5.6835071637359048e-02, 7.0978756942008114e-02,
          -6.2461149201254743e-02, 6.7554749721799173e-02,
          1.3652719745256994e-01, 2.1201840871048364e-01,
          -1.2512865850641886e+00, 1.2518691157672521e-01,
          3.4240715825127346e-02, 3.8186057430214623e-02,
          -1.6634344641127455e-01, -2.5411605209350045e-03,
          9.0179273379398725e-02, 8.3693662581995412e-02,
          1.5657865362742865e-01, -5.9250909018559825e-02,
          -9.1730505814634392e-02, -5.1293440671377451e-03,
          -1.7696607422106328e-01, 9.7154207840169204e-02,
          1.9488905127278253e-01, 8.0879988919006149e-02,
          -1.6188329121066831e+00, 1.2282351010303465e-01,
          -1.3845770791365117e-01, -1.0318592420991216e-02,
          -1.6360778142150399e-02, 6.1407289778979128e-02,
          9.6071638632080736e-02, 1.5222296639897720e-01,
          3.9614002221453629e-02, 1.1638600971233650e-02,
          -6.0797434035495826e-02, 1.5489977302862984e-01,
          -1.3030465662882026e-01, 6.3536772486108825e-02,
          1.3078571371913941e-01, 1.0015117032084889e-01,
          -2.3095571680335523e+00, 1.2217599732388697e-01,
          -5.7123559856220744e-02, -5.0402563715757069e-02,
          4.7341840819787040e-02, 1.6151952479963488e-01,
          -8.0674010635390467e-02, 4.9148716005382710e-02,
          2.2896725551939518e-02, -7.4943810140411043e-02,
          -3.1245317521849149e-02, 1.2039882499184329e-01,
          -1.6087391314586330e-01, 1.1834134177575202e-01,
          2.5750913411601697e-02, 1.5592401229848071e-01,
          4.2175512290310846e-01, 6.2494130585034911e-02,
          -1.4464081233500447e-02, -8.6372444679813254e-02,
          7.6427897044503923e-02, 8.9556654726924742e-02,
          1.6510057088669955e-02, 6.0626076896266194e-02,
          2.9164623342346714e-02, 1.0704377391468267e-01,
          -3.8765414854143837e-02, 8.4315089185592593e-02,
          4.8743477037157243e-02, -1.0357623526953989e-02,
          1.3478765254372252e-03, -1.3906517333417839e-02,
          -6.8231175078130601e-01, -3.9081879821936095e-02,
          -6.0144284162693649e-02, 1.4744569719239886e-01,
          1.2390345248826196e-01, 1.7092945743718925e-02,
          -1.3901602620749506e-02, 8.9762649516670553e-03,
          1.0568313872617176e-01, 3.5803892281969181e-02,
          1.5819393777778981e-02, 1.3170056152298162e-01,
          8.3254237260645236e-02, -8.1214599424530423e-02,
          4.1616184146192767e-02, -7.3276301570730992e-02,
          4.6019492869483436e+00, 2.6409926316280915e-02,
          3.9339081008902634e-02, -2.1220916368414923e-02,
          3.8500712054771534e-02, -3.8229015672024358e-02,
          -1.9635885528309208e-02, 3.2049799073610330e-02,
          -1.8643387174619466e-01, 1.0494286809853282e-01,
          -5.1799356714252738e-02, 1.1109970741327095e-02,
          7.2200594398137349e-02, -3.3591633492818185e-02,
          -1.2007272783674504e-01, -6.1188207463894639e-02,
          7.3652771771163605e-01, 7.5372113143893915e-02,
          8.4497452974808665e-02, 1.6359427418148338e-02,
          1.5579621927120921e-01, 8.7822679673726131e-02,
          -1.1666704910562384e-01, -1.7974217044640400e-02,
          -5.7726884818569704e-02, 4.9598577516098162e-02,
          -6.1772259195900063e-02, 2.4628213120133047e-01,
          -7.5210636186004182e-02, 4.2287848236720528e-02,
          9.3074767616218329e-02, 1.9915559803315988e-01,
          -1.1764659635138313e+00, 9.5440178497842240e-02,
          4.4303687667691265e-02, 4.3306005919436834e-02,
          1.0695650959540122e-02, -9.8752748740630863e-02,
          -7.0976007355961185e-02, 1.3244968336029693e-02,
          2.6912062969226624e-01, -3.9955337671122915e-02,
          4.7091055021123353e-02, 1.7766746381227347e-01,
          -2.0970440715319830e-01, 8.7683284753600668e-02,
          2.5694889289266687e-01, 3.6805375465941725e-01,
          2.0008315081685000e+00, 1.1015773965862582e-02,
          -9.5715303581399819e-02, 3.0457285891104652e-02,
          -2.5245811667836952e-02, -9.7143189340812522e-02,
          2.1743324967120291e-02, 1.0897775754360753e-01,
          4.7980696934218005e-02, -4.3729675247252700e-02,
          -2.8309662497222384e-02, -7.4149343912785284e-02,
          -4.0152055055732605e-02, 1.0039643764835843e-01,
          9.3478593546519148e-02, 5.4569934928886427e-02,
          -3.8367674853327294e-01, 1.1376661108451288e-02,
          -4.2630071182245134e-02, 7.5722277037098967e-02,
          1.4591725120765506e-01, 1.3781336480199231e-02,
          -1.7582199259303447e-01, 2.3848753713699680e-02,
          -6.7611311549346201e-02, -2.1817800759870704e-01,
          -3.3373808302369044e-02, -4.7624907744523895e-02,
          -1.1381687982908864e-01, 1.7646465914695492e-01,
          5.1311196494053399e-02, 2.3796742822282355e-01,
          -2.0092175383940587e+00, -2.0943945092889011e-02,
          -5.8959194805255702e-02, 2.1954054032036124e-01,
          -1.3829697369344692e-02, 1.7819824109253760e-02,
          -1.2360214121575895e-01, -1.2827292123178033e-01,
          1.2565721137136188e-01, -1.4902032393067061e-01,
          3.7394209268493121e-02, 8.7474805714297180e-02,
          -1.5470126652291413e-01, 1.2081368481062829e-01,
          2.5537905092327362e-01, 3.4065173906176899e-01,
          -8.3307699751474606e-01, -1.5163240320203089e-01,
          -1.7240086922190054e-01, -4.5557857765391292e-02,
          -1.3199068328341013e-01, -1.1535111233738703e-01,
          -3.7821452962544286e-02, -8.9684150422200515e-02,
          5.3671055998110750e-01, -6.8833132497133312e-02,
          -7.0325186225315167e-02, -7.6010185483735754e-02,
          4.4738072559227106e-02, -6.9245864577653624e-02,
          -8.3054547465497605e-02, -4.7996661565857440e-02,
          1.6344555290074823e+00, -1.1725128187786404e-01,
          -2.0464332657238860e-01, 2.9240360836623432e-03,
          -1.9969107292000376e-01, -1.6135586720631666e-02,
          -1.2686027718393428e-01, -1.4172954504382004e-01,
          -4.8540860060331058e-02, -4.1758971954925617e-02,
          1.2813450857382319e-01, -8.1906886545458232e-02,
          2.2433704063330919e-02, -1.0072115657126400e-01,
          -2.2762065577467228e-01, -1.1279877268086343e-01,
          3.4352185767158674e+00, -1.0588759216456858e-01,
          -2.6355982525948046e-01, 1.9553213982231064e-02,
          1.1023561596669123e-02, -3.2537509522020058e-02,
          1.1568473045067966e-01, -1.1690166618949668e-01,
          -1.8770283685805964e-01, -1.8510661131934714e-02,
          7.1893490906888971e-02, -7.6991009238143504e-02,
          5.2295546020143607e-02, -1.0497099643747763e-01,
          -2.5526243827828987e-01, -1.6194429252482498e-01,
          1.8968778265508262e+00, -1.1614907407559727e-01,
          -1.7790981283665569e-01, 1.0186716038338323e-01,
          9.0126554407926537e-02, -2.5278578443994254e-02,
          -3.5857665353302100e-02, -1.8451414416363529e-01,
          -2.5187607609706170e-01, -6.1702842251007896e-02,
          2.9460283485084854e-03, -8.9618128978292966e-02,
          1.0760498705163737e-01, -6.1133285635194892e-02,
          -1.7572906851460818e-01, -8.4617369026633249e-02,
          7.4818964955819312e-01, -7.6907784044509084e-02,
          9.0245925522420320e-02, 3.2694410613556624e-01,
          8.8576317068237556e-02, 2.0648295713309141e-02,
          -1.4401481177330916e-01, 1.1814607881349169e-01,
          -2.4807912373225216e-01, -8.1296166890368934e-02,
          -1.1664975320124145e-01, 1.1488237078723937e-01,
          5.7758598106426445e-02, 1.9606315750500890e-02,
          1.0130866797538417e-01, 1.1645342773101518e-01,
          7.1971589576057871e-01, 7.2687946546359898e-03,
          6.5872649894540961e-02, 8.5282981183543952e-02,
          -1.2431544014505075e-01, -8.1346602318587605e-02,
          6.0296282604241261e-02, 2.1953583753614014e-01,
          -1.1135973830902769e-01, 5.4430639418969418e-02,
          -1.4666983188576502e-01, -8.6990331212803348e-02,
          -1.0160848628409432e-01, 6.9305249271043909e-02,
          -1.5100456580405544e-01, -1.5312201557736152e-01,
          -8.4536094213950808e-01, 7.9960493803995489e-02,
          -1.4000656207519341e-01, 2.9283966020760151e-03,
          -4.8445022576435459e-02, 3.8050550239906521e-02,
          -7.3692994085715153e-03, 9.7972771790320212e-02,
          9.5668012904956024e-02, -1.3573314201422412e-01,
          2.6588985373445787e-02, 3.4713660959241353e-02,
          -1.8045019227791967e-01, 1.1591459049137748e-01,
          1.4828267646531848e-01, 1.6301614866799391e-01,
          -1.4399301567176483e+00, 1.4819550413881227e-01,
          -8.7413524951337626e-02, -5.3866562320231404e-02,
          7.9702307401878419e-02, 1.7495507828111634e-01,
          -1.2368648644185512e-02, -7.8084358428219779e-03,
          1.2179606786256866e-01, -1.9543821786332918e-01,
          4.3130966938831942e-02, 1.3150762406238617e-01,
          -1.5031740550921982e-01, 1.2360906117149685e-01,
          3.9144137950180269e-01, 3.4644609153647715e-01,
          8.1038708914557112e-01, 5.8241563040413794e-02,
          -3.8568498316217975e-02, -9.2410737441117788e-02,
          3.2689698416585908e-02, 8.4101720801312785e-02,
          7.0819580616239552e-02, 6.9978432039023042e-02,
          5.3332426048795366e-02, 1.4342130899595368e-01,
          -2.9319415506271821e-02, 2.9543790241783961e-02,
          8.3000163354043449e-02, -3.6221362483990797e-03,
          -7.3357048710680200e-03, -8.6361582037447940e-02,
          1.3039726624029080e+00, -4.9609957421679243e-02,
          -1.4052306314325165e-02, 8.4473035787991729e-02,
          1.0144613150496964e-01, 2.0007202663875009e-02,
          -2.2387477223126413e-02, 5.8570323318451474e-02,
          -5.9695406278376273e-02, 4.3733072759456135e-02,
          -8.4897520792543701e-03, 9.3478354213796674e-02,
          1.0556391335113059e-01, -1.1620470557791968e-01,
          -2.8628891728757867e-02, -8.5944838403751361e-02,
          6.7989559184067272e-01, 1.8359915330264606e-01,
          9.7653914080287438e-02, 4.8234724629120873e-02,
          2.4056770718619877e-01, 2.2762616856943105e-01,
          -1.1289964105521433e-01, -8.7376408092428900e-02,
          -1.5424937021841723e-01, -6.3493530197123796e-02,
          -9.1511339674279962e-02, 2.6472232468184198e-01,
          -1.1600475963758333e-01, 1.0284846427358499e-01,
          1.5257204170943767e-01, 2.4927101372196006e-01,
          9.0968314204841483e-01, 1.0331178580090786e-01,
          5.4410095089505041e-02, 6.2347044421158918e-02,
          1.9733216388732003e-01, 1.5713188265593736e-01,
          -1.3306588807823067e-01, -6.7754136195212061e-02,
          -1.0399655503341988e-01, -2.3161856529337294e-02,
          -5.5152615016907477e-02, 2.1028568061623473e-01,
          -9.6052042948526623e-02, 7.5345747339850291e-02,
          1.4655009647437539e-01, 2.3097046951297065e-01,
          1.1803579746450816e+00, 2.8203766396774608e-02,
          -1.5119298640905574e-01, 4.8575110367804770e-02,
          -2.5797779794520841e-02, 5.3403668925180767e-02,
          1.5220776152665691e-02, 2.0594939516449116e-02,
          1.2111527283754589e-01, -1.5572215137196269e-01,
          9.2412618168938046e-02, 2.1520890233882053e-03,
