%YAML:1.0
my_nn: !!opencv-ml-ann-mlp
   layer_sizes: !!opencv-matrix
      rows: 1
      cols: 3
      dt: i
      data: [ 256, 16, 10 ]
   activation_function: SIGMOID_SYM
   f_param1: 1.
   f_param2: 1.
   min_val: -9.4999999999999996e-01
   max_val: 9.4999999999999996e-01
   min_val1: -9.7999999999999998e-01
   max_val1: 9.7999999999999998e-01
   training_params:
      train_method: BACKPROP
      dw_scale: 1.0000000000000001e-01
      moment_scale: 1.0000000000000001e-01
      term_criteria: { epsilon:2.0000000000000000e-03, iterations:2000 }
   input_scale: [ 4.7673819269578352e-02, -9.5597053139221760e-02,
       2.0803040709476112e-02, -2.1956692144934353e-01,
       1.5747568089420926e-02, -2.9162424672621207e-01,
       1.3428379251077902e-02, -3.7936676807977926e-01,
       1.1975202148736774e-02, -5.5778665793241644e-01,
       9.7302073946255070e-03, -6.8280166868174741e-01,
       8.4976490026961032e-03, -7.6986921682124188e-01,
       8.2446096369783780e-03, -7.9805726243143094e-01,
       8.4056149564058075e-03, -7.5721523732470941e-01,
       8.9458192281490437e-03, -6.9505939859485666e-01,
       1.0479134011125799e-02, -6.1071108578890620e-01,
       1.3831482517959180e-02, -4.7438470310100656e-01,
       1.7217507988259502e-02, -2.8268625970559397e-01,
       2.3145450850157900e-02, -1.8812165769466901e-01,
       2.8197619115101866e-02, -1.5226292833080043e-01,
       5.5382708299797100e-02, -8.3943297781755244e-02,
       1.9868743741468801e-02, -2.2751048046565284e-01,
       1.4134463665491903e-02, -3.3874118975909068e-01,
       1.2746294256931256e-02, -4.3371695435692548e-01,
       9.8111352066205023e-03, -7.4461969952309326e-01,
       8.5247565153699703e-03, -7.9966421151016465e-01,
       8.1895123253982200e-03, -8.2270934955611097e-01,
       8.1302247671612496e-03, -8.5302950202777639e-01,
       8.1183171219542747e-03, -8.4876459434889207e-01,
       8.1948771771139291e-03, -8.3263136974583729e-01,
       8.2285511212743852e-03, -8.0318161807889088e-01,
       8.3953513687960481e-03, -7.7321311597663456e-01,
       8.9155380940333737e-03, -7.1870697968792208e-01,
       1.0900820096824922e-02, -6.2432858420021475e-01,
       1.7559966188757301e-02, -3.3508300204136876e-01,
       2.1659566750857669e-02, -2.0597632835419505e-01,
       3.2299961071633861e-02, -1.4204257918198329e-01,
       1.5813158499152796e-02, -2.8648053962590719e-01,
       1.2774572323178916e-02, -4.3355256292642347e-01,
       9.5271932421295818e-03, -7.0777504354834120e-01,
       8.3853846233757565e-03, -7.8324380723141407e-01,
       8.2692526556101403e-03, -7.8374963099293293e-01,
       8.2010019838927983e-03, -8.3598121194702735e-01,
       8.1952846796889099e-03, -8.4969422062021227e-01,
       8.1273754036033600e-03, -8.7461614517087971e-01,
       8.1371364385464089e-03, -8.8723370544327140e-01,
       8.1861095934576359e-03, -8.5310519394061723e-01,
       8.2508439008747957e-03, -8.0619624743547691e-01,
       8.3818152326675666e-03, -7.5909928447961506e-01,
       8.5501475511964419e-03, -7.1431434496849078e-01,
       1.0494490736588716e-02, -5.9270342413437926e-01,
       1.9264557744335348e-02, -3.0837690416156543e-01,
       2.7164648996158301e-02, -1.6461208823680978e-01,
       1.3923905196255713e-02, -3.5673502999076673e-01,
       1.0082413775534267e-02, -7.0701984671395979e-01,
       8.3377963272063312e-03, -7.6767548964215426e-01,
       8.2393302323136106e-03, -7.9880245022831786e-01,
       8.2105962016711821e-03, -7.9378914967367520e-01,
       8.2169917891835656e-03, -8.1738802179129610e-01,
       8.3744843138599933e-03, -8.0242956760719020e-01,
       8.6815216796026461e-03, -7.5543513162389908e-01,
       8.5354963883213768e-03, -7.9975942541933809e-01,
       8.2451759387044739e-03, -8.7800647813648247e-01,
       8.0845968391461617e-03, -8.8250806527764780e-01,
       8.1200005749981728e-03, -8.4863716024366176e-01,
       8.3012805007762099e-03, -7.7683358109281708e-01,
       8.5836940706663142e-03, -7.1194621314369566e-01,
       1.1558379274996337e-02, -5.8481252627705682e-01,
       2.2140018892588958e-02, -2.2649669551700871e-01,
       1.2692118551481392e-02, -5.2622965369464147e-01,
       8.5374790036559112e-03, -7.6532309914536423e-01,
       8.2418637051867531e-03, -7.9042429655146418e-01,
       8.1782083052948495e-03, -7.9673352211897130e-01,
       8.3231266756081702e-03, -7.9044199068972698e-01,
       9.7871817425621878e-03, -7.0641800418998557e-01,
       1.0658149112207062e-02, -5.0198448486776126e-01,
       1.0660275816884812e-02, -4.8378371291260291e-01,
       1.0095460370205865e-02, -5.2869880687645376e-01,
       9.9897698472146083e-03, -5.8460312334596698e-01,
       9.0609694723965753e-03, -8.1047595400330497e-01,
       8.1897439291448385e-03, -8.7883664674634965e-01,
       8.1843764964291982e-03, -8.1159898527594843e-01,
       8.3303820533085909e-03, -7.5298435447776357e-01,
       9.0419945054291406e-03, -6.9099624826205908e-01,
       1.6913894277796791e-02, -4.2248076282380159e-01,
       9.7939196361577739e-03, -6.5572414711979499e-01,
       8.2400896074127962e-03, -7.9675138480524899e-01,
       8.2090017799026881e-03, -8.0395454053429627e-01,
       8.1960695369603948e-03, -8.0293916205921645e-01,
       9.5603185475806613e-03, -7.1986054761816809e-01,
       1.1461995575601253e-02, -4.5572140555368867e-01,
       1.1607927487591586e-02, -4.2178940104015522e-01,
       1.0842161459569030e-02, -4.6729067629967652e-01,
       1.0617789038550081e-02, -4.8564878278791207e-01,
       1.0517190614789526e-02, -4.9179263677497870e-01,
       9.9105247549266459e-03, -5.6090014767681262e-01,
       9.0633293720620706e-03, -8.0401485786017002e-01,
       8.1871207819509424e-03, -8.2480040792457188e-01,
       8.2987733500123912e-03, -7.6278628019773831e-01,
       8.5179137772641647e-03, -7.2905829871903538e-01,
       1.1497504088430163e-02, -5.4206693042328224e-01,
       8.7041912125772909e-03, -7.2505002048325062e-01,
       8.2074659654668199e-03, -8.0614123297136320e-01,
       8.1963293407953230e-03, -8.1168163700602536e-01,
       8.2815759203953686e-03, -7.9828697515476255e-01,
       1.0887544509490581e-02, -4.9258408586099572e-01,
       1.1299575137548465e-02, -4.3698446630591015e-01,
       1.1553146759718452e-02, -4.2188845342290249e-01,
       1.0915047289920527e-02, -4.5820356964144709e-01,
       1.0719624791752352e-02, -4.7735979369729475e-01,
       1.0486286423022498e-02, -4.9161717095915941e-01,
       1.0283250079844073e-02, -5.1115745856528361e-01,
       9.6495926719570701e-03, -5.9827474566133831e-01,
       8.1468046844601506e-03, -8.6994235134299580e-01,
       8.1616856436771707e-03, -8.2655671881553638e-01,
       8.3240205417448379e-03, -7.6393107503962310e-01,
       9.1741481779404228e-03, -6.5176220418707398e-01,
       8.2680526263439798e-03, -7.6450443559493608e-01,
       8.1583674470480667e-03, -8.0792837207489532e-01,
       8.1876590777695980e-03, -8.2019171088990472e-01,
       8.6654725039240280e-03, -7.6218594700807407e-01,
       1.0623056903779777e-02, -4.7437744913597751e-01,
       1.1130739595716381e-02, -4.5291628292166120e-01,
       1.1329369107474367e-02, -4.4098172131335206e-01,
       1.0979229620525386e-02, -4.5508004149829406e-01,
       1.1001524771413411e-02, -4.5717995541115730e-01,
       1.0441941138658227e-02, -4.8984254069518757e-01,
       1.0249902036354541e-02, -5.1000540214521939e-01,
       1.0082053416150427e-02, -5.3728754617727204e-01,
       8.4857680512327033e-03, -8.3298151092448014e-01,
       8.1542949568303071e-03, -8.4266532839011199e-01,
       8.2315770839475454e-03, -8.1564593289438092e-01,
       8.5138140187028880e-03, -7.3569406803319082e-01,
       8.4374362892593278e-03, -7.4460690553023334e-01,
       8.2041841279771200e-03, -7.9813589775954397e-01,
       8.1759262115154822e-03, -8.2189445377703918e-01,
       8.5380129265707847e-03, -7.7463004723109663e-01,
       1.0448717631573441e-02, -4.9201902419826948e-01,
       1.0823789992339019e-02, -4.6439559946951126e-01,
       1.1259134294539900e-02, -4.4370918700806755e-01,
       1.1143509503173122e-02, -4.4753100385127637e-01,
       1.1058475700895595e-02, -4.4814927349003131e-01,
       1.0468510118884505e-02, -4.9300579941042627e-01,
       1.0275269523457333e-02, -5.0494732564003475e-01,
       9.9114729133960040e-03, -5.5544249775206211e-01,
       8.4259720916118851e-03, -8.5051938620995371e-01,
       8.1228410209861334e-03, -8.5155664213206572e-01,
       8.1290192913600953e-03, -8.5477427663679717e-01,
       8.4634800942871066e-03, -7.5992310021477583e-01,
       8.8242979947870601e-03, -6.9938167478116131e-01,
       8.1578753413896112e-03, -7.9686223887762087e-01,
       8.1581870439918578e-03, -8.1798324580472914e-01,
       8.2046935807446129e-03, -8.4214618304302047e-01,
       1.0029028946701359e-02, -5.6874638147818057e-01,
       1.0493870201854036e-02, -4.8076513415803473e-01,
       1.0837415437741299e-02, -4.6385434027546241e-01,
       1.0923920417301948e-02, -4.4748884758768293e-01,
       1.1026401576980257e-02, -4.5676332870381742e-01,
       1.0910333488225656e-02, -4.6320807483717985e-01,
       1.0335138029471185e-02, -4.9931539050902568e-01,
       9.8842698433327849e-03, -5.9570086070752548e-01,
       8.1971173458203605e-03, -8.5925761833933834e-01,
       8.0802226206861255e-03, -8.7475958656876374e-01,
       8.2086997908529993e-03, -8.4447765979920297e-01,
       8.8650018208855132e-03, -7.3828636240752821e-01,
       1.0053244744600492e-02, -6.2925948738082704e-01,
       8.2860411403534989e-03, -7.6398166313879634e-01,
       8.1598677230637195e-03, -8.1868843254651935e-01,
       8.1329445616115364e-03, -8.4278093902242235e-01,
       9.3137464354271799e-03, -7.6429800531915815e-01,
       1.0302566217133246e-02, -5.1814670095914084e-01,
       1.0510321898975220e-02, -4.9005750522381769e-01,
       1.0725139673491941e-02, -4.7129694487491192e-01,
       1.1048576654904193e-02, -4.5729381657095614e-01,
       1.0519243808411708e-02, -4.8357860045709700e-01,
       1.0368262567456821e-02, -5.1980021282693278e-01,
       9.0095970636416434e-03, -7.8927571765148852e-01,
       8.0935333860468854e-03, -8.7214173662200289e-01,
       8.1233418860537851e-03, -8.7968264267263918e-01,
       8.2376312860717570e-03, -8.3994287077443774e-01,
       9.8709746789377197e-03, -6.6765561169197574e-01,
       1.3917717631074715e-02, -4.7823691016912634e-01,
       8.7538872415910546e-03, -7.2421733506777286e-01,
       8.2574073111867895e-03, -7.8605210150863236e-01,
       8.1275050512084144e-03, -8.3983611425637084e-01,
       8.2774837780249053e-03, -8.2984558781799911e-01,
       9.2416098816066761e-03, -7.6808276806002040e-01,
       1.0364097189462526e-02, -5.5011822301616486e-01,
       1.0569774545729360e-02, -4.8946429809670489e-01,
       1.0552472912590592e-02, -4.8974358030877280e-01,
       1.0164257131088178e-02, -5.6972256506742902e-01,
       8.9942897359867619e-03, -7.9778274407860450e-01,
       8.2063900588037770e-03, -8.6182428932198263e-01,
       8.0608877363615682e-03, -8.9519833305956786e-01,
       8.1656648025271797e-03, -8.5123698977675155e-01,
       8.6348165402083260e-03, -7.9420951594714340e-01,
       1.2391645173702377e-02, -5.0543649877040897e-01,
       1.7679909498435949e-02, -2.8589127197919295e-01,
       1.0846546782185188e-02, -6.3500127245301208e-01,
       8.3766141476313248e-03, -7.6580909744447434e-01,
       8.1987852700996355e-03, -8.0430206052521525e-01,
       8.1697367514822188e-03, -8.3952288129412911e-01,
       8.2130893925697352e-03, -8.1370354481945939e-01,
       8.2529760117114742e-03, -8.2178175937243625e-01,
       8.6062190387261681e-03, -7.7407086995251273e-01,
       8.5503855564707347e-03, -7.8665464246337136e-01,
       8.2292321830593710e-03, -8.2666881053275565e-01,
       8.1230663643107430e-03, -8.7608302817777417e-01,
       8.0970021472272745e-03, -8.9195316927064461e-01,
       8.1156043132834341e-03, -8.9190976640911002e-01,
       8.3188155399623442e-03, -8.3184424989067407e-01,
       1.0312605019717414e-02, -6.6858514382315926e-01,
       1.5792550585013842e-02, -3.1300646409864130e-01,
       2.2024322635256940e-02, -2.0291018320240081e-01,
       1.6083625363732642e-02, -3.5034174979520766e-01,
       9.9711033330087562e-03, -6.5368854339426685e-01,
       8.4020297672038318e-03, -7.6913737815876448e-01,
       8.2049592519651080e-03, -8.2565315294755914e-01,
       8.1083759477437838e-03, -8.5259148885506197e-01,
       8.1383708804696770e-03, -8.6194957957500595e-01,
       8.1293095804297871e-03, -8.5552173544119459e-01,
       8.1429225148814122e-03, -8.5710649654956927e-01,
       8.1786292789141953e-03, -8.6818166946393194e-01,
       8.1272460998443388e-03, -8.9740468313684796e-01,
       8.1503531826718871e-03, -8.8083510532191345e-01,
       8.3083143950799434e-03, -8.4248667577074854e-01,
       9.5657943236137528e-03, -7.0373647118878635e-01,
       1.3703171402754722e-02, -3.9558946083916585e-01,
       2.0776576739423486e-02, -2.2018823480196190e-01,
       3.7669302161342774e-02, -1.2303053097538709e-01,
       2.1997419548270392e-02, -2.0664093146652510e-01,
       1.4502827222354381e-02, -3.7343154220071234e-01,
       1.0595116234709720e-02, -6.5317545421245593e-01,
       8.7095749581716717e-03, -7.5901537283086051e-01,
       8.2455671414448165e-03, -8.1875153907180531e-01,
       8.1181689588233595e-03, -8.6883216771048477e-01,
       8.0940737220542916e-03, -8.9438909690454627e-01,
       8.0672888959631862e-03, -9.0422370383228634e-01,
       8.1130221354769900e-03, -9.0321341648459008e-01,
       8.1721043337511304e-03, -8.7735296803464013e-01,
       8.5571035526693495e-03, -8.5094574977609894e-01,
       1.0131693951280154e-02, -7.0248683075800533e-01,
       1.3223857138317153e-02, -4.0977155516574548e-01,
       1.7137278498698939e-02, -2.7217277137320811e-01,
       2.9700818270355367e-02, -1.5087926889656611e-01,
       9.9947059348475600e-02, -4.7657865369452490e-02,
       4.0128294050875160e-02, -1.1441662317196469e-01,
       2.3430998203556725e-02, -2.0136999128751779e-01,
       1.6793907163149165e-02, -2.9980513191254182e-01,
       1.3347451299185270e-02, -4.8182503568807811e-01,
       1.0418278158840380e-02, -6.2322015362886785e-01,
       8.7194126610871878e-03, -7.5735071884970750e-01,
       8.2670433785671342e-03, -8.2823664485064818e-01,
       8.3377314059878190e-03, -8.3194731451361414e-01,
       8.6517254281876163e-03, -7.9815723464407062e-01,
       9.8452652559441831e-03, -6.9056662501521793e-01,
       1.2315507560248568e-02, -5.1986537145204714e-01,
       1.4960419779239266e-02, -3.2268887505892763e-01,
       2.0356801517282693e-02, -2.2768276136482474e-01,
       3.5685704078168283e-02, -1.2898061653364859e-01,
       7.2993470220964335e-02, -7.2447928590015434e-02 ]
   output_scale: [ 5.2631578947368418e-01, 4.9999999999999994e-01,
       5.2631578947368418e-01, 4.9999999999999994e-01,
       5.2631578947368418e-01, 4.9999999999999994e-01,
       5.2631578947368418e-01, 4.9999999999999994e-01,
       5.2631578947368418e-01, 4.9999999999999994e-01,
       5.2631578947368418e-01, 4.9999999999999994e-01,
       5.2631578947368418e-01, 4.9999999999999994e-01,
       5.2631578947368418e-01, 4.9999999999999994e-01,
       5.2631578947368418e-01, 4.9999999999999994e-01,
       5.2631578947368418e-01, 4.9999999999999994e-01 ]
   inv_output_scale: [ 1.8999999999999999e+00, -9.4999999999999996e-01,
       1.8999999999999999e+00, -9.4999999999999996e-01,
       1.8999999999999999e+00, -9.4999999999999996e-01,
       1.8999999999999999e+00, -9.4999999999999996e-01,
       1.8999999999999999e+00, -9.4999999999999996e-01,
       1.8999999999999999e+00, -9.4999999999999996e-01,
       1.8999999999999999e+00, -9.4999999999999996e-01,
       1.8999999999999999e+00, -9.4999999999999996e-01,
       1.8999999999999999e+00, -9.4999999999999996e-01,
       1.8999999999999999e+00, -9.4999999999999996e-01 ]
   weights:
      - [ 9.2081659501453006e-01, 4.8642133151626071e-01,
          -3.2033581252220911e-01, -4.7108980140354190e-01,
          -1.0755664489195162e-02, 3.1348124400942523e-01,
          -4.9566583307355895e-02, -5.7480683615260875e-01,
          -7.4163655588076927e-01, -5.2808328537600302e-01,
          2.5568454289893128e-01, -3.5753756993964098e-01,
          -3.5114500811326294e-01, -1.0913712831312812e+00,
          3.0000869054842261e-01, 2.0928944007522260e-01,
          1.1504728876043581e-01, -4.4587206735142909e-02,
          -1.2358516539044997e-01, -6.2599611768611318e-01,
          -1.8609569713659294e-01, -1.0532974138489972e+00,
          -2.3916034258319013e-01, -1.0699542292111457e-01,
          6.2302542955471973e-01, 2.2901534587283870e-01,
          -4.1151285059880399e-01, 6.9787104058923843e-01,
          -1.9687726118751414e-01, -9.4315652149547569e-01,
          -1.5281270073097480e-01, 1.1940877653640471e+00,
          -4.2002507765512886e+00, -3.1335052486969689e-02,
          -6.8151014381552411e-02, -3.2769659236557808e-01,
          1.1962616694765671e-01, -5.0114000300015227e-01,
          -2.2850992116050375e-01, 2.0807873284985770e-01,
          1.0274586688401348e+00, 8.4510937663384789e-01,
          2.3784889782229643e-01, 3.0667214687080074e-03,
          1.1336960611980405e-01, -5.9400018442313907e-01,
          -3.1771702880790686e-01, 2.8398855130226375e-01,
          -5.1425744640275663e+00, 3.4906660939997008e-01,
          -7.2349830209033086e-02, -3.2428344984127067e-01,
          3.4002281821045387e-02, 4.1468197705656823e-01,
          -8.3937595133126575e-01, -4.0086957475865603e-01,
          2.1700660647544126e-02, 2.9751711627298810e-02,
          2.1726424659635973e-01, 1.1946305917165133e-01,
          1.2160954412382483e-01, -2.7756716169929779e-01,
          3.6415362742972412e-01, 3.9989381878871022e-01,
          -5.4547259249676596e+00, 3.7151269824733202e-01,
          1.1645673312590467e-01, -1.8999242465246213e-01,
          5.4211164914391052e-01, 2.4505502558600589e-01,
          -1.1099648052038222e+00, 3.5142695744409375e-01,
          -3.3340219114174857e-01, -1.4777804421707000e-01,
          1.9230973971960044e-01, 3.0551295305016557e-01,
          4.5018730126607638e-04, 1.9287149372860715e-01,
          -1.7071514882738195e-01, -6.7636728548639502e-02,
          -7.6255659775107931e+00, 5.6037609520101062e-02,
          5.8371019480888797e-02, -2.8907341646212537e-01,
          7.8113071812718149e-01, -6.7544439000739698e-01,
          -6.9143354702338622e-01, 6.4495310413570994e-01,
          2.1545260232997054e-01, -1.6490348345028721e-01,
          -1.0697602894664712e-01, -2.3812972148330838e-01,
          4.5269944341005508e-02, 1.2899313307544361e-01,
          -3.7372507712581432e-01, -4.9062096295333806e-02,
          -6.7768042666470985e+00, -3.7564135676242377e-01,
          2.0430049887477569e-01, 5.0674658162388246e-02,
          3.5840388868683992e-01, -3.4612593757146881e-01,
          -7.3893930024249410e-01, 3.0800462129805106e-01,
          7.4205561620367544e-01, 1.1970439667326212e-01,
          -2.4688496550020952e-01, 3.3315124854744665e-01,
          2.6670357886480339e-01, -8.0980738693751952e-04,
          3.1439222351424358e-02, -3.7417449063486813e-01,
          -6.0526409756769644e+00, -3.9060912656316232e-01,
          1.0915201209743883e-01, 5.7092547381130385e-02,
          1.0929936566274892e-01, -4.2560284866118464e-01,
          -3.6961616194754038e-01, 3.5300842121123943e-01,
          2.0104568558869720e-01, -2.7046263701723233e-01,
          -5.3422267645430976e-01, 1.9477523498355215e-01,
          2.6617193789539091e-02, -1.5976076476613243e-01,
          -2.4477963217891097e-01, -2.2238154258455659e-01,
          -5.6365262271332881e+00, -5.4679836654307279e-01,
          -2.0633534721931548e-01, -1.7739471019874917e-01,
          2.6632029007984237e-01, -4.2761883195458916e-01,
          -3.1136635627139347e-01, 2.9921342339159451e-01,
          -3.6087922513335660e-02, -3.9841126495498153e-01,
          -2.9094411319990016e-01, 2.5826278960126153e-01,
          -6.9200142611716767e-03, -7.0440164003813133e-01,
          -4.3753511880455886e-01, -5.9830628275952491e-01,
          -7.9955535423523099e+00, -1.6858339046733048e-01,
          -2.6792518261098180e-01, -1.1646047241956732e-02,
          -3.0610977566403963e-01, -6.9199127763486923e-01,
          -2.7357836102611921e-01, 1.8852270894493631e-01,
          2.0085740386639919e-01, -6.6359912874267390e-01,
          -7.7622418747669608e-01, 7.5945625809718542e-01,
          1.2169921372434234e-01, -6.2559582011500137e-01,
          -3.7428643691285707e-01, -3.3694671244071972e-01,
          -9.3762031600901032e+00, 2.6474246790976652e-01,
          -4.8029778289750574e-01, 5.7432678406559155e-02,
          8.7434465750753576e-01, 2.3739695846226941e-01,
          -5.5269090099891194e-01, 3.3479686722487495e-01,
          5.5894285904809327e-01, -3.6189026461687890e-01,
          -4.8029121354720977e-01, -1.0185847447552561e+00,
          1.5397110322257029e-01, -5.8233405686792616e-01,
          -7.6396620320937092e-01, -4.5424982188890123e-01,
          -6.1856575915316858e+00, -2.6440715668201054e-02,
          -5.6068494892891141e-01, 6.3632161641148460e-02,
          5.2309288204141835e-01, -4.6408107181851327e-01,
          3.3446333220550684e-01, 7.1218209325221016e-01,
          2.8298227553821986e-01, -2.2080735935964510e-01,
          -4.7414588456859208e-01, -1.2150707426446363e+00,
          3.3191239390212712e-01, -1.6997060033211361e-01,
          -5.6665700740770963e-01, -1.6177890761391742e-01,
          -2.2992741471122167e+00, 2.6209846412726201e-01,
          -5.9945160623844918e-01, 1.2772307254225551e-01,
          8.9123542662596744e-01, -5.1928536790025082e-01,
          -3.6685707214595403e-01, -5.4501268627413324e-01,
          -1.6918256048671718e-01, -5.2235566731039107e-01,
          -1.1910902578811638e-01, 3.5618956423809051e-01,
          4.1722978003934030e-01, 1.2295233890456777e-02,
          -2.5164038738562738e-01, -6.5748591792701994e-01,
          4.2186217977489386e+00, -1.2723056782429770e-01,
          -7.0040629067435656e-01, 3.7902913493712248e-01,
          2.4608594052377392e-01, -4.5000591785202333e-02,
          -1.0587221840762608e+00, -5.5201303965399806e-01,
          6.1479374211550508e-01, -5.8788250091510053e-01,
          -2.2529940142138441e-01, -1.6246305555932461e+00,
          4.2002170013019480e-02, 5.1739070671509768e-01,
          5.7293206005922193e-01, -5.3221294884804737e-01,
          2.3298685620920576e+00, -3.7377209587031229e-01,
          -5.7609084818242651e-01, 7.4275880005892053e-02,
          4.5024221229732958e-01, 4.8300627122077847e-02,
          -3.4447008349933739e-01, -4.9889977724126178e-01,
          7.6961397568534692e-02, -2.8769867169579633e-01,
          -5.0874558150352722e-01, -2.0164370142664520e-02,
          1.2027173012664737e-01, 4.5188422172438103e-01,
          5.4752047967550599e-01, -4.7090550850287871e-01,
          9.0248213079082074e-01, 4.5997670436999738e-01,
          -5.1806256906429671e-01, -9.0348733154877025e-03,
          3.0210820831849311e-01, 3.0363590114993572e-01,
          6.5048467309946323e-01, -3.9941887418384192e-01,
          -3.9891083367378705e-01, -1.4405006623604003e-01,
          -5.4715928814940640e-02, -1.5421602869889717e+00,
          2.8852090604422814e-01, -2.6657232978348022e-01,
          2.6759890283981358e-01, -1.4599721101222249e-01,
          -4.1139955033344211e-01, -9.8902290310402489e-03,
          -1.8935591415780342e-01, -1.0206413206757905e+00,
          -4.0972401068652481e-01, -1.9084585161773909e-01,
          -4.7337727025461512e-01, -7.1393593711069958e-01,
          -3.2771552457697617e-01, -7.5003887549252501e-04,
          -2.4141654864615500e-01, -2.8812226363922866e-01,
          -4.2791926712367301e-01, -4.9353746092039151e-02,
          4.8723978839083132e-01, 5.2919855935269856e-02,
          1.1013858105931302e+00, -2.3403194287186666e-01,
          1.8712075021182037e-01, 3.8726490594808849e-01,
          9.9413946165003958e-02, -7.6673825282470287e-01,
          -7.2034180228277900e-02, 1.5543827519497894e-01,
          -1.9890879246578705e-01, 2.8447751891813672e-01,
          -4.9972137150567492e-01, 8.1631269188981406e-02,
          -5.0438759108356335e-01, 7.5444238178147283e-01,
          -1.2890198197006950e-01, 1.0102719454373714e+00,
          -5.1548788384458346e+00, 3.3633882828358025e-01,
          4.9344838827004639e-01, 8.5897324913358297e-01,
          6.8521532737926316e-01, 5.4068449767822380e-01,
          -1.1876045457404909e+00, 4.4828226859070647e-01,
          2.8009894299193344e-01, 7.6876917382566701e-01,
          6.6851043666554158e-02, 1.1002455006879859e+00,
          -5.9735404054557539e-01, 7.5747211837425277e-01,
          3.7827848191241731e-01, 1.9169147795422586e-01,
          -3.5499948478244048e+00, 8.1893751878940088e-02,
          -5.9534342722653544e-01, -3.6156034496033052e-02,
          8.7088627989336337e-02, 5.4936551289720748e-01,
          -1.1476491051712208e-01, 4.3728538680682871e-01,
          1.3658847770455376e-01, -6.2860605269113334e-01,
          1.4840117111561524e-01, -3.0648037713950460e-01,
          -1.0246093189496881e-02, 3.5000413901160732e-01,
          1.9806808266110215e-01, -1.5891898296609414e-01,
          -6.8742095737258859e+00, -4.4917075151145691e-01,
          -3.1366238424016429e-01, -2.9453684247488493e-01,
          4.6944619146433936e-01, 1.5650137067610956e-01,
          -3.2430089131537898e-01, 6.7505873356336821e-01,
          -4.2619099457851778e-01, -9.3447258395203603e-01,
          1.1994839779269657e-01, -1.1591230097838302e-01,
          5.1425488131135013e-03, 1.5595591835963057e-01,
          -4.5137401927407989e-01, -1.2645520597377796e-01,
          -6.3003264964671661e+00, -9.6157879494525492e-02,
          -4.2192411700380528e-01, -2.2100880342056411e-01,
          3.9848103636734067e-01, 6.5593420488055165e-01,
          -9.5395696901581517e-01, 1.7154519116974635e-02,
          1.4016792158414465e-01, 8.6112777603929332e-03,
          5.8876552758536982e-02, 5.0416607592126883e-01,
          -2.7240657732420692e-01, 6.0240461979165164e-03,
          5.8743752426300644e-02, 2.0560003866177717e-01,
          -3.5874646146595262e+00, -5.2304706511724294e-02,
          -1.9473082521792884e-01, -2.9459645899899606e-01,
          1.6305534199656743e-01, -2.3662628978779451e-01,
          -6.8537917109576318e-01, 4.3061516154128260e-02,
          1.4009041314155608e-02, -6.5232861791117747e-01,
          -2.5192776367391068e-01, -1.4559878884268385e-01,
          7.7569491281384628e-02, -4.5358325401907112e-01,
          8.7552293298434225e-02, -6.5628445438880734e-01,
          -4.0512767855554932e+00, 6.8611348457422713e-02,
          -1.1864570776944826e-02, 6.4574593997537497e-02,
          6.9267413441350401e-02, -7.8323329269504016e-01,
          -6.8822058057869473e-01, 3.4259657089551177e-01,
          -5.1734045305674492e-01, -1.0071587612460557e+00,
          -4.9885504968421601e-01, -5.4591521037870272e-01,
          3.0206908129321636e-01, -4.2508659381810576e-01,
          -9.4400421450968705e-02, -4.6220544519795342e-01,
          -4.3757850883558627e+00, -2.7514670428089827e-01,
          -1.1066207319747362e-01, 3.4299526791515711e-01,
          5.5481686823285459e-01, -5.3259818893989064e-01,
          -1.1749610510659023e+00, 1.3665058541023176e-01,
          2.5163131660174781e-01, -5.1763333989253624e-01,
          -4.0808208347453928e-01, -7.9655339843847850e-01,
          4.8733060814713547e-01, -1.9245396992627516e-02,
          -2.1607566044900284e-01, -5.1290242768920291e-01,
          -3.8762134815974703e+00, -2.4545675936456512e-01,
          -1.6051760384112534e-01, 7.1456844646103257e-01,
          6.3585319469247059e-01, -2.2474320685127674e-01,
          -1.0136014240715363e+00, 5.1250832307731509e-01,
          -1.0315508370396467e-01, -2.4885279629255008e-01,
          -2.4635190916046840e-01, -5.1377561361135093e-01,
          3.2374503017662121e-01, -1.9092735922885271e-02,
          1.5294738969997182e-01, -4.8990474668085965e-01,
          -3.9706179527117458e+00, -2.0963715594945628e-01,
          3.6558382938424824e-02, 6.1201754603995939e-01,
          5.5484111073060543e-03, 1.3365079576847269e-01,
          -4.9913215123328109e-01, 1.5990461656813817e-01,
          1.5475465074558073e-01, -3.4320787199229030e-01,
          -3.4121016165562473e-01, -5.6481634623052235e-01,
          1.2063159813404940e-01, -1.2202711721114213e-02,
          -6.6692319069389357e-03, -1.8069855126507275e-01,
          -5.7546853264661175e+00, -3.2004548425211898e-01,
          -1.7867518063071111e-01, -3.1148951749919194e-02,
          2.1913886717929393e-01, 1.2190805644213038e-02,
          -6.8112296797597638e-01, -3.1542065748808051e-02,
          2.5006773331551635e-01, 4.3628457503423806e-01,
          -8.1534223455459451e-02, -4.0242102388701367e-01,
          1.6243989771980993e-01, -5.5266263206653321e-01,
          -4.5835501488226549e-01, -5.5441581483236713e-01,
          -7.4800003844939127e+00, -3.6136644197391254e-01,
          -2.4390735917256889e-01, -7.1270053436079794e-01,
          2.8876965668905807e-01, 2.7064721510430056e-01,
          -1.9559394211961623e-01, -1.5669424554162872e-01,
          2.9551914577930022e-02, 3.7973499386598869e-01,
          -2.9801839991234348e-02, -1.1934229192517425e+00,
          1.7311172301682254e-01, -2.4259425961510306e-01,
          -6.3257698353151726e-01, -1.4540384352516397e-01,
          -1.9266583041816303e+00, -7.3520206376152142e-02,
          -2.8841570975689829e-01, 1.2130335610195222e-02,
          3.1597943300009995e-01, 1.1056010965008227e+00,
          -1.3004043698860355e-02, -3.4635557854972154e-01,
          -8.5788975529246150e-02, 4.2859782510690343e-02,
          -6.7903640304327476e-03, -6.3282279605734304e-01,
          -4.8022264458110492e-01, -2.7009523893643494e-01,
          2.0156693925797491e-02, 4.4260992084630374e-01,
          7.2888080450313133e+00, -2.1652740037201643e-01,
          -1.0480561649581428e+00, 2.0753834077734948e-01,
          3.7610719409079840e-01, -2.5265150881683357e-01,
          6.0025441348293844e-02, -7.5751551124316385e-01,
          5.8945045029079401e-01, -8.9272197775542017e-01,
          2.7683874171908840e-01, -8.5051689235011774e-01,
          -1.0314657049539040e-01, 7.3425704106465806e-01,
          2.7584535388816939e-01, -1.5639796499402206e-01,
          3.9897082376879021e+00, 2.8799398500883683e-01,
          -3.9851606085458707e-01, -1.2384488638982603e+00,
          1.0367739801717697e+00, 1.1255107126201040e+00,
          1.4421044478080022e-01, -5.3451221837406782e-01,
          2.3541823483552909e-01, -9.2036217532538878e-02,
          2.0683443337177718e-01, -1.0126808929036249e-01,
          3.3201448393504397e-02, 6.7252829278678941e-02,
          3.3765249870639696e-01, 1.1926079839160791e-01,
          -4.2944432651932551e+00, 2.2780115267678611e-01,
          -1.7400932365378449e-01, -2.1634274287848718e-01,
          4.1135276268494531e-01, 9.3926308428598324e-02,
          -9.4293279092428595e-01, -4.1737692681434746e-01,
          1.3547290009296267e-01, 2.6234399587016163e-02,
          -2.4430447813591438e-01, -5.9227204833127634e-01,
          -2.4818603053390012e-01, 1.4586329763466760e-01,
          -2.0254316480126816e-01, -6.9905934475119424e-01,
          -4.9181474724411096e+00, -6.7701504515935429e-01,
          -1.8024962027572099e-02, 4.1514450482984633e-01,
          -3.2916039225880495e-01, -2.6361433814454621e-01,
          -8.2154927473117356e-01, 1.6625179882608068e-01,
          1.9375501205514858e-01, 5.1227687008909917e-01,
          -4.1272121133551093e-01, 2.7387847617818617e-01,
          -5.7846795750405222e-01, 3.3247799970720837e-01,
          6.1875813922859263e-02, 1.0575239366046138e-01,
          -5.7352221348636983e+00, -5.0934668147232443e-01,
          -2.7768368044038277e-01, 8.4991921935204343e-02,
          -3.4823981678580329e-01, -7.9314008940128378e-01,
          -4.9624554077211736e-01, -1.4239404411294534e-02,
          3.0648918592106650e-01, 1.4291148917141103e-02,
          -7.5047221502285988e-02, -1.3141956779910202e+00,
          1.2136559604292987e-01, -4.2299734460932753e-01,
          -9.2147634948134799e-02, -5.3916478903189691e-01,
          -7.0641904040537167e+00, -1.9259357717405917e-01,
          -1.9601527808721103e-01, 2.3702034174133156e-02,
          -1.7901943279094254e-01, 1.5771411422173812e-02,
          -3.1849425330038157e-02, -1.3920411427218293e-01,
          -8.4862928931266818e-02, -5.9403951257154541e-01,
          2.0661609781810062e-02, -8.1205367372606330e-01,
          6.2824629214572700e-02, -2.3289996388346268e-01,
          -1.0252177972193677e-01, -6.2035229965549776e-01,
          -6.0672270126547145e+00, -1.0565839780621657e-01,
          3.3923799497226570e-02, 1.6452275640425648e-01,
          1.5546792177360441e-01, -5.9049971531532142e-01,
          1.5177097608111647e-02, 2.3994102911160795e-01,
          -3.9979301074513446e-01, -2.1904694047960413e-01,
          -1.8419641888923641e-01, -4.7117442948272209e-01,
          -4.5791636524642611e-02, 6.1833172841607074e-02,
          8.8907395428494771e-03, -7.5477873101753890e-01,
          -1.1840324803467073e+01, -9.3949124669265999e-02,
          -1.7287093999556960e-01, -8.2889893618112309e-01,
          2.7338503286517502e-01, 7.4929348664739082e-01,
          -2.1048587060362747e-01, 7.6797279125407336e-01,
          -1.3353512288640351e-01, -4.1368858075073534e-01,
          -4.8291542508740834e-02, 5.3973310426871179e-01,
          -2.1351245422361196e-02, -9.6309192339778926e-01,
          -7.6576047089465624e-02, 1.7894568637505490e-01,
          -1.0654493529299630e+01, -2.3204677815934202e-01,
          2.7915085560285730e-02, -3.6503995739669781e-01,
          -9.2910667376560341e-02, 2.5570850595276511e-02,
          -3.2695347975421085e-01, 4.3759867963174026e-01,
          6.0276870868936454e-02, -3.7850089866891368e-01,
          -2.5249712450426814e-01, 7.2266099248075577e-01,
          -1.2070117804130071e-01, -5.5048032840299654e-01,
          8.5123938590124890e-02, -1.1930370123822903e-01,
          -9.4039913205405963e+00, -1.0357917387825409e-01,
          -6.7756660110821015e-02, -3.1101572516678183e-01,
          -3.5973783324673053e-01, -7.9899445014021431e-01,
          -2.6150539815085477e-01, 1.1906495343324390e+00,
          -1.5582306932335210e-01, -1.0778065625126405e+00,
          9.7983871413026710e-02, 6.8412753047474428e-01,
          1.5700471662400775e-01, -1.3458023598118041e-01,
          1.1439933631451800e-01, -2.6310905869626866e-01,
          -7.7468120102528362e+00, -2.1244318647938865e-01,
          -9.0600710580427384e-03, -6.2676450991576982e-01,
          6.1402942644828851e-01, -2.6874411683187943e-01,
          -4.7483211559448552e-01, 8.7843904377189774e-01,
          4.8939629338314516e-01, 3.8698074895586548e-01,
          4.0582211544925757e-02, -1.0356408599535816e+00,
          8.0318031008149193e-01, 2.8117432682097343e-01,
          -2.7879774030424409e-01, -2.3054244413222024e-02,
          -6.9407404189360724e+00, -2.7165660644564521e-01,
          -1.9631691484339134e-01, -6.4111685575506927e-01,
          5.9189738531170133e-01, 9.5962557236355106e-01,
          -4.2855020089941624e-02, 6.0019381967597929e-01,
          6.0198659760718998e-01, 1.2408392350726848e-01,
          -2.9820323945060534e-01, -7.7485080512934379e-01,
          4.2435726832777465e-01, -7.8041302070342516e-02,
          -1.4745735605446978e-02, -4.6133540751088636e-02,
          -3.7496552187257577e+00, -4.4209180882345511e-01,
          4.0021059672170393e-02, 2.7475751819391525e-01,
          9.3268682644598055e-01, 3.1597676179589879e-01,
          3.7017896521501137e-01, 1.4499542993888898e-01,
          -4.4681258675284935e-01, -4.1544008309042402e-01,
          -2.7767841404155907e-01, -1.9024594778300771e-01,
          2.0947997328288412e-01, 5.6878562822655987e-01,
          3.6987907929457547e-01, -2.4706343553911359e-01,
          -8.4647872206121511e-01, -3.3227400963405845e-01,
          -5.7979252208488832e-02, 3.8333191338980782e-01,
          3.7427762816756405e-01, 8.5580580177542775e-01,
          -1.8498418788328005e-01, -3.9330995226940979e-01,
          2.7840065573417150e-01, 2.2448815024589483e-01,
          -6.9060238672525837e-02, -4.7666859225726810e-01,
          3.8995534538105336e-01, 8.6694068494323054e-02,
          -2.4677072598693131e-01, -3.7200895443162280e-01,
          -1.4195179787017624e+00, -3.5844165787823129e-01,
          -1.5506446503371607e-01, -1.8767065762557858e-01,
          3.6758129707396593e-03, 1.6852661729364493e-01,
          2.7425813880938960e-01, 2.9974030526210582e-01,
          -8.2286924473932113e-02, -1.4489457892598182e-01,
          1.4881780394017149e-01, -1.9730415859288419e+00,
          5.5725452035255564e-02, -1.5246131349213823e-01,
          -2.4724036696783816e-01, -2.1081482445482896e-01,
          -6.4318660589003578e+00, -2.7606433120030122e-01,
          -1.1430232633899069e-01, 1.6686763507509283e-01,
          4.8520088443033738e-02, 1.8094297838881140e-01,
          -4.8971550163208102e-02, 2.7669157653030191e-01,
          -1.9399291838521840e-01, 3.8022711996450555e-02,
          -3.3437716310988436e-01, -9.6861530352838143e-01,
          -4.3337507474204777e-02, -4.6534418599116040e-01,
          -4.5147484783360103e-01, 1.7514823718772574e-01,
          6.6768746741930141e-01, -9.9901831662355910e-03,
          -2.3399175859873392e-01, 4.7968553713903939e-01,
          -6.6045487832034522e-01, -8.1271944228031445e-01,
          -4.2766537309873551e-02, -3.4107221516072677e-03,
          -8.8553091687023078e-01, -8.4650427598629285e-01,
          8.9585228595308558e-04, -1.1592009932889904e+00,
          -2.5002634344795660e-01, 2.0686788778081905e-01,
          -6.4930693432377218e-01, 4.0643225922247600e-01,
          7.4955218864056752e+00, 3.7657079906030527e-01,
          -2.3791260826975047e-01, -5.7987353818428089e-01,
          5.8214986773236321e-01, -1.4121060148265566e-01,
          6.3217241105085931e-01, -7.8717389341246302e-01,
          -4.5059381279849313e-02, -2.7154941594595927e-01,
          -4.5930926363649600e-02, -4.8715154655737780e-01,
          -3.9181549689743234e-01, 6.5162352575560989e-01,
          6.7674581711874127e-01, 2.5115069660220041e-01,
          -5.1772618858508306e+00, 1.5722963918502991e-01,
          -7.0503315920066048e-02, 5.0460323095616905e-02,
          -1.1260813334770194e-01, 3.5087861844667462e-01,
          -8.6517652295857472e-01, 1.0664810162539777e-02,
          8.8353988600088984e-01, 4.6533986359350910e-01,
          -1.5815177360466655e+00, -1.0921071845784223e+00,
          -1.1977248578073509e-01, 3.4674242279870160e-01,
          -1.9198780241885618e-01, -8.6180397064696557e-01,
          -4.6148551057190135e+00, -4.3920842559168305e-01,
          -5.8199596240807550e-01, 7.6038093003676907e-02,
          -8.3055351405723798e-01, -7.6571882953087789e-01,
          1.3451074654623937e-01, 3.8553363354178610e-01,
          -2.1365383500151131e-01, -2.9012120658743902e-02,
          -6.7011299164110982e-01, -8.9281331087653060e-01,
          4.0177541859261277e-02, 4.6522551470964478e-02,
          -2.3177622025357469e-01, -1.0252044812543222e+00,
          -8.1114062833999316e+00, -7.0648669773839745e-01,
          -4.2900199873707534e-01, 1.8475918497958030e-01,
          -1.7465804175187175e-01, -5.9890885533800375e-01,
          -9.7467539216640239e-02, 8.0716552176652204e-02,
          3.0281825943290464e-01, 2.2330926113178624e-02,
          -6.3243407064765722e-01, -7.3473841667153247e-02,
          1.4961763944402537e-01, -6.5165881534688697e-01,
          -2.0982170825559993e-01, -4.5891870630271175e-01,
          -8.8111157892275820e+00, -6.0645476123767672e-01,
          -2.9817205157552273e-01, 2.3150179781783484e-01,
          3.7129952421268458e-01, 3.2261866106548148e-01,
          -4.2100735328017769e-01, 1.6168683318155019e-01,
          -7.5871008077591532e-03, -1.8267770381915115e-03,
          -6.2934145064902902e-01, 3.3221413252928339e-01,
          9.4480445551164333e-02, -5.5347661778335666e-01,
          -3.0126229293590184e-01, -1.4784581434248474e+00,
          -6.2150233814553619e+00, -1.6563744501559632e-01,
          -9.0559516028441301e-03, -2.1359773227632148e-01,
          -5.5042117569256166e-01, 1.0422607255890561e-01,
          -1.5462090349061777e-01, 2.0806316426103710e-01,
          2.6283465275417611e-01, -3.8707641771914825e-01,
          -5.3975179750847446e-01, 9.0559699456259968e-02,
          1.9349527166502178e-01, -8.1051534793271396e-01,
          1.1879342843228982e-01, -5.4139770307914648e-01,
          -1.0677191086278656e+01, -4.0787755740452930e-02,
          3.9633925030452249e-01, -2.5692339688519722e-01,
          3.0040442631925091e-01, 4.5964634242105096e-01,
          6.1784767838169732e-02, 8.4095078719434863e-02,
          4.1809477291450664e-01, -2.7304018935984758e-01,
          -2.6797896802255811e-01, 7.4902555101186138e-02,
          1.1380165204903954e-01, -5.3399198401751236e-01,
          -3.4868453308978875e-01, -4.3933534349422165e-01,
          -6.8908906248295647e+00, -4.8417505876492944e-01,
          -1.2654209138367692e-01, 2.0210873173481561e-01,
          6.3118221800930588e-02, 1.5202506223293156e-02,
          -2.2976804649347668e-01, 8.5129008118062198e-03,
          3.0236313661580555e-01, -9.4871263083512747e-01,
          -2.9656169472281019e-01, 5.3521185938641913e-01,
          3.5014416594038120e-03, -1.3971406896802319e-01,
          -3.6919958139377165e-02, -9.7450164098871439e-01,
          -5.1486686685498562e+00, -1.5240736032676211e-01,
          -1.8766371550854269e-01, -1.9860906145491125e-01,
          -1.7781686739640951e-01, 1.1706071127707728e-01,
          -6.3260227420616866e-01, 2.1309730030826204e-01,
          4.3128622326260435e-01, -4.4555578088789244e-01,
          -8.5069598654793643e-01, 5.0256856727792776e-01,
          5.6066671164246878e-02, -2.2125123739319516e-01,
          -9.3562175994439056e-02, -8.1050746012289698e-01,
          -1.0442125038068584e+00, -5.0187407100686554e-01,
          -2.0289121773320495e-01, -4.9449251271840095e-01,
          5.9711811349257149e-01, -2.3433181019354304e-01,
          -7.8138640275455085e-01, 2.4754069121944000e-01,
          -1.8427807057011975e-01, -2.8876177889126875e-01,
          1.8073949969469125e-01, -9.2962971974065289e-01,
          -9.6555746393450298e-02, -2.4206826551094865e-01,
          -1.0314312253725497e-01, -5.0257154221339528e-01,
          -3.8197062693620549e+00, -4.0111551513705163e-01,
          2.1519795213278511e-01, 1.7888580470477544e-01,
          7.1799429054916583e-02, 6.6250875229714223e-01,
          2.6872503214383198e-02, 5.1457422743838421e-01,
          9.8376566269160165e-02, -5.0566297474816235e-01,
          2.8442726253918243e-01, 1.0024636687620596e-01,
          -4.3347657775887741e-02, 9.4610924293460755e-02,
          -2.6557027907531966e-01, -5.0913509981108607e-01,
          -4.7083356477210287e+00, -3.5306158002002147e-01,
          -7.7821925316449034e-02, 2.8092903279845166e-01,
          -3.8104017662786671e-01, -7.2088161775881426e-02,
          2.7830699672217440e-01, 5.3250854023136807e-01,
          -3.5981575860482257e-02, -1.1632442473015705e+00,
          -1.5216484103770817e-01, 7.1024458715415004e-02,
          2.6584031703230193e-01, -1.7146047286365215e-01,
          -7.0071931464358042e-02, -5.0871107401714832e-01,
          -8.3468824187097699e+00, -2.0658907096857909e-01,
          7.2149232828275844e-02, -7.3941827165505125e-01,
          2.0009683902727901e-01, 7.0794311625399131e-01,
          -4.4840216209501377e-01, 7.1179791105445783e-02,
          -1.7205820393148152e-01, 1.0621783611708721e-02,
          -5.9125582700191692e-01, 1.2815879625564270e+00,
          1.8525019313969163e-01, 1.9181102903656105e-01,
          6.8105150958960428e-02, 1.8465880267861776e-01,
          -3.2136076828033495e+00, -8.3526362014270128e-01,
          -1.3051904601990541e-01, -5.2242564724933507e-02,
          3.3709589934681811e-01, 5.3793087720056276e-01,
          -3.2157296396669900e-02, -4.8044416688583780e-02,
          -2.5985001229630292e-05, 4.1593630136857407e-02,
          7.2207439869173967e-02, -6.8289652657879274e-01,
          2.3363957258385656e-01, 2.0148714849189336e-01,
          -2.7959900674322032e-02, -4.1495470746806323e-03,
          -3.6336176389286186e+00, -1.1346081725565879e-01,
          -2.2142869275738854e-02, 1.8956164933940983e-01,
          2.2906804987209253e-01, 3.9040021729829494e-01,
          -6.2798796952488856e-02, 2.4954620735103722e-01,
          -3.8158967268355759e-01, 1.3042092781380346e-01,
          2.7771551731784744e-01, -9.9003808737651477e-01,
          -4.5721585666037329e-01, -1.8253872060197607e-01,
          -2.4138767988568227e-01, -1.8987641526500321e-01,
          -3.3709866466205334e+00, -2.3628347156860383e-01,
          -1.1367737809905877e-01, 4.2034046717349816e-01,
          1.4741342001416688e-01, -5.2503911490037314e-01,
          -3.9478219093145486e-02, 4.2255512653709060e-01,
          -2.0988238293905198e-01, -7.0258218206860190e-01,
          2.5345267442542840e-01, -1.6470575771711213e+00,
          -4.2635253300638234e-02, 2.6650548226469600e-01,
          -4.0520570613055673e-01, 4.5859126081195717e-01,
          -2.0527642183366526e+00, 6.9300234961177054e-01,
          2.2113157490269489e-01, 3.4649921725582850e-01,
          3.4439773007401496e-02, -2.8999230843886892e-01,
          -1.8171156603154093e-01, -4.8259666841613959e-02,
          -7.8490124821214846e-01, -4.9802923026615975e-01,
          1.1173024403260315e-01, -1.9280659929735142e-01,
          4.9402142412264712e-02, 1.9773594975692599e-01,
          -4.8868642692518077e-01, 6.9964998244519694e-01,
          -8.3244600333402925e+00, -1.0717106822814650e-01,
          1.7461661061215969e-01, -4.3146639159258893e-01,
          8.5299127660633545e-01, 5.5951242388522959e-01,
          -8.1786131399662632e-01, -4.7813773388077735e-01,
          4.2797278706478525e-01, 6.2675839559910829e-01,
          -4.6452866126942138e-01, -1.6308052859253352e+00,
          1.3516974109486937e-01, -8.8638893576051078e-02,
          -1.2902366353716271e-01, -3.4167337542666187e-01,
          -6.9732777192861635e+00, 1.1338445261580811e-01,
          -2.8706477059137281e-01, -3.4103601461179683e-01,
          -7.6334229783053387e-01, -7.3582288405687379e-01,
          -3.8415640835843318e-01, 6.5154925975186750e-01,
          -3.5612794084504773e-01, -1.8573791297285125e-01,
          -3.7949660425741222e-01, -8.8657112497930690e-01,
          -4.0842615721714624e-02, -5.5312695695177472e-01,
          -7.1093665307238874e-02, -1.1306437769828601e+00,
          -7.9323171060938407e+00, -3.2147285233930412e-01,
          -3.3527279133433535e-01, -3.4025842748115404e-01,
          -1.3373482733866715e-01, -8.6916783836775247e-01,
          -4.0661052785516121e-02, -3.1015042836274392e-01,
          7.1035228875829293e-01, -7.4323744067316164e-02,
          -7.9094036385569044e-01, 1.2941896057532483e+00,
          2.9950122503501647e-01, -5.3714641370882277e-01,
          -3.1541011868845552e-02, -9.2764079699612390e-01,
          -1.0451228729509948e+01, -4.7034058915606403e-01,
          -2.7957527031218743e-01, -1.2657333968092624e-01,
          -2.5606798942974490e-01, 4.0144654970964183e-01,
          -6.1898949887984896e-02, -7.4467582548552822e-03,
          -2.6891007069532787e-04, -4.5917070974937663e-01,
          -4.0903520886937550e-01, 9.5036192473863068e-01,
          9.7016279314274520e-02, -3.9557052266208002e-02,
          -2.8809820350390319e-01, -3.5667101405693358e-01,
          -4.0878568382725557e+00, -2.3358890173227970e-01,
          2.1134986566550704e-01, 3.1446358310518385e-01,
          -7.4988806664335342e-02, -2.7872519830453485e-01,
          2.4621307139348977e-01, -1.0224715153972226e-01,
          -1.3089163176933369e-01, 6.2300042725284244e-01,
          -5.9264643543535234e-01, -7.1481850178009024e-02,
          1.4734704719275343e-01, -2.6247759581624935e-01,
          -4.7765179706430905e-01, -2.7425508769188711e-01,
          -7.5739719488423374e+00, -2.8452612471311728e-02,
          -1.2956712592419792e-02, -2.8145347447542263e-01,
          -6.5723727374568819e-01, -5.0251962130019963e-03,
          1.7313559392388114e-01, 3.3246683304538927e-01,
          -1.5998437253039757e-01, 4.0152382821775728e-01,
          -1.6203406591450970e-01, 6.9246369390970675e-02,
          -3.2661564641034280e-01, -4.9696635325030614e-01,
          7.9182327804286495e-02, -3.9219723520806277e-01,
          -2.6193540401793922e+00, -1.7146753628056749e-01,
          4.9949688850990784e-02, 4.2149193675620017e-01,
          -2.3785565037185205e-01, 1.7373415255354744e-02,
          2.2299718487151771e-01, 1.7323480692542420e-01,
          -1.5639962300413804e-01, 8.6743978456470333e-02,
          -9.3945012747839979e-02, 1.6564589401594462e-01,
          -6.5855507397891344e-01, 3.0204081147778139e-01,
          4.6633703713508273e-01, -3.5535397873312885e-01,
          -6.9297692311862313e+00, -5.5432181376580614e-01,
          1.5237682323115129e-01, 9.1757187189037148e-01,
          3.4704656883668433e-01, 6.1755825162098588e-01,
          2.4570493013063738e-01, 3.1519234505709498e-01,
          -3.2101450893975536e-02, -2.7917306316667195e-01,
          -1.3204253624943461e+00, 3.0716903777154105e-02,
          -1.3700910591459456e-01, 2.4285953367183183e-01,
          -1.8420253375815604e-01, -2.0890794297693505e-01,
          -9.4824740689329197e+00, -1.8498905057345102e-01,
          1.4562048311976003e-02, -1.4119047458693415e-01,
          3.4698020127757800e-01, -6.9378372674112576e-01,
          -2.4133233058285886e-01, 4.5772524954224431e-01,
          6.2236136065352898e-01, 5.8331050315188981e-01,
          -2.5185746930164010e-01, 1.0025734371760815e-01,
          -3.6175964863655552e-01, 2.0373707262531285e-01,
          -1.4031186598443557e-01, -3.2626091048906197e-01,
          -5.4156021691033400e+00, 2.3223162394308727e-01,
          -4.8429292581242560e-02, 1.2828334120834416e-02,
          -2.1672154105872085e-01, 4.5380743913749751e-02,
          -8.1109220165413132e-01, 1.5489266104293045e-01,
          4.2705609997672406e-01, -2.7701237031077486e-01,
          6.3649621569986370e-01, 4.3040462916867389e-01,
          -5.2393209300887776e-02, 8.4072379945318715e-02,
          2.2346285989795378e-01, -1.9209203897321522e-01,
          -2.6190778372890628e+00, -1.1981070891165214e-01,
          1.5131540731669607e-02, 7.0182523696904225e-02,
          1.7558320154970924e-01, 5.8793435015682227e-01,
          -1.3907946339580890e-01, 6.0137243457246847e-01,
          3.4591168752781424e-03, -8.2300205610712385e-02,
          2.8494511312894655e-01, -1.3508115615823043e-02,
          6.9954373129218331e-02, -1.1456366336104135e-01,
          -4.3681408835445537e-02, -8.6133158587249314e-01,
          -5.5180915386239011e+00, -2.9418121288560051e-01,
          4.9406169522258146e-02, -6.8447130825836666e-01,
          1.6238038535196450e-01, 5.3849200317653251e-02,
          -3.3403924070072616e-01, 2.6152986566395564e-01,
          -1.2240066241227326e-01, 2.0548235743318538e-01,
          6.6951339091560491e-01, -2.1877922905355326e-01,
          6.2832617581075792e-02, -4.3939053841344305e-01,
          -2.2944857177942016e-01, -2.0316411782518215e-01,
          -6.3656576368717355e+00, -5.5104825502755150e-01,
          -3.8118533185271247e-01, -1.0973337511961902e-01,
          5.1569341648921985e-01, 3.7139219431977116e-01,
          -5.1499544488126703e-01, 3.0970852824724115e-01,
          2.0500829797637194e-02, -1.5711297856691811e-01,
          -5.5730869534124441e-02, -4.7754819689694437e-02,
          4.7008253983979904e-02, -4.0489470848239856e-01,
          -1.9193126095493457e-01, -1.4403561013108562e-01,
          -3.9079070884869296e+00, -3.5607780640205405e-01,
          9.0080657443177711e-02, 7.6632166783030489e-02,
          3.3051342138945861e-01, 5.2465764697223383e-01,
          2.2661747658210590e-01, 3.3189670049401065e-01,
          -1.5349819072742113e-01, -4.0942238152387322e-01,
          8.8043604200735252e-03, -4.8837252515897878e-01,
          6.2183008187936928e-02, 4.3574222949826019e-02,
          -3.3737008177154199e-01, -3.9321928616725560e-01,
          -6.0367208201696441e+00, 1.7194314206370925e-01,
          2.1361124726638725e-01, -3.4862993442826601e-01,
          -1.6831191308758361e-01, 1.2606293317224162e+00,
          4.8958049163045164e-01, 4.5904411682292229e-01,
          -3.5467709376962991e-01, -6.8126862597309643e-02,
          -8.8601911424777080e-02, -1.4186822856460901e-01,
          -2.4451196688684804e-01, -1.4957574969822898e-01,
          -1.0604678154408140e-01, 4.2408349457453387e-01,
          -6.2783228411417547e+00, 2.3412485839722191e-01,
          -2.0411882237960002e-01, 6.2725222585079232e-01,
          2.9964027967733858e-01, -6.4175692943087936e-01,
          -1.3454635973803306e-01, 2.9700601942801308e-01,
          -6.9131075915198337e-01, -6.7943817694865938e-01,
          -8.9880252220332885e-02, -3.1138986478209491e-01,
          -7.3913377347225293e-02, 4.0513269789418038e-01,
          -4.8585949937039064e-01, 4.9842458669695155e-01,
          -5.6006759265595951e+00, -9.9441320206751158e-03,
          2.5017984776673430e-01, -7.6415164578437689e-01,
          7.2625724416870235e-02, 5.2780739439546265e-01,
          -5.7909947396548600e-01, -1.8613205348881617e-01,
          2.4813664832021609e-01, -8.0215952316791378e-02,
          3.1070159645726153e-01, -7.0414711339202496e-01,
          -2.5221344644926236e-01, -4.1239436424016962e-01,
          7.9682774770136588e-03, -5.6726199631828000e-01,
          -7.2090090315245652e+00, -1.5622172796545178e-01,
          -3.2375164443871035e-02, -3.6386773036791747e-01,
          -3.8383399398681034e-01, -3.1441139154449271e-01,
          -2.0430290973859880e-01, 6.5145228376679609e-01,
          -1.7056385068865990e-01, -2.3487199577283752e-01,
          -3.6171582418772269e-01, -1.3143524555112085e+00,
          -2.9961330357178700e-01, 7.2582285902602725e-02,
          2.1036533672170746e-01, -5.8938749010402958e-01,
          -8.4641126305686285e+00, -5.9380494824074415e-01,
          -2.1347935725803543e-01, -2.3151554955622539e-01,
          1.5258955445950195e-01, 2.8021082644604639e-01,
          2.4422995069508277e-01, 2.1563331259923008e-01,
          3.6476789609328242e-01, 4.1241309044363311e-01,
          -2.5142907325741765e-01, 2.6838952393542254e-01,
          -1.3501138487550504e-01, 6.6563431564444858e-02,
          2.9682546761250195e-01, -3.4629569886181732e-01,
          -6.7838097264844395e+00, -3.6558614508345222e-01,
          -1.6943778546192417e-01, -5.7754946978141604e-02,
          -5.4839972671135950e-01, -3.2518908228816612e-01,
          -2.0155138806340709e-02, -5.1441973530421655e-03,
          2.8446575536111762e-01, 2.7468219227785664e-02,
          -5.4847789946034597e-01, 6.7833626873279107e-01,
          1.4376652677791724e-01, 2.1962672039666650e-01,
          -1.9762113982279636e-01, -3.1517209788869754e-01,
          -4.3843241070013859e+00, -1.1681475773571687e-01,
          7.5479251362431166e-02, -1.5163237703886370e-01,
          -7.4820866329883173e-01, -7.6604436794239250e-01,
          4.1714821316083850e-01, 2.0479311484902202e-01,
          3.0963545636804962e-01, 1.1552557102765516e-01,
          2.2895132442990634e-01, -3.5605908591154628e-01,
          -1.0342338694710720e-01, -8.8701620643612186e-02,
          -3.6405275059328901e-01, 3.3326295873956741e-01,
          -6.3419307591090641e+00, 1.8688834404202481e-01,
          1.6634609009122581e-01, -1.6818131745761369e-01,
          4.6800664626169414e-01, -8.0450655147961458e-02,
          -3.7371033968973810e-01, 1.1200739583175041e-01,
          4.3084038014043105e-02, 2.3938337188846645e-01,
          4.1795104681847120e-02, -9.1674374967876260e-01,
          -8.5601281437191465e-02, -4.3221352975399929e-01,
          -7.6479756104838967e-02, 5.3207026021160697e-01,
          -6.9202814345218799e+00, 1.5732682913470247e-01,
          1.0730586909623027e-01, 5.5323168600171124e-01,
          4.1177305065548581e-01, -6.0792452044256123e-03,
          6.2555843247891563e-01, -2.1717852251512226e-01,
          -8.9823797449498116e-02, 2.6763754398199285e-01,
          3.0057586214070137e-01, -5.0693876478004740e-01,
          -1.3557544621687609e-01, -2.8580005847111811e-01,
          3.4249332987649755e-01, 6.3839181570065817e-01,
          -7.2394553299406184e+00, -1.5939051476666413e-01,
          -3.5933196666656569e-01, 5.5023386981701505e-01,
          1.0584392279516337e-01, 8.7393938712527486e-01,
          -3.1892419608141170e-01, -3.3015578503199744e-01,
          -1.1504840038191126e-01, 6.8877991631901525e-01,
          9.0374747556669563e-02, -9.6165287938945765e-01,
          -2.3904423560166632e-01, -2.6572448886745909e-01,
          2.5390654429743403e-01, 3.6924006340960774e-01,
          -3.8645593439401518e+00, -1.7820224777654724e-02,
          -2.7644752217346963e-01, 1.3855393976658270e-01,
          -7.5715940037997365e-01, 1.9915061116416130e-01,
          -3.6919236715918630e-01, 2.4504811340767041e-01,
          -8.2082352355478960e-01, 9.6958029747170471e-01,
          -1.2059092923451314e-01, -3.2435786450331400e-01,
          -1.4213502528726535e-01, 1.7307247128235521e-02,
          -2.4033567188845296e-02, 2.2068782813715856e-01,
          -3.4789335005986186e+00, 3.4380613886941586e-01,
          -4.8768683356312494e-02, 6.8289213748035267e-03,
          3.4810478066276318e-01, -1.6371053901772920e-02,
          -3.5093051067424197e-01, -2.7308750162259859e-01,
          -8.2102160263675317e-01, -1.0996967690615239e-03,
          3.9561128097807552e-01, -5.9806373239079047e-01,
          -5.5105519073946019e-01, 3.9813410197759769e-01,
          4.0310670852431851e-01, 5.0276380759268391e-01,
          -3.8816725599593584e+00, -7.4294412420673139e-02,
          1.4253125890791425e-02, 4.0978178272035110e-01,
          6.2915152325520418e-01, -4.1018745049192284e-01,
          -2.5288110150568732e-01, 1.2264125767615089e-01,
          7.0241568566859935e-01, -4.4366831448403132e-01,
          -3.3637804906032598e-01, 5.2286332541430697e-02,
          -2.3118434758359435e-01, 7.1831988275879044e-01,
          2.7716438050786008e-01, 3.1871623441836860e-01,
          -3.2408692598618476e+00, -1.6283685895891886e-01,
          -6.2686224394886442e-02, -4.0903843372203541e-01,
          3.1823763292309387e-01, 1.2225621952319754e+00,
          -4.7670215999718712e-02, 2.4073657277595362e-01,
          3.5667816159756682e-01, 3.3038463013235470e-01,
          5.2299315680284464e-01, -6.3704247637327083e-01,
          -1.2977336085019556e-01, -3.2053444287748284e-01,
          -4.7226141784839737e-01, -2.6675592113106772e-01,
          -8.7413967247595536e+00, -4.8261153139917096e-01,
          -1.1732330124208233e-01, -3.0842052465599884e-01,
          2.4257560810999507e-01, 6.7364423462859135e-01,
          -1.8129581811976579e-02, 3.7266770972180385e-01,
          1.6505382868456372e-01, -2.0415546651582447e-01,
          6.2562214386545434e-01, -7.8704868294485741e-01,
          -1.7651554798696908e-01, -2.3909071432780535e-01,
          -2.7509758057955630e-01, -6.8159061142195665e-01,
          -7.2615179730852288e+00, -4.4367990347516728e-01,
          -1.6893361033675450e-01, -5.1273274845560191e-01,
          5.5957158819386377e-01, 1.4349771273965304e+00,
          2.1016450620731783e-01, 2.2053069161995686e-02,
          4.7480246979236182e-02, -3.2013750133645330e-01,
          3.3530771249482734e-02, 2.4558968194276579e-01,
          8.2767580830569690e-02, -2.9052936146219249e-01,
          -8.4256450451770784e-02, 3.9852285717981673e-01,
          -2.3024133522428709e+00, -2.8271036727232784e-01,
          1.9282631622564225e-01, 9.7648063728620893e-02,
          -2.2493373363653316e-02, 1.0443710848272303e+00,
          4.5267485413726677e-01, 2.3522204081630382e-01,
          -5.3848136958925708e-01, -3.9013603279330489e-01,
          2.8301715201390820e-01, -3.0094172748563092e-01,
          -1.2334230201716058e-01, -2.8418847905693245e-01,
          -1.7197308559964347e-01, -1.7074308085306794e-01,
          -8.8845249161692017e+00, 3.6440330982793234e-01,
          -1.2198606459211265e-02, -8.9856055077973274e-01,
          1.7632032604365067e-01, 4.7114928777526455e-01,
          1.2317048694479683e-02, -1.1933883506714978e-01,
          -3.2006696863453499e-01, 6.4246193215832331e-02,
          1.1354777457442683e-01, 7.8340603074023563e-01,
          -2.0874450596619840e-01, 1.4952985275954116e-02,
          -1.4662769892564761e-01, 7.0173443290665305e-01,
          -6.5154955449117944e+00, 8.7011014907985407e-02,
          -2.9059564619581667e-02, -7.1043199288967784e-01,
          -4.5481316603134797e-01, 5.1504908398080307e-01,
          1.2785882703082130e-01, -3.3094678572950530e-02,
          3.3407226261684464e-01, -4.9544434267375209e-01,
          -1.4810547784993744e-01, -1.4885024857565554e-01,
          -3.9291273657394085e-03, -2.6987858622117356e-01,
          -1.5139131090305225e-01, -5.4693755171178227e-01,
          -1.2393538518784748e+01, -2.1137213466425961e-01,
          9.9081585859212007e-02, -4.7366076308595029e-01,
          -7.0201408704060020e-01, 7.7399767356226036e-03,
          -7.0376982199463090e-01, 5.3355473395057207e-01,
          1.9581416952794826e-02, 1.1891253824439969e-01,
          -1.5753371933911114e-01, -7.8439391118135374e-02,
          -1.2511989245733932e-01, -1.4923664739997045e-01,
          7.0308660634039774e-02, -6.1055155149910334e-01,
          -5.6875983885783992e+00, -3.9491361170078271e-01,
          4.5610661570204679e-02, -1.1556900491470624e-01,
          -2.7182816733028542e-01, -1.5210934437648974e-01,
          4.0392345445305372e-01, 1.8726833316778124e-01,
          4.0772960170771450e-01, 2.6407988743543459e-01,
          -5.2927429267908077e-01, 6.7934547852015734e-02,
          2.7782988623314042e-01, 4.6284238381618159e-01,
          2.4551247219612973e-01, -2.0413074892459512e-01,
          -5.5128144176871992e+00, 1.1916352536678002e-01,
          -5.9745876787760936e-02, -6.4116991812668223e-02,
          2.6315739408587219e-01, -1.2961842247992672e-01,
          1.4282413969350696e-01, -2.9495987751987379e-01,
          2.0929938105889567e-01, 5.6236333683032957e-01,
          -3.1184717230321624e-01, -5.7511783270948580e-02,
          1.0955877866742308e-01, -6.4584837371913201e-02,
          -2.7586274420548734e-01, -6.0475124858013041e-01,
          1.5402175905865858e+00, -8.9927914046207466e-02,
          -5.2235617479527381e-02, 9.2208118578979301e-02,
          -4.5472754487931039e-01, 5.5127007548137685e-01,
          2.3921738782602744e-01, 2.9071406697152935e-01,
          -3.3369845488097412e-02, 3.8346876065768620e-01,
          -4.9803371696119886e-01, -1.1094790794676479e+00,
          -2.1571303657108262e-01, 4.3162724562981486e-01,
          3.0464083973224282e-01, -1.9677866575965502e-01,
          -3.8835769479355742e+00, 2.3516167057512258e-01,
          3.8459865994775677e-01, 3.8135948747742587e-01,
          -3.6600243662180193e-01, 1.0327192914817087e+00,
          3.1640425735496724e-01, -6.5110876575207755e-02,
          -4.8159718219590070e-01, 2.1377543827378268e-01,
          -4.1924100262161601e-01, -7.2837097287143349e-01,
          -1.0947012566848928e-01, 4.6878562216667968e-01,
          3.8950168655148087e-01, -2.7492495554348839e-01,
          -1.6595147121032829e+00, -4.0956627514310541e-02,
          -1.5454548649521738e-01, 8.6311611010839828e-01,
          1.0370227047769029e-02, -1.3920649630832380e-01,
          -4.8977597036702541e-01, -3.5154023495931191e-01,
          -3.7202006802235404e-01, 5.1504018600107226e-01,
          4.5581318293059381e-01, 1.9707584752779447e-01,
          1.8378628185175672e-01, -8.1573762837476679e-02,
          -3.8664560894282474e-01, -3.8532050456301564e-02,
          2.1986280326593879e+00, -1.4221801466588480e-01,
          -4.9053954524792026e-01, 3.3017132270110300e-01,
          1.3179007658972192e-01, 2.0029402430540674e-01,
          -3.9131720262066066e-01, -9.5071733102412015e-03,
          -3.7006314240894395e-01, 1.0851521192607907e+00,
          -3.1754822026036154e-02, -1.0699482120506270e+00,
          1.6105945426072821e-01, -1.3364434673137299e-01,
          -8.3876614422835546e-02, 2.3590969140809789e-01,
          1.1229785056762980e+00, 4.0970075918101014e-02,
          1.1153865213410151e-01, 3.7584475119545441e-01,
          4.5670845166542684e-01, 1.8416332834245033e-01,
          -5.1271148862700411e-01, -2.3127194371286250e-01,
          7.2647748208823193e-02, 1.0522083192862108e+00,
          3.6179556973448790e-01, -2.8898725648306434e-01,
          -1.6842253139766722e-01, 1.1793069875855627e-01,
          3.4090241022700896e-01, 5.5634140844245306e-01,
          1.3249320488936629e+00, 7.3585618561521834e-02,
          4.7028476018967996e-01, 4.4142592603869679e-01,
          -1.0449862317213383e-01, -4.0567792886086074e-01,
          -1.3045096776957060e-01, 2.7727263951893011e-01,
          -8.4107570213049865e-01, -2.3724352827534056e-02,
          5.7927484995687828e-01, -1.4606108711480736e+00,
          -3.8066250813558539e-01, 3.9804471103568850e-01,
          1.0197213574711349e-01, 7.7339865098113736e-01,
          -2.7652180758956519e+00, -4.7170454404860057e-03,
          2.4332873494110127e-01, -2.2006555191922769e-01,
          1.2478795057224790e-01, 5.3951997616033635e-02,
          5.0160783376228402e-01, -4.0401651818166140e-01,
          -2.8027062938867403e-01, -4.0367403161463694e-01,
          4.6038716927902062e-01, -6.2092468453360605e-01,
          -1.2919461719171069e-01, 3.5546908645621156e-01,
          1.8704970496131804e-01, 6.6195500392412709e-01,
          -6.1288241165767987e+00, 6.6021307225271608e-02,
          -3.2485426023418529e-01, -1.2636207044149725e-01,
          -3.4533913962840335e-02, 1.0318048319736692e+00,
          3.5612796978930067e-01, 7.5417142032379947e-01,
          6.2272598915179689e-01, 4.9425467533726136e-01,
          4.6230747523804301e-02, -3.1883494097122805e-01,
          -5.1362471801593579e-01, 2.9488720398173957e-01,
          -4.6886608092143199e-02, 5.7494597732315178e-01,
          -9.3127200877393008e+00, -2.9533759405870674e-01,
          -6.3489596215382541e-02, 1.3969820365207830e-01,
          8.0149366484055307e-01, 7.0972228198386477e-03,
          2.4615699308691741e-01, 4.7110650023620623e-02,
          1.8413414905741302e-01, 3.1581481164552178e-01,
          -2.2161063082036458e-01, -1.0102212148946179e+00,
          3.3541535153998847e-01, 2.1498141162395640e-01,
          -4.9078573175851620e-01, -5.1145685263119700e-01,
          -8.7720481593415389e+00, -4.8256665154861011e-01,
          1.2599409716903601e-01, 2.9053843798340598e-02,
          2.4030277808585912e-01, 1.2370744941818403e+00,
          -1.6288693993614697e-01, 1.0433272005315057e-01,
          8.0775856105197563e-01, 1.3508262349637090e-02,
          -5.5495531586779900e-01, 4.3583015518750580e-02,
          1.0980435065474563e-01, 2.6513924200485023e-01,
          -2.9470461493304394e-02, 2.8313523274450880e-01,
          -4.8889080253489459e+00, -3.9696798755360641e-01,
          -1.7483296527466929e-01, -6.3543421615458173e-01,
          5.9488460499725715e-01, 1.0054727018025695e+00,
          -3.8962281915213914e-01, -4.3010521378403652e-02,
          2.2363503006716984e-01, -5.0108774269967300e-02,
          1.4047245215394535e-01, -3.8613080141819717e-01,
          3.6030372545763314e-02, -3.9062361260484940e-01,
          1.4746261613297648e-01, 3.1177863069219169e-01,
          -6.2448537852876216e+00, 1.2263459826131769e-01,
          -1.4569903548904231e-01, -5.8910024380212189e-01,
          -1.0593682569221994e-02, 1.0517616638807159e+00,
          4.2115969268267089e-01, -9.3943973060551397e-02,
          -3.8591092278053130e-01, -3.7225430660009817e-01,
          4.6971598184020052e-01, 6.0030712452683010e-01,
          -1.9359959090353471e-01, 1.0866435192964215e-01,
          -1.8930482581211547e-01, 3.1097510204489831e-01,
          -5.4845268216569645e+00, -1.1999436116033560e-01,
          3.1049877387154902e-02, -7.6015148279047862e-01,
          -3.8214668488944137e-01, 4.3238477885791204e-01,
          -4.0762606373579979e-01, -1.9867215851830564e-01,
          -3.9060729549526818e-01, -4.0312663036373286e-01,
          -8.6107865495688107e-02, -2.4529680876841181e-01,
          5.4001061597252362e-02, -2.1697820173595034e-01,
          -2.2294236735882017e-01, -6.3917825588378330e-02,
          -9.0323196802969807e+00, 3.2480628935985530e-02,
          7.5070132651129218e-02, 6.2449575824542594e-02,
          -8.0154060263444094e-01, -3.8743426909954870e-01,
          -1.6394117321329030e-01, 7.1349274553513009e-01,
          1.2942668673988497e-01, 2.2272301976335764e-02,
          -8.2534875680746334e-01, -7.2381018513796336e-01,
          4.6202031871828336e-02, -9.5602320912524213e-02,
          -1.7576656742577072e-02, -9.1316734396630961e-01,
          -4.6897785588810645e+00, -5.6159922425951872e-02,
          -4.0602907968910640e-01, 4.7590402206231869e-01,
          -4.7336182354807887e-01, -1.0388247309864118e+00,
          -2.8046407509788113e-01, 2.7373437953092483e-01,
          5.1285104425931616e-01, 3.4731701329484277e-01,
          -2.5144482489186648e-01, 5.7065030806659511e-01,
          4.1483177188934439e-01, 1.9437216165676374e-01,
          -2.4342438300108996e-01, -4.1523688569268635e-01,
          -7.7221951633670791e+00, 2.8545297773929856e-01,
          2.4698843514745775e-02, -5.6410195438884081e-01,
          -4.2503563463209443e-01, 5.8190470938952421e-01,
          -4.4151672093540573e-01, -1.0467793476074443e-01,
          6.2458794577258092e-01, 4.5379165904452029e-01,
          -4.9572320695348004e-01, 1.6235548602943093e+00,
          -9.0292620224257894e-02, -3.6464339820232389e-01,
          -1.7573479444508328e-01, -4.9014841307315660e-01,
          -1.2700261836462647e+00, -1.6140097294155709e-01,
          -3.4206216896754221e-01, -1.0344585223886109e+00,
          -2.9748412671981911e-01, 2.0547256182657042e-01,
          5.2893016718323561e-02, 1.3341441372602231e-01,
          6.9624044521046924e-01, 9.3194783858646557e-01,
          -6.1977985611654862e-01, 6.1659020398880882e-01,
          -5.8898843809112333e-01, -1.9665756557862890e-01,
          1.4587525723586819e-01, -6.7769123247327356e-01,
          7.5237723295355152e-01, 1.3526920986033111e-01,
          9.0596727894990459e-02, 4.1552012821199474e-01,
          -8.1460295971361452e-01, -4.0167766471504157e-01,
          2.7029496746793702e-01, -7.5950124350822129e-02,
          1.5574728680750075e-01, 8.8114590229688861e-01,
          -8.1196806517575354e-02, 4.2925760049838080e-01,
          2.0909058799979918e-01, 1.8031782077634292e-01,
          2.6150129349337903e-01, -3.1607979412489073e-01,
          2.3400198807901171e+00, 8.8887551112840343e-02,
          3.7602471804564674e-01, 5.9925000958646679e-01,
          -1.6779772665270504e-01, -1.6061066618834079e+00,
          2.1855839865402199e-01, -1.9184529869864378e-01,
          -7.1710451377062168e-01, 3.0772805300132755e-01,
          3.4010625492956614e-01, 2.1227667843305598e-01,
          2.3128104895665480e-01, 1.0042684646496389e-01,
          -5.1180379744219018e-01, 2.1655475241101085e-01,
          4.8329874591131947e+00, 1.5385492879835541e-01,
          3.3063750558727129e-01, 3.5582177766839229e-01,
          5.3062988278123546e-01, 2.4328687090812495e-01,
          -9.8207073248097899e-03, 3.3556547404961684e-01,
          -9.9510969918065018e-01, 5.6223296824374636e-01,
          2.5882399309658566e-01, -9.7078220136398707e-01,
          -4.7577639836697633e-02, 7.3241613398404723e-02,
          6.1143417631952274e-02, 4.8419482874692443e-01,
          5.8016561420346804e+00, 6.8725067668913620e-02,
          -2.0034953535970546e-01, 7.9419211221803399e-01,
          6.8063874466151846e-03, -9.6981158642409127e-01,
          -6.5655562455507277e-01, 2.9478210315224257e-01,
          -3.3193948682392643e-01, -3.1767316236665000e-01,
          5.7120089440458965e-01, -5.3059562892283574e-01,
          -1.6642092652322757e-01, 2.3582848828673075e-01,
          1.3123478239501313e-01, 1.1184209624600495e-01,
          5.4597927484561726e-01, 4.2789875314842779e-01,
          5.4867122919510847e-01, 2.4972548046314111e-01,
          -4.0312946937976782e-02, 1.0857467300733573e-01,
          -3.2915834956635148e-01, 2.7809893559609805e-01,
          7.1522470731015447e-02, 5.6253687499364369e-01,
          3.3185754709442572e-01, 1.9975169737135409e-01,
          -3.2674467695773524e-01, 1.1478236205465109e-01,
          9.2872028000528350e-02, 2.7812870389586353e-01,
          -7.1636076580363273e-01, 5.6626950578574697e-01,
          5.6984644424981212e-01, 2.8149146852712825e-01,
          -2.4030090371301052e-01, 1.1023814142489749e-01,
          3.8004899861368802e-01, -3.8736399370625219e-01,
          -3.7474915315674795e-01, 1.3444210618742605e-01,
          2.4627821962948640e-01, -1.4769366606949560e-01,
          -1.0273572830171541e-01, 3.4407326905702451e-01,
          1.0713213954255670e-02, 4.3273812277452689e-01,
          -1.2370544671402308e+00, 1.2692889012322925e-02,
          -6.1158164938048365e-01, -1.5911922658960034e-01,
          3.4292955211934456e-01, 7.3004914673616672e-01,
          -4.7268381287081490e-01, -5.6728051820069065e-03,
          4.6338510911739256e-01, 9.4336327719009794e-01,
          1.8697074091542396e-01, -2.2232281998464470e-01,
          -2.8809079399045356e-01, 7.9638773153493450e-02,
          5.5670666644889066e-01, 1.0440974441054673e+00,
          -5.8815869611091411e+00, -3.9132980117699118e-01,
          -5.7012766078195987e-01, 3.2616495095894416e-01,
          3.9158675396662768e-01, 2.9936836938869477e-01,
          -3.4700859214318702e-01, 4.2015161954351921e-01,
          -3.5064636360674467e-01, 3.1412489815784400e-02,
          1.1521431032024891e-01, 4.9500433789919140e-01,
          3.3909656168150341e-03, 2.7911039137658422e-01,
          -2.8108518224904755e-01, -3.8140320278355216e-01,
          -6.7077951079518900e+00, 1.2934212896655986e-01,
          2.2771139416804689e-01, -6.2807072263429922e-02,
          3.7404939679023275e-01, 1.4392613840102975e-01,
          2.2344689223584976e-01, 4.0306720560476003e-02,
          -2.8026571457825972e-01, 2.4722059591529186e-01,
          -1.9048283281997053e-01, -6.0757886539903216e-01,
          3.0008319781646281e-01, 1.9979018851747907e-01,
          4.4504278035899493e-02, -8.8842080059815831e-01,
          -6.2173634681708894e+00, -3.7687925382025278e-01,
          -2.0071891866750982e-01, -2.2633452727559666e-01,
          4.2643671859818283e-01, 3.2663173933492795e-01,
          -8.4701652339319278e-01, -2.5674293537482973e-01,
          1.0103871944276524e-01, 1.1455203198477763e-01,
          -2.8719448255415170e-01, -2.2592925989712065e-01,
          -1.4287997043743460e-02, -4.5051208669378079e-01,
          6.8208391196135074e-02, 1.1702667480809635e-01,
          -5.2813266459860362e+00, 1.8864438717090334e-01,
          6.4028919121644507e-03, -6.9967517592163497e-01,
          -4.3079010064130681e-02, 1.1756015248815221e+00,
          -1.2630313816759467e-01, -3.2434509902660713e-01,
          1.2545159264778019e-01, -2.9559253777277811e-01,
          3.4571327537314950e-01, 2.8026520088376328e-01,
          1.7425526268223222e-02, -1.8227705972944011e-01,
          -6.1829847698695754e-02, 2.2537280102754317e-01,
          -6.7803067599660878e+00, -2.6526016087993574e-02,
          2.0107048846933667e-01, -3.1637721067027652e-01,
          -3.1980251897003625e-01, 6.8634722656237224e-01,
          -2.1707111811576374e-01, -2.2409429790480523e-01,
          -3.4627701424242147e-01, -4.8207789160248565e-01,
          -2.8062156275636785e-01, -1.9198116452939128e-02,
          1.7429310452045266e-01, 2.9260774950821589e-01,
          -1.7248650983424713e-01, 5.4514272982823644e-02,
          -8.4175837257327029e+00, 2.6440294727902641e-02,
          2.1954243267735749e-02, -2.9231921719660803e-01,
          -1.2552845593536666e-01, 2.5782988866529077e-01,
          -4.1564215076516869e-01, 3.3400457016056817e-01,
          -1.9397565551539661e-01, 8.4301433448883398e-02,
          2.0889904268959308e-01, -7.5619207294900112e-02,
          3.3328570117377393e-01, -3.1185236136792654e-01,
          -1.7524516860065487e-01, -1.8218759077300604e-02,
          -3.3944776997770054e+00, -3.4702995182835837e-02,
          -3.5026420325729180e-01, -1.1612399835674531e-01,
          -6.4320969803811112e-01, -1.9468470065380339e-01,
          3.5928095884644062e-01, 2.5167653937465101e-01,
          -2.0391457512244784e-01, 2.7699249405123327e-01,
          1.7589280106561189e-01, 1.9085020947016942e-01,
          1.6686401392324740e-01, -2.9900385325307399e-01,
          -3.5651553763119331e-01, -2.3184511785748010e-02,
          -4.1367499157643071e+00, -1.8194338493806275e-01,
          -1.2037171746212035e-01, -1.3132286360059747e-01,
          -3.3574663505427588e-01, -2.3644547332618268e-01,
          -2.5599663701012376e-01, 4.3832974947480390e-02,
          5.4798474940161779e-01, 3.2325601533202054e-02,
          2.4400144419544422e-02, 9.0840922558775694e-01,
          -2.0003511106010025e-02, -3.3419229338428114e-01,
          1.0947794425622567e-02, -1.5889501915280002e-01,
          3.9988381290585342e+00, 1.1557415399683860e-01,
          -2.7915818485679433e-01, -3.8433658150023914e-01,
          -5.2557550065203566e-02, -1.2527229741092420e+00,
          3.3001971491728233e-02, -2.5041093616507620e-01,
          2.4796217112320967e-01, 6.7215884709567542e-01,
          -2.6837890927197416e-01, 7.3113792602496064e-01,
          -1.9995780643211591e-01, -8.6151073259929156e-02,
          5.1801870103739302e-03, -2.8273692123942290e-01,
          3.9291742246262538e+00, -1.5541738902490634e-01,
          -6.6843021563133306e-02, 3.0388073993412723e-01,
          -6.0743045787941996e-01, -2.4962010411480631e-01,
          5.6689045131105475e-01, -7.1639426455633215e-01,
          2.2831487899346348e-01, 7.5013773174674747e-01,
          2.7320489746389925e-01, 5.3187048784027502e-01,
          2.2412012541121287e-01, -8.4357500273344696e-02,
          -2.6728324451617699e-02, -7.5670554555565228e-01,
          6.4696048613929777e+00, 1.2431050657309808e-02,
          -1.9017175580723014e-01, 6.2134393246080410e-01,
          -5.0349412937494764e-01, 3.6333499938902385e-02,
          6.3856377343848442e-02, -1.9290164355407879e-01,
          -4.6261307850131139e-01, 3.8803751557455374e-01,
          5.0406421097731702e-01, -2.2072910968237522e-01,
          9.4055055804320706e-02, 1.7645936935771092e-01,
          3.5993886458911212e-01, 1.4086174535467436e-01,
          8.2458786444099719e+00, 1.8654412269566667e-01,
          2.8173196076011625e-01, 8.8507348581941436e-01,
          -3.2848437060574759e-01, -4.3159754376279535e-01,
          1.0350881185917357e-01, 3.2226111641730698e-01,
          -7.7891256067902970e-01, -2.7732644434139131e-01,
          2.4914145876970001e-01, -3.8145219183659934e-01,
          -1.7153548236951019e-01, 4.0100001133775531e-01,
          1.4895515143806642e-01, 1.3173795025558985e-01,
          4.4101106681337683e+00, -1.4016632226702125e-01,
          2.1170961048116635e-01, 5.3643996899606861e-01,
          3.3623968737806365e-01, -3.0257427684615601e-01,
          -1.8839454170358486e-02, -5.1670004693284900e-02,
          -5.3435436479288978e-01, 1.3069362455828037e-01,
          -3.7748864590683018e-01, -7.9935549812362006e-02,
          -1.0429732895235057e-02, 2.2582043324769186e-03,
          6.1691052347242634e-02, 2.2017808348953680e-01,
          4.9549888801335495e-01, 3.8912662048630767e-02,
          5.5206045093862433e-01, 5.1404318550112049e-01,
          -4.3596576132066488e-02, -9.8064953516867004e-01,
          1.6980862050695822e-01, -2.9422711166500465e-01,
          -5.2529500122297457e-01, 2.6634775691224338e-01,
          -2.1481419473646471e-01, -1.0861469718233656e+00,
          -3.1293615586068618e-01, 1.5019335616034424e-01,
          2.5994273003619167e-01, 1.5072500729454333e-01,
          2.3751005205205478e+00, 3.5824818644707357e-01,
          3.0217086981493813e-01, -1.8586583007261469e-02,
          -2.8151817513874500e-01, 1.9683408779512176e-01,
          -2.4287288726448829e-02, -2.4132168669879783e-01,
          -2.7992026693669902e-01, 1.6113847189428351e-01,
          5.3952721404103365e-01, -8.6194461184321503e-01,
          -1.4438195618775301e-01, -8.7019756785503985e-02,
          1.2416191216552222e-02, 1.0850967645933369e+00,
          2.5451870365422202e+00, 2.1299689474762976e-01,
          -1.9448604606080250e-01, 6.0770179180693462e-01,
          5.2477652526193901e-02, 9.7452175470348845e-01,
          -8.6487158933844038e-02, -4.8013161694068146e-01,
          8.7103435875854396e-02, 8.5737884037516698e-01,
          6.2498143981649490e-01, 6.5031652637509665e-02,
          -8.6611745449459668e-02, -3.6277970022652782e-02,
          4.1746966222216686e-02, 3.8942160045690517e-02,
          -2.4667355077668809e+00, -1.6701749826375040e-01,
          -4.0005107974602883e-01, -7.8117242178005987e-03,
          4.9914439724927617e-01, -5.0304983835291950e-01,
          6.8189581361922857e-01, 3.0288061117757931e-01,
          5.1631762793943847e-01, 4.2582829140825679e-01,
          -3.1120902150845418e-02, 3.5318510289543553e-01,
          1.1749764043515061e-01, 1.7735055993248820e-02,
          -2.4497646828092809e-01, 1.6227613850843280e-03,
          -4.2304553047942353e+00, -1.9619853115494393e-01,
          -1.4816525165433628e-01, -1.5985156447997170e-01,
          -1.0587308224806921e-01, 2.2690406661478127e-01,
          2.4803048008771053e-01, 2.7095512663080579e-01,
          2.5965058631696941e-01, -1.1974602810908737e-01,
          3.4125921276364302e-01, -2.8694303703086077e-01,
          3.2224581374483202e-01, -1.8190394605733942e-01,
          -8.5373663383751991e-02, -6.2973970057919437e-01,
          -9.8041900427027766e+00, -3.5508268855189945e-01,
          -2.5525076049123768e-01, -6.0020632139601371e-01,
          4.0934935773532949e-01, 8.0021142008855217e-01,
          -3.9371707826139524e-01, 4.4723726239693201e-02,
          -1.5035370400269629e-01, 2.8464563953852590e-01,
          -6.0395998120006833e-01, -4.2763307868582051e-01,
          3.2580116126082204e-01, -5.2969723957759651e-01,
          5.6749960419422263e-02, -1.7497223653924360e-01,
          -8.0227683176485467e+00, -2.1811975319722055e-01,
          -2.8853995887052175e-01, -4.5645424322805628e-01,
          3.9771703319474444e-01, 7.1047508401367787e-01,
          -2.9101036473015093e-02, -1.6374299951552820e-01,
          3.2854536172909787e-01, -2.7956307401096492e-01,
          3.3075892104616222e-01, 3.0587584921158029e-01,
          1.6039689211355784e-01, 2.1975247673382273e-01,
          1.1233333990093047e-01, 4.4012886280383312e-01,
          -4.9603932720508741e+00, 2.1950379974704395e-01,
          2.0778445782547471e-02, -7.4401196484797802e-02,
          -5.8965068360085093e-01, 9.2734115521105420e-01,
          -5.6628384758234306e-02, -2.0541121747421082e-01,
          2.4373215887593547e-02, 1.5643221998618675e-01,
          -3.2607575591158522e-01, -6.2575364216313753e-02,
          6.9470611649599417e-02, 7.9498445150635699e-02,
          -1.2948720027664745e-01, -5.5392919817036701e-01,
          -4.6536171699881139e+00, -3.3375648302938182e-01,
          -2.0226843299729735e-01, 1.9161623585754836e-01,
          4.0384848880795415e-01, 3.2403315048439763e-01,
          -1.7445113921998176e-01, 1.0096364258595426e-01,
          3.7059626305207544e-01, -6.6868383017505140e-02,
          1.5869365032296720e-01, -1.3096962815745656e+00,
          4.1244724645259162e-01, -5.5277573808692415e-01,
          -6.4831786227786445e-02, 1.9489330623498255e-01,
          -2.0953901345316108e+00, 1.1811592175727116e-01,
          -7.0578950784491923e-01, -9.0182797580905927e-01,
          -6.4688879130069918e-02, 1.2294663212651917e+00,
          6.2415193021288806e-01, 3.2178208758078708e-01,
          1.1565808438533262e-02, 2.2248811072427183e-01,
          -7.2775806272992696e-02, 1.1757137229315180e-01,
          6.0088595844729871e-02, -5.0123821206764108e-01,
          -3.3287307469633942e-01, -8.3676585441463114e-02,
          -4.3947326207368453e+00, -2.2428783521311720e-02,
          -4.9278532741434716e-01, -1.0909136459499400e+00,
          -1.9453407802040812e-01, 1.1100752398994491e+00,
          1.0932667283148556e-01, -1.4314814295414127e-01,
          1.7588118227612345e-01, 1.1478904803236743e-01,
          -4.2086664054780726e-01, 7.2170368879250879e-01,
          -1.0883900460513488e-01, -2.5708501698138253e-01,
          -6.4744011460024856e-02, -2.1934569572882298e-01,
          6.9225170387651422e+00, 2.7761089763522734e-01,
          -4.6977080292533563e-01, 2.2090463672266142e-01,
          -1.2613359664372342e-01, 8.4061564937800859e-01,
          -3.2262920127997738e-03, -3.7953411081221683e-01,
          2.9761250457698157e-01, 3.3193828729596064e-01,
          -4.8419571433304870e-01, -6.3111699666447008e-01,
          -2.4089282669136004e-02, -1.7448746351441388e-01,
          2.3642920704891249e-01, -6.7258730489974383e-01,
          3.5287367194552357e+00, 5.8172019033382351e-02,
          -2.4898994938415475e-01, 1.5527746291829028e-01,
          1.1123059490555241e-01, 6.7351796522403501e-02,
          1.4290852379221539e-01, 2.9798546634458806e-01,
          -2.4674356825672786e-01, -4.2038304713522523e-01,
          5.1532204021248451e-01, -5.3244093287782712e-01,
          5.6667945892703908e-02, 6.4283979350045095e-02,
          2.4772422352116630e-01, -3.8677256855235082e-01,
          4.8882454109162776e-01, 3.5982910581218286e-01,
          -7.2056827846355670e-02, -1.1905291831578844e-01,
          -1.5612516128028109e-01, -2.7131261414340024e-02,
          1.1537156626928219e-01, 2.1978626987570721e-01,
          -5.6304238343082502e-01, -9.6072934087678558e-03,
          -2.0392525381248591e-01, 7.6126169590881276e-01,
          -2.0580754510394381e-01, 2.2401580340307048e-01,
          -3.2851328433998614e-02, -7.9370493221502261e-02,
          -2.2528988615971555e+00, 3.3930079228695420e-01,
          5.0646268562698549e-01, -1.6290689958345358e-02,
          -6.0011171718457612e-01, 6.6868042832213836e-01,
          2.4037684372784487e-01, -2.0254661855619896e-01,
          -1.2406314667044427e+00, 6.8168735548863035e-01,
          -2.6491763200575535e-01, 9.1053105544598101e-01,
          -5.4605682234424335e-01, 4.1894252880374783e-01,
          1.6736131082212054e-02, 4.0941598277381402e-01,
          -2.7150139314598598e+00, 4.3600008330868419e-02,
          7.6194237536283060e-01, 1.7007493589783490e-01,
          -5.0009200615996019e-01, -1.0795468790059995e-01,
          4.5867332135159221e-02, -2.8328360117560358e-02,
          -7.9558727638295390e-01, 8.4962423777546398e-02,
          -5.2569330274925397e-01, 9.6466168312642442e-01,
          -4.5839031706227334e-01, 2.3354232344808187e-01,
          -7.5585775480403197e-02, 1.5584267543781841e-01,
          2.6139396382527011e+00, 1.2235226695702260e-01,
          1.7505655464070868e-01, -4.1276102096903067e-01,
          -4.4432396985584766e-01, -1.0961669355134884e-01,
          3.5367042588347974e-01, -3.1989319946105405e-01,
          -1.5683973873087992e-01, 9.2578688950282451e-01,
          1.2717007999671034e-01, -1.5006050410293081e+00,
          -3.3794219464558151e-01, 5.7842634382961666e-01,
          3.7576328841839944e-02, -2.7325554665460333e-01,
          1.4023804695069984e+00, 2.0229721585788979e-02,
          7.4426774924340369e-02, 1.2094646907498387e-01,
          8.8368186696359367e-03, 5.9905178632206313e-01,
          -1.9375023240833600e-01, -2.0438959066067378e-01,
          -4.0870775040611435e-01, 6.6577965171093367e-01,
          8.3958061263593120e-01, 8.7059628028099592e-02,
          -3.7625570332453651e-01, 4.5831527698176479e-02,
          1.5230767911279884e-02, 5.4518957771335663e-01,
          4.0596341965120555e+00, -1.7686598861999706e-01,
          1.6356700789782541e-01, 1.2974437673386738e-01,
          5.2748004052799957e-01, 1.8635135139028750e-01,
          -5.3661225871169183e-01, -2.1549230722288659e-01,
          -7.1981319047313963e-01, 2.7104105518752203e-01,
          3.3474894244485787e-01, 8.9408084095030460e-01,
          -1.7903155969429160e-01, 8.0302838457083706e-03,
          -1.4155365627938751e-01, 3.8530898496431243e-01,
          -1.2421375780288637e+00, 3.0191559407151541e-01,
          2.2315525338958467e-01, -1.5876805746079653e-01,
          2.2106111288553812e-01, 6.9602402573227606e-01,
          -4.4919910088771081e-01, 1.7466663172336860e-02,
          -2.8822707656440494e-01, 4.2312703223552606e-01,
          2.0483730123022231e-01, -7.9295839958008957e-02,
          8.2134373901304486e-02, -1.4188266772884825e-01,
          -2.6166677711061020e-01, -1.4148108305260071e-01,
          -3.9494332890126223e+00, 3.1961597303850793e-02,
          -3.3981309142324792e-02, -1.5131267798275277e-01,
          -3.2403825071214629e-02, 3.5851158382998372e-01,
          -3.1186262262233816e-01, 3.2304619711228472e-02,
          5.4118873389793809e-01, 3.7000203734902221e-01,
          1.8801658009780928e-01, -7.1977933935600136e-01,
          4.1152014560419103e-01, -1.8156970532280739e-01,
          -1.3882225220731786e-01, -6.1366876944588789e-01,
          -6.0417237068982939e+00, 1.4110557589180814e-01,
          -3.2531075695017883e-02, 1.7518813289900997e-01,
          5.4103458409624793e-02, -3.7967389937686702e-01,
          -2.3318605837912773e-03, 6.2411579537412054e-02,
          4.7747570120072902e-01, 1.8704199511980801e-01,
          -1.6279281605277285e-01, -7.1479871291912711e-01,
          4.0481381777706732e-01, -3.9691755527167671e-01,
          -6.1998579748719210e-02, -2.0746300077377200e-01,
          -9.2365887516242591e+00, 5.3324691096375089e-02,
          -2.3313441370064586e-01, -1.6914310747860881e-01,
          -2.3373915146990698e-01, 6.1629789040470062e-01,
          -5.1263485596059077e-01, -2.3265343472485545e-01,
          -1.6226561220723215e-01, 7.1387919934083610e-02,
          2.1688506733336901e-02, 2.8146107857497688e-01,
          1.8592452537097690e-01, -1.7007312958406731e-01,
          2.7403597879546543e-01, 1.9569582269645929e-02,
          -6.1685954540265886e+00, 6.8003724267964541e-02,
          -2.9997882846815510e-01, -4.9424833413547214e-01,
          -1.4921666532781253e-01, 1.3787432531430537e+00,
          -2.3474307448951967e-01, -3.2747247030170562e-01,
          2.5936033130846081e-01, 4.6776119363803942e-01,
          -3.0998911446065230e-01, -5.1461755472544324e-01,
          8.8076323147337141e-03, -2.8152275342337152e-01,
          -2.6305320856485082e-01, -3.0959709910642541e-01,
          -3.6225295101571597e+00, -3.8691542883129376e-01,
          -3.7707941702026421e-01, 5.6941242757296673e-01,
          -1.2690885880745156e-01, 4.7000864422100896e-01,
          -4.9740726167331900e-01, 1.4632582306080608e-01,
          3.9941513098590736e-01, 3.6261832297403533e-02,
          -1.3941026235480694e-01, -1.0027168966388500e+00,
          4.0810502259189307e-01, -3.9534887049163570e-01,
          -6.4044655258163399e-02, -1.9165161384874685e-01,
          -6.9190654134944674e-01, -2.3826799586143155e-01,
          -4.8649549678175935e-01, -1.5616377967937903e-01,
          -1.4826983659444740e-01, 8.0145412143201944e-01,
          -1.1842769915708350e-01, 3.8654088938878245e-01,
          3.1945373919469250e-01, 2.1441120167323774e-01,
          -7.0820472893945419e-01, -1.4237260675023994e-01,
          1.9036871017787060e-01, 1.0175346577349860e-01,
          7.6630387450788030e-03, -1.3857730785719102e-01,
          -3.6677132464416227e+00, 2.2641038312490760e-01,
          -4.0892896375183618e-01, -6.9712565658834535e-01,
          -2.1297461305788123e-01, 7.9840144590117446e-01,
          -2.7683628849725139e-01, -7.8195991490196418e-02,
          -8.3947258998886581e-02, -1.0572480050478726e-01,
          -9.2584803536528093e-01, 1.6856749274984619e-02,
          -1.2391436979819812e-01, -3.9821410938733337e-01,
          -1.5042884456414748e-01, -5.7269458077604019e-01,
          -3.4078669664534447e+00, 1.2833869152385177e-01,
          -1.7374153845562587e-01, -3.2400901132135923e-01,
          1.7520198060463992e-02, -8.9509776477359448e-01,
          3.7361252091715041e-01, 6.3538473320684008e-01,
          1.7690968640620688e-01, 1.7595051841300555e-01,
          -2.6395661843723922e-01, 9.5090758703577444e-02,
          -2.2687112419719266e-01, -1.1246663014128638e-01,
          -1.2539528227056951e-01, -8.0430340571586822e-01,
          -2.7705167419530583e+00, 7.3779393251459113e-01,
          1.0835950454365821e-01, -6.7193993071449021e-01,
          -1.1992185909482526e-01, 4.7011301511655468e-01,
          -6.7685253465598755e-03, -7.6611203270596211e-03,
          -5.3923698476174475e-01, 3.4579439134282364e-01,
          -1.6148799225893865e-02, 4.5135094873811915e-01,
          -8.5255028725110787e-02, 1.4581305907154485e-01,
          3.0491973577728337e-01, -3.4086371344377286e-01,
          -6.6742951699821331e+00, 8.6025971066272106e-02,
          3.3289910368037401e-01, -9.0368454994315117e-02,
          -8.1480753617641510e-01, 1.3965699041049913e+00,
          1.4269839393700140e-01, 2.8898629887836376e-02,
          -5.8187368069512213e-01, -4.8958871822022509e-01,
          -8.0662348025544700e-02, 2.5374445997861417e-01,
          1.0091220538619958e-01, 1.2920465339295220e-01,
          4.2359297546905306e-01, 6.6040912420240627e-01,
          -6.0413306172263583e+00, -1.9760485683709881e-03,
          2.8191861507947935e-01, 5.4034879174205019e-02,
          -1.5700914793289594e-01, 1.2942405691510073e+00,
          5.1582109079751685e-02, -2.7686186716828809e-01,
          -6.0693346685796634e-01, 2.9041386792746225e-02,
          -2.3351285306002587e-01, 9.4480548122630970e-01,
          -5.3787402017258146e-01, 1.6511103698339660e-01,
          1.8522731982008833e-01, 4.9258511632835134e-01,
          -3.3059804232095606e+00, 4.5295108711196359e-02,
          4.1000968353637823e-01, -5.1224957356468892e-01,
          -4.5802637196884360e-01, -5.0688961993069148e-01,
          -5.4484679708613515e-01, 4.9355554926255280e-01,
          -6.2194058550915154e-01, 2.6820479914545628e-02,
          -8.1659692557909155e-02, -5.4317142011610342e-01,
          -7.1808791821904228e-01, 3.1047547434576234e-01,
          1.9184639590693300e-01, -4.2908107539874818e-01,
          -2.9798709600563327e+00, 2.5723735581088536e-01,
          -5.2034863119200699e-02, -4.7879547086990909e-02,
          -6.0435366695576986e-01, -4.1696638302995720e-02,
          -4.7346780276831868e-01, -6.7721193106072455e-02,
          -2.5756844607253582e-01, -4.8047359209778373e-01,
          -2.5251253464285572e-01, -8.8486297679073303e-02,
          -4.4502075354916515e-01, 7.7304845958798274e-01,
          9.6770171596409198e-03, -4.7272003920631650e-01,
          -2.8347294972231927e+00, 3.5054551918337999e-03,
          -1.1652991154030835e-02, -5.3541988365331505e-01,
          -1.3130003483461067e-01, 6.1836958202815517e-01,
          -6.3084799493870503e-01, 3.2876841063023701e-02,
          -5.4643982256814494e-02, -4.0450423829900650e-01,
          -3.6508691588430325e-01, -5.2572875713929401e-01,
          -5.1002955752537205e-01, 3.4954232142175246e-01,
          3.6102098131994990e-02, 4.3960661472809789e-02,
          -1.8889852020557769e+00, -4.0199876761333997e-01,
          9.8524019727196863e-02, -5.0388123510038285e-01,
          4.2288780132594184e-01, 5.9849426667172800e-01,
          -1.5242210196113865e-01, -9.7803250451060608e-01,
          -1.5572249919890521e-01, -1.7639653891585066e-01,
          1.3106075420709737e-01, -9.0944480284719897e-01,
          -4.4502263123494507e-02, 1.7826347637844647e-01,
          -6.9595954806981622e-02, -1.0076886477782812e-02,
          -5.2494219369565904e+00, 3.8172424663533301e-02,
          4.1875804552930196e-01, -3.1879533398628795e-01,
          2.9236978341406428e-01, -8.8509560328529580e-02,
          -1.8695201402416969e-01, -6.1520093391256769e-01,
          -4.9449536206326961e-01, 4.7924338969324987e-01,
          -2.3108333258271646e-01, -1.1707368744788333e+00,
          3.2268169907096200e-01, -1.9619930156884699e-01,
          -3.2577376421120169e-01, -1.0678793961132504e-01,
          -6.5515235508817806e+00, -4.3224913537344650e-01,
          -2.9297617375088014e-01, 2.4365365620756449e-01,
          5.4489011834098944e-01, 1.9703587782726539e-01,
          -4.8673966608954411e-01, 3.3872927883202503e-01,
          6.0596618801727731e-01, 6.0460829224875190e-01,
          -3.2993223233055058e-01, -3.7848533979052379e-01,
          5.4252407973325911e-01, -4.5000383110552690e-02,
          -2.0399009713168573e-01, -1.5632282740418638e-01,
          -9.3072936754612119e+00, -1.4564641768258627e-01,
          -1.3057803615080393e-01, -5.8364645970178231e-01,
          3.2918767410756028e-01, -3.5215858584521126e-01,
          -3.9943540275320616e-01, -2.8197919781726404e-02,
          4.8047375813965348e-01, -2.7816128547667640e-01,
          -2.2873268763110613e-01, -4.8282886304149530e-01,
          2.9443913412660838e-01, -7.0534845358833989e-02,
          1.0780512436604191e-01, 1.0821035951882227e-01,
          -6.9647267004081357e+00, 1.5649177441195505e-01,
          -1.2145993050055753e-01, -1.5037213112340261e-01,
          -7.7999863212282625e-02, 1.5420327045357516e+00,
          2.3400513409250412e-01, -5.3708889457107756e-01,
          -2.9958308043464493e-01, -4.0468285397423726e-02,
          2.4314433157736220e-01, 4.6079354874815676e-01,
          4.3749880184047865e-02, 2.0401779827520281e-01,
          5.8522761447158045e-01, -2.2166773684568419e-01,
          -1.2133946598643742e+01, 4.3726667930046914e-01,
          -2.5066993637948792e-01, -4.0644500401504485e-01,
          -1.8460456114476009e-02, 1.0092194424184624e+00,
          2.6347474284669875e-01, -1.8243614666583771e-01,
          -3.8861447443987979e-01, 2.0898030277752153e-01,
          1.3542741617196888e-01, 4.8209815231900721e-01,
          -1.6034873460465332e-01, -1.2376832444785331e-01,
          -2.2321626018227700e-01, -3.1215191854784052e-01,
          -8.0178264462462110e+00, -4.4533420613216768e-01,
          -7.5862205336186661e-01, -3.2054986657912821e-01,
          -1.9825309173911559e-01, 5.4276672052321306e-01,
          -3.9873265009737799e-02, 3.1067615320262448e-01,
